// Neural Network File Format by Kyle Julian, Stanford 2016
4,25,5,25,
25,23,18,11,5,
0,
-308430.3287555392,-2.279916977312119,-3.0264938167638684,-3.435227505132586,-8.21383130461441,-3.958905441417518,-3.5481252177482334,-3.2200532475085897,-4.971537313176197,-4.567915498072759,-3.095138006348182,-2.6655894641264957,-2.3916548553840253,-39.19457933191481,-5.183378637983553,-85.77598932917738,-2.2777665415272956,-7.1839977003928475,-1.7664579753429601,-1.4399475124157224,-8.179012848061747,-1.3206332608821167,-6.694177826392845,-9.521228650535415,-6.774731022723831,
1376863.3287555391,10.298213284893034,4.0582723994737,3.4633125382836187,8.40240595393136,5.254674808246049,2.124315792321526,2.079870002829122,5.564232402469144,4.976275645274329,4.00265620332101,3.7913330248147092,2.323486459863818,11.361180900382678,7.607511924951641,16.489596001620285,48.94296629023217,2.389154507148474,11.843083032150012,7.979064303988618,13.42772591998923,27.274178705326115,9.641192954871116,1.4641062754587983,22.25114903767256,
0,0,0,0,0,0,0,0,0,0,0,0,0,0,0,0,0,0,0,0,0,0,0,0,0,0,
1,1,1,1,1,1,1,1,1,1,1,1,1,1,1,1,1,1,1,1,1,1,1,1,1,1,
7.71829e-02,3.76976e+00,-4.21914e+00,-1.06893e-01,4.69510e-02,2.15700e-01,2.60128e-01,-2.32504e-03,-1.06587e-01,3.64575e-02,3.16557e-02,2.00291e-01,-2.35430e-02,-3.28624e-01,2.59058e-01,-3.21021e-03,1.12357e-02,-7.91137e-01,9.40988e-01,-2.18946e+00,3.58480e-01,6.71900e-01,1.75662e-01,5.15179e-01,6.35905e-01,
-1.49309e-01,1.05572e+00,-1.11245e+00,-1.82966e-01,-5.69301e-02,-2.83327e-01,1.44948e+00,9.10946e-03,1.70094e+00,8.04137e-01,-7.06558e-01,6.90040e-02,-9.84251e-02,-1.38322e-01,1.18988e-01,1.51535e-01,6.20024e-02,-3.90988e-02,-1.78373e+00,-9.33631e-01,-8.14089e-01,-5.34296e-01,-1.77704e+00,-4.72275e-01,-1.50227e+00,
-1.84304e-01,-3.48513e+00,2.79916e+00,-1.80316e-01,-5.28323e-02,3.67673e-01,-1.51840e-01,8.77498e-03,-6.59994e-01,7.44364e-01,-2.22137e-01,2.46379e-01,2.47012e-01,-3.73330e-01,1.28314e-01,-3.35633e-01,7.87976e-01,-1.08671e+00,-5.51397e-01,-2.10659e+00,-4.50740e-01,-6.21323e-02,2.76705e-01,-5.43214e-01,8.24727e-01,
-1.56716e-01,1.48176e+00,6.55658e-01,-3.95412e-01,1.25753e+00,-7.88507e-01,9.84664e-02,-1.97145e-01,5.72280e-01,-2.70396e-01,3.96506e-01,8.10195e-01,-4.86467e-01,-1.34967e+00,8.01326e-03,-3.24486e-01,-1.42911e-01,-3.21331e-01,8.96749e-01,1.91967e+00,-6.80776e-01,1.05665e-01,-3.87769e-01,5.20284e-01,-2.96493e-01,
-1.52538e-01,3.07791e-01,9.12320e-01,8.81681e-02,-4.21848e-01,-7.25617e-01,-1.64454e+00,1.64567e-01,-7.87877e-01,-5.46153e-01,3.06068e-01,2.82553e-02,-4.38452e-01,-5.37388e-02,9.47271e-02,-1.53929e-01,-9.42200e-01,2.38098e-01,6.53279e-01,-1.61900e+00,7.79304e-01,3.53687e-01,-2.69389e+00,2.31022e-01,-9.44464e-01,
-7.84938e-02,-1.43068e+00,8.31055e-01,-4.98879e-01,6.94524e-01,1.04285e+00,-4.33197e-01,9.77734e-01,-6.58594e-01,9.67757e-01,-9.69554e-01,6.55254e-02,-1.70962e-01,-2.78396e-01,-2.03660e-01,-5.09186e-02,7.01633e-02,6.56741e-02,6.24896e-01,-1.24430e-01,-4.06528e-01,-5.92370e-01,3.03527e+00,2.65336e-01,-1.00263e+00,
2.69881e-02,9.43778e-01,-4.02371e+00,-2.71990e-01,-6.52518e-02,2.36999e-01,-4.25468e-01,-1.04746e-01,-4.14958e-01,8.77184e-01,2.43731e-01,-2.32014e-01,3.88436e-01,3.27673e-01,-1.24843e-01,-5.01884e-02,1.37079e+00,-9.10495e-01,-2.59888e-01,-7.51158e-01,-1.53394e+00,4.47209e-01,9.82142e-01,1.40753e-01,5.69941e-01,
2.01869e-01,-4.17221e+00,-2.03851e+00,-1.29838e-01,-1.72786e-01,1.83753e-01,-5.30620e-01,5.15705e-01,-6.47840e-01,3.62441e-01,-2.84309e-01,-5.45930e-01,2.98010e-02,1.15680e+00,3.40409e-02,4.25456e-03,-5.86577e-02,-1.35052e+00,-9.28593e-01,-1.91522e-01,1.59130e-01,-1.80538e-01,-4.23477e-01,-2.08186e-01,-3.87530e-01,
-1.72309e-01,-5.57916e-02,2.84145e-01,1.07975e-02,2.40833e-01,8.34246e-01,-7.30634e-01,5.77914e-02,-1.01153e+00,7.84765e-01,-4.94752e-01,1.39111e+00,-1.30786e-01,-2.58845e+00,1.15866e+00,3.15238e-02,-7.90053e-01,4.43017e-01,-3.31951e-01,3.78959e-01,-1.21401e+00,4.21595e-01,-3.25866e-01,-2.77972e-01,3.03096e-01,
-3.40244e-01,1.97452e+00,-1.69519e+00,1.53493e-01,-2.88101e-01,1.13820e+00,1.34233e+00,-1.11875e+00,6.07366e-01,-3.14962e-01,4.61219e-01,-3.65591e-01,1.33599e-01,7.24342e-01,-9.23306e-02,-2.41119e+00,-1.94291e-01,-1.17498e-01,-1.18218e-01,5.34403e-01,-1.51852e+00,-1.16072e-01,-4.01008e-01,-1.55555e-02,4.49290e-01,
9.87845e-03,2.47612e+00,-1.72669e+00,1.08334e-01,-1.53997e-01,-8.60027e-02,-1.53226e-01,-2.73811e-01,-5.64253e-01,-3.24799e-01,1.01324e-01,6.18359e-01,4.76046e-01,-1.10214e+00,5.15055e-01,1.56079e-01,8.89029e-01,1.00571e+00,-1.54045e+00,6.31963e-01,-1.75599e+00,5.02274e-01,1.27936e-01,-7.91329e-01,3.98772e-01,
-8.59294e-02,3.33323e+00,-4.98422e+00,4.34464e-02,4.12017e-02,9.06073e-02,2.15589e-01,-1.26706e-01,1.68377e-01,3.47485e-01,-1.15685e-01,-5.82841e-01,2.65859e-01,1.12120e+00,-2.61113e-02,-2.08456e-01,-4.80281e-01,-1.33992e+00,-1.81298e-01,-3.54412e-01,-4.97215e-01,-6.42749e-02,-8.53504e-01,-6.65746e-02,-3.46936e-01,
-1.30841e-01,-1.00240e+00,2.58796e+00,-1.89714e-02,2.17315e-02,-8.65321e-01,5.62569e-01,-5.46663e-01,1.27912e+00,1.86504e-01,-1.53292e-01,-3.86781e-01,5.40190e-02,6.64847e-01,1.58139e-01,-7.20893e-02,-9.78628e-01,1.86440e-01,1.21328e+00,-2.95202e+00,1.94137e-01,1.05183e+00,2.81137e-01,7.94979e-01,1.58426e-01,
-1.70941e-01,7.30678e-01,-1.71518e-01,-2.66627e-01,3.20674e-01,-1.18286e-01,-3.23782e-02,3.63684e-03,4.99195e-01,7.58989e-01,-1.32201e-01,-1.20081e-01,-6.89768e-02,1.65600e-01,-2.78666e-01,-7.71556e-02,-5.35348e-01,1.08185e+00,-1.86600e+00,4.87402e+00,2.80626e-01,-4.24450e-01,2.30321e+00,3.86747e-01,7.02970e-01,
3.33621e-01,7.25274e-01,-1.66915e-01,-3.46098e-01,-3.10998e-01,2.45166e-01,-1.25500e-01,3.23653e-01,-8.53096e-02,-3.16280e-02,-2.95443e-02,-4.99295e-01,-1.27081e+00,8.61960e-01,3.40712e-02,2.22157e-02,1.18743e-01,7.88589e-01,4.73818e-02,1.09858e-01,1.98106e+00,-1.61678e+00,2.05948e+00,7.78604e-01,5.76759e-01,
-1.21857e-01,-9.49438e-01,1.66390e+00,-2.90410e-01,-7.88499e-02,1.81486e+00,9.32370e-01,-5.18598e-01,4.08619e-01,7.58523e-01,-1.86153e-01,-3.11580e-02,3.05182e-01,5.87540e-02,-2.49943e-01,-4.09129e-01,2.65586e-01,6.33068e-01,-2.06293e+00,3.52681e+00,-1.61710e-01,-4.48817e-01,1.94014e+00,-1.22413e-01,-4.15201e-01,
2.73570e-02,-2.93553e+00,9.27276e-01,-5.89180e-02,-1.88647e-01,-5.57155e-01,-2.40878e-01,7.51093e-03,-1.44662e-01,3.70605e-02,2.02502e-02,-1.19169e+00,4.16147e-01,2.18449e+00,-3.44674e-01,1.76071e-01,8.42182e-01,2.84533e-01,-9.18157e-01,5.28414e+00,-6.55505e-01,-5.44072e-01,3.59967e+00,-8.12425e-01,4.25698e-01,
-1.23949e-02,1.24874e+00,4.50861e+00,-3.40670e-02,-7.13568e-02,8.20526e-02,-4.39145e-03,-1.91035e-02,1.11237e-01,-1.37981e-01,1.62099e-01,8.13362e-01,-1.21738e-02,-1.59816e+00,5.57052e-02,-4.68055e-02,-3.12179e-01,-3.42365e-01,4.59939e-01,-1.73639e-01,-5.47226e-02,9.67094e-02,9.27740e-01,1.38475e-01,-1.01009e-02,
-1.08217e-01,-1.63506e+00,-1.46229e+00,1.92473e-01,6.23060e-01,2.82118e-01,1.52751e-01,-1.05641e-01,-3.32018e-01,-2.99031e-01,-1.66332e+00,-8.09244e-01,-1.38521e-03,1.38868e+00,-6.31706e-02,-1.37208e-01,1.98539e+00,-1.16219e-01,-3.63199e-01,-3.20578e-02,3.92100e-01,1.11690e-01,-8.31569e-01,7.22605e-02,1.51688e-01,
1.64556e-02,-1.76793e+00,1.31464e+00,1.14052e-02,-6.11391e-02,-1.70698e-01,-1.76340e-01,-2.43420e-02,6.12246e-02,8.29971e-02,3.58701e-02,-1.39638e+00,3.43345e-01,2.61768e+00,-3.50453e-01,-2.95012e-02,4.77159e-02,-2.39080e+00,-3.23738e+00,-3.98189e+00,1.79197e-02,2.06690e-01,3.55251e-01,9.47567e-02,-1.98822e+00,
2.32619e-01,3.59041e-01,-1.28876e+00,-2.97056e-01,6.48393e-01,8.00538e-02,3.12809e-01,7.63433e-01,4.10643e-01,-1.71915e-01,-4.00900e-02,4.66825e-01,3.60921e-01,-7.57294e-01,-7.70726e-01,2.16450e-01,-1.37780e+00,-3.04410e-01,4.58012e-01,4.08959e-01,4.92469e-01,-1.12325e-01,6.08927e-01,-9.02927e-01,-2.67639e-02,
7.44856e-03,2.71691e+00,5.50931e+00,-1.78918e-01,8.10784e-02,9.86179e-02,-7.25551e-02,-5.80523e-02,-1.93826e-01,3.87687e-01,6.87088e-02,-1.78387e-01,5.56260e-01,2.94318e-01,-1.90311e-01,-3.48507e-02,5.44954e-01,-5.42246e-01,-5.02088e-01,-6.21021e-01,-7.29644e-01,-1.51697e-01,9.61738e-01,-2.81413e-01,-5.45078e-01,
2.95572e-01,2.14743e+00,-8.01033e-01,1.34606e-01,-8.83261e-01,7.55222e-01,-7.35827e-01,1.36615e+00,-6.72864e-01,-5.68220e-01,2.96667e-01,1.22267e-01,-3.96735e-02,-9.68698e-02,1.00587e-01,4.21821e-01,-1.15733e-01,7.19125e-01,-3.84660e+00,-3.64881e-01,1.27668e+00,-9.86855e-02,2.76888e-01,9.42487e-02,5.41442e-01,
4.45993e-01,
1.23910e+00,
-2.22104e-01,
-5.40869e-01,
4.58571e-01,
5.78463e-02,
1.37913e+00,
-1.50080e+00,
-9.87859e-02,
-1.64957e+00,
1.14371e+00,
8.65232e-02,
-8.23745e-01,
-1.92431e+00,
3.20787e-01,
1.25327e+00,
-2.74830e+00,
-2.56157e+00,
-8.36821e-01,
1.51896e+00,
-3.38565e-01,
1.50685e+00,
6.44054e-01,
-5.17166e-01,-5.32155e-01,4.64418e-01,1.93199e-01,4.40138e-01,1.47923e-01,3.98261e-01,1.50263e+00,1.37815e-02,1.90680e-01,-4.36534e-01,-7.27747e-01,9.30212e-01,1.01260e-01,-2.86643e-01,8.63288e-01,1.99518e+00,3.33727e-01,-9.99269e-02,-1.06744e+00,2.54458e-02,-3.33062e+00,-5.24488e-02,
-6.07669e-01,3.65921e-01,7.49813e-01,-3.94221e-01,-8.15499e-01,6.03735e-01,-5.88687e-01,2.47107e-02,7.64246e-01,-2.62240e+00,2.56773e-01,4.99967e-01,-1.12965e+00,-1.94274e+00,-3.18833e-01,7.44563e-01,-3.11083e+00,7.38931e-01,-1.66375e+00,3.03164e-01,-9.40809e-01,2.49997e-01,-2.20593e-01,
-2.62116e-01,1.01902e+00,-1.21782e+00,-2.14696e+00,6.66086e-01,5.52221e-01,9.30357e-01,-4.44235e-01,1.48855e-01,-3.17583e-01,-2.58026e-01,1.88566e+00,-2.66297e+00,-1.95479e+00,3.89670e-01,2.64174e-02,1.61013e-01,3.54946e+00,-3.08121e-01,-2.02360e-01,-6.56561e-01,-1.11425e+00,-4.63182e-01,
-5.19638e-01,4.16445e-02,4.02516e-01,6.09387e-03,4.74496e-01,-1.31897e-01,7.58987e-01,3.48937e-01,1.78344e-01,-3.25165e-01,-4.31923e-01,1.05286e+00,-6.71941e-01,-1.07470e+00,-7.59565e-02,2.43965e-01,1.35340e+00,2.76919e-01,9.12213e-01,8.23141e-03,6.01416e-01,-1.76218e-01,6.66600e-02,
-1.38174e-01,-2.18698e-01,1.35797e+00,4.37716e-01,-7.02434e-01,-3.06758e-02,-1.17470e+00,4.28069e-01,2.69490e-01,-9.48672e-01,-1.88063e+00,-2.17904e+00,7.40618e-01,-2.22245e+00,-1.37434e-01,-7.66872e-01,-3.03171e+00,-1.08054e+00,-1.43691e-01,5.13018e-01,-3.33387e+00,1.68797e+00,-2.19076e-01,
8.01373e-01,4.70679e-01,-1.09705e+00,-3.54504e-01,5.06132e-01,-9.74346e-01,-7.28109e-01,-7.77683e-01,8.29456e-03,-6.99845e-01,2.95427e-01,1.12886e+00,-3.43177e-01,-7.33314e-01,-3.38475e-01,1.50609e+00,1.33574e+00,-2.03060e-01,4.61928e-01,-1.30751e+00,-1.98638e-01,8.98288e-01,4.88307e-02,
1.00038e+00,4.09377e-01,2.60137e-01,1.32268e-01,-7.10583e-02,6.60900e-01,-4.18904e-01,-4.02780e-01,-5.70551e-02,-2.28419e-01,4.01698e-01,-8.20574e-02,4.16852e-01,-2.18353e+00,2.47424e-01,2.16600e+00,-9.81338e-01,1.03202e+00,-9.83344e-01,4.52064e-01,7.21343e-01,-1.28747e+00,-3.08434e-01,
-5.02265e-01,1.06944e-01,8.59837e-01,6.33782e-01,-5.45223e-01,2.87376e-01,-8.22698e-01,1.58130e-01,1.53769e-02,-4.81523e-01,-6.51433e-02,-8.15870e-01,6.15424e-01,-7.04810e-01,-7.17178e-01,1.28771e+00,-2.32989e-01,-8.76953e+00,4.79505e-01,1.23943e+00,-1.47666e-01,1.54344e+00,1.00380e+00,
1.10530e+00,3.71491e-01,-1.42848e-01,1.75165e-01,3.89417e-02,9.27976e-01,4.04611e-01,-4.52950e-01,-3.86233e-01,-6.54488e-01,4.26376e-01,2.40567e+00,-7.74267e-01,-1.36806e+00,-2.48891e-01,-4.32382e-01,-1.03634e+00,1.89815e+00,-3.96350e-01,1.30148e+00,-3.91549e-01,-6.81287e-01,-4.37457e-01,
-5.92439e-01,-1.17413e+00,1.01197e+00,1.58708e-01,-9.92606e-01,6.79803e-01,4.69388e-02,7.60967e-01,-6.36042e-01,-7.07755e-01,2.24031e-01,-8.00129e-01,1.82715e+00,-3.20515e-01,-5.11948e-01,1.57245e+00,-5.89257e-01,2.67092e+00,-7.28637e-01,1.06342e+00,3.51579e-01,-1.78743e+00,4.22064e-02,
3.58254e-01,1.36985e+00,-1.65631e+00,5.94965e-01,-3.43984e-01,9.67214e-01,-1.16269e+00,1.07846e+00,-4.39011e-01,-1.42627e+00,-1.96898e-01,-4.23457e-01,1.05490e+00,-1.04873e+00,-2.00030e+00,9.96130e-01,-5.13835e-01,4.84310e-01,-6.17333e-01,4.28745e-01,-1.69528e+00,-4.54824e-01,6.07414e-01,
-3.44186e+00,2.30046e-01,3.40145e-01,-4.76942e-01,-3.46409e-01,7.80169e-02,3.24404e-01,4.85733e-01,-1.74515e+00,-6.89589e-01,1.81098e+00,1.55027e+00,-1.25459e+00,6.87033e-01,1.83743e-01,-6.54540e-01,-2.98059e+00,6.37452e-01,2.61682e-01,1.41189e-01,3.71847e-01,-7.14738e-02,-1.24014e-01,
-5.06518e-02,-8.20139e-01,-1.52824e-01,-1.32364e-01,4.94614e-01,2.71216e-01,-1.98740e-01,2.38805e-01,-2.02555e-01,-8.12851e-02,1.05242e-01,-4.75323e-01,5.27027e-01,9.16408e-01,-7.53250e-01,1.22165e+00,2.35654e+00,1.23697e+00,-2.56331e-01,-3.32110e+00,5.88365e-02,-1.68151e+00,-8.99053e-02,
2.28564e+00,-2.67900e-01,-1.50177e-01,4.66709e-01,-7.07012e-01,6.52498e-01,-6.11961e-01,-3.45105e-02,-1.85858e-02,-4.37503e-01,7.60403e-01,7.29383e-01,2.16501e-01,-1.00907e+00,-2.33774e-01,6.27209e-01,-1.95328e+00,-9.80414e-01,-1.00609e+00,-8.15801e-01,-7.07204e-01,9.05915e-01,1.00887e-01,
7.25968e-01,-5.15986e-01,-1.81886e+00,-2.08453e+00,-5.68956e-01,-2.89501e-01,5.15272e-01,1.12914e+00,-1.54742e-03,3.64919e-01,-3.26205e-01,3.74020e-01,-1.06820e+00,4.54448e-01,-9.11631e-02,-1.54948e+00,4.93865e-02,-9.73295e-01,1.07346e+00,-1.38854e+00,1.08401e-01,1.37941e+00,-4.53921e-01,
-4.67223e-01,-5.54346e-01,-5.56565e-01,-5.42970e-01,-3.55541e-01,-2.22755e-01,-4.75116e+00,-2.37837e+00,-1.04573e+00,8.14057e-01,7.09786e-01,-2.09692e+00,7.77450e-02,4.34468e-01,-2.63368e-01,-1.09323e+00,-5.09343e-01,1.33592e+00,2.38896e+00,-1.66379e+00,-2.27526e+00,7.38419e-01,5.35518e-01,
-3.46767e+00,-3.57942e-01,2.81081e-01,-7.17504e-02,-1.03611e+00,5.79784e-01,-8.84387e-01,-1.89398e+00,-5.21551e-01,-3.30438e-01,9.17128e-01,1.07723e+00,5.22471e-01,-3.02296e-01,-5.27759e-01,1.43957e+00,-3.05612e-01,-1.42009e+00,5.38841e-02,-1.39586e-01,-2.51588e-02,4.96480e-01,9.02080e-01,
2.08434e-01,-1.27986e+00,-2.20057e+00,-3.71454e-01,3.41206e-01,-1.67454e+00,-5.37144e+00,3.38307e+00,-3.68135e-01,1.20540e+00,8.67425e-01,-3.64262e+00,5.70409e-01,2.85705e+00,2.75078e-02,3.05237e-01,1.40173e-01,6.52230e-01,-2.63976e+00,7.90416e-01,3.95112e-01,3.68015e-01,-1.34805e+00,
1.87809e+00,
1.36518e+00,
1.84437e+00,
3.09559e-01,
-4.15873e+00,
-1.33815e+00,
-9.57114e-01,
2.31587e+00,
8.81768e-01,
-4.83496e+00,
1.90408e+00,
2.62518e+00,
1.66918e+00,
1.61038e+00,
-7.00396e+00,
-2.35048e+00,
3.13541e+00,
-5.97778e+00,
1.58898e+00,-3.22481e-01,8.60195e-01,5.68561e-01,4.88430e-01,3.14130e-01,5.72763e-01,-4.92885e-01,1.61147e-01,1.96550e-01,-9.93913e-01,-4.54809e-01,-1.06045e+00,-2.78748e-01,-5.06837e+00,6.75634e-01,1.39068e-01,3.00919e+00,
6.35041e-01,1.07347e-01,1.70270e+00,-1.61826e-01,3.67263e+00,4.66115e-01,4.18049e-01,7.44360e-01,-1.26887e+00,9.06143e-01,-4.34746e-01,2.87493e-01,-5.47945e-01,5.63516e-02,-3.61221e-01,-4.64572e-01,-4.82031e-01,-7.70465e-02,
-3.52891e-02,3.12207e-01,1.84266e+00,6.46951e-01,-7.24308e-02,-7.54250e-01,-7.36077e-01,-1.09591e+00,-2.42197e+00,2.18762e+00,9.54370e-01,-9.05718e-01,-2.66820e-01,1.55796e-01,-3.10950e+00,-1.18304e+00,1.83683e+00,5.43027e-02,
-9.97980e+00,2.74236e-01,5.65160e-01,-5.76191e-01,5.94900e-01,1.60831e-01,-1.09237e+00,3.25589e-02,6.88254e-01,-2.87479e-01,2.00909e-01,-1.49193e+00,-3.85541e+00,2.42889e-02,2.64221e+00,1.95912e+00,1.96294e+00,-1.81647e+00,
6.38069e-01,-7.42126e-01,7.00448e-01,7.41944e-01,-9.77081e-01,1.06530e-01,1.24865e-02,2.26229e-01,-1.85881e+00,-4.83174e-02,8.19615e-01,1.47932e-01,-9.33514e-01,1.90073e-01,4.10747e+00,9.03495e-01,3.28150e-01,1.61741e-01,
9.43698e-01,2.44262e+00,-1.22710e+00,-2.38060e-01,-9.63871e+00,1.02111e-01,-6.42696e-03,-1.65234e-01,-2.37550e+00,-2.46753e+00,1.19313e+00,2.53004e+00,5.78921e-01,-3.63901e+00,2.30197e+00,8.85757e-01,-1.10118e-02,3.71350e-01,
-7.32755e-01,2.35972e-01,-8.65892e-01,-1.51244e-01,5.70508e-02,-1.42396e-01,-1.26474e-01,-2.91991e-01,8.30022e-01,1.40708e-01,-9.36296e-01,-1.00664e+00,2.62425e+00,3.84667e-01,3.34951e+00,4.49310e-01,-5.49501e-01,1.22710e+00,
-1.29162e+00,-4.33549e-01,-6.13306e-01,5.97665e-01,-2.14939e-01,2.33749e+00,6.98430e-01,-9.27098e-01,8.28900e-01,-2.31172e+00,5.01181e-01,8.51570e-02,-2.42681e+00,-3.67893e-01,-1.77421e+00,-3.74700e-01,-5.33614e-01,-6.10084e-01,
-6.88875e-02,1.04970e+00,4.15809e-02,3.93740e-01,6.54018e-01,4.44137e-01,-4.47923e-01,-3.56534e+00,-1.53305e-01,-2.61346e+00,1.93837e-01,6.74949e-01,7.08797e-01,3.40589e-01,1.33242e+00,-1.11560e+00,1.67625e+00,-1.03762e+00,
1.39682e-01,5.19017e-01,1.61973e+00,-9.15270e-01,-2.75920e-02,3.44706e-01,-3.24699e+00,-3.38773e+00,-1.26581e-01,8.35823e-01,3.35119e-02,-4.50130e-01,1.09298e-01,-2.13581e-01,-1.32250e+00,1.91013e+00,-1.26262e+00,-5.10517e-02,
-4.32953e-01,-1.18087e+00,7.45046e-01,7.91345e-01,-1.49335e+00,-7.46913e-01,3.20086e-01,-1.15666e-01,4.25501e-01,1.18413e+00,-1.37250e-01,-2.09457e-01,1.85185e+00,9.24056e-01,-2.04675e+00,6.12343e-01,-8.35251e-02,2.72478e+00,
1.78789e+00,
-1.81852e+00,
-7.69508e-01,
-1.19202e+00,
3.01552e+00,
-3.58433e+00,
3.27189e-01,
-5.07712e-01,
-6.42708e-01,
3.60674e-02,
-3.43616e-01,
-1.21560e+00,5.76964e-01,-8.66247e-01,-4.89318e-01,1.63019e-01,-5.50941e-01,-1.45253e-01,5.89672e-01,-1.05609e-01,-5.45260e-01,3.21283e-01,
-3.93923e-01,4.44440e-02,1.33344e-01,-8.99734e-01,5.40212e-01,-1.37833e+00,1.06264e+00,-2.54441e-01,2.50290e-01,-2.33226e-01,-9.00463e-01,
-6.03078e-01,-3.72937e-01,-2.97910e-01,5.90929e-01,2.12585e-01,-4.54128e-01,-5.52502e-01,-9.94293e-01,-2.22963e-01,-3.90618e-01,4.39793e-01,
-8.79724e-02,2.03556e-01,4.55511e-01,3.55852e-01,-6.21076e-01,-1.00940e-01,-5.94852e-02,8.62113e-02,-1.05548e+00,-1.34200e+00,-4.06652e-01,
-6.56244e-01,7.76682e-01,-7.00377e-01,-1.16259e+00,-2.36316e-01,-9.71830e-02,-1.23462e-01,-7.96696e-02,4.49396e-01,6.29441e-01,-6.04478e-02,
-2.75387e-01,
-2.30456e+00,
-1.64894e+00,
2.26061e+00,
7.87169e-01,
