// Neural Network File Format by Kyle Julian, Stanford 2016
4,25,5,25,
25,23,18,11,5,
0,
-641215.0239165096,-2.404565133194341,-3.092025991723844,-4.100487012884958,-8.283627726732062,-3.9912966890940016,-3.5505921559542526,-3.3279427373887316,-4.889464701374503,-4.501782089524034,-3.2945178721218955,-2.8779740746110916,-2.6340100038756518,-39.24608446948304,-5.657757965151899,-85.64275862958772,-2.427472215873402,-7.18501402474608,-2.532245980959326,-1.7770019495932525,-8.185703959003368,-1.4526162671716423,-6.768375283913739,-9.549558745325724,-6.793401787700306,
2862448.0239165095,10.315626502431277,4.140042044496527,3.646804679691182,8.472202376049015,5.285263188051457,2.6752691393716765,2.651478763380971,5.48215979066745,4.910142236725604,3.9585451232555138,3.7602266894600955,2.772529282451794,11.419424818509196,7.816639198138016,16.356365302030625,48.89338199015642,2.390170831501706,12.227048500007696,8.134600121598757,13.435392672686447,27.13060860761872,9.656459391659654,1.7670152888406707,22.269819802649035,
0,0,0,0,0,0,0,0,0,0,0,0,0,0,0,0,0,0,0,0,0,0,0,0,0,0,
1,1,1,1,1,1,1,1,1,1,1,1,1,1,1,1,1,1,1,1,1,1,1,1,1,1,
7.47654e-02,-1.86549e+00,3.95341e-01,-3.26748e-01,5.73063e-01,3.83168e-01,-3.72677e-01,2.11130e-01,-2.52124e-01,5.22723e-01,-1.30537e+00,3.87468e-01,2.68134e-01,-5.12011e-01,-1.94887e+00,4.29508e-01,1.96090e-01,-6.47886e-02,1.42516e+00,1.00850e-01,-1.15454e+00,2.95355e+00,-1.05839e+00,5.42261e-01,2.75081e-01,
1.56148e-01,2.54097e+00,-2.63210e-02,-1.86298e-01,-2.13054e+00,-9.00108e-03,9.71781e-01,3.87719e-01,-3.48199e-02,7.71712e-01,2.04250e+00,4.60612e-01,-1.55765e-01,-9.68783e-01,-2.96231e-01,-1.40228e+00,-3.33740e-01,-1.58443e+00,2.36859e+00,1.35140e+00,-6.81751e+00,1.00764e+00,-7.81328e-01,1.81092e+00,4.39910e-01,
2.49792e-01,-8.16574e-01,-3.30619e+00,2.18317e-01,1.41076e-01,4.35247e-01,9.58960e-02,-1.51873e+00,1.48189e+00,1.16334e+00,2.81139e+00,2.77815e-01,-2.52998e-01,-6.16676e-01,6.18109e-02,-2.82383e+00,-2.06094e-01,-1.56141e+00,-4.67556e-02,1.21678e+00,1.58970e+00,-2.43186e-01,5.47570e-01,1.89671e-01,-4.08874e-01,
-6.50574e-02,-1.81370e-01,-3.27374e+00,-6.17490e-01,3.60388e-01,1.13609e+00,2.22586e+00,-5.18913e-01,2.08290e-01,1.27683e+00,-4.26875e-01,-1.57414e+00,6.95121e-01,3.02408e+00,-8.19624e-01,-1.05507e+00,9.51180e-01,1.55191e+00,-2.57120e+00,-3.95694e-01,-4.09098e-01,7.60962e-01,-3.99082e-01,1.46829e+00,-8.13203e-01,
-1.39947e+00,1.39372e+00,-1.41167e+00,-1.51246e-01,-1.06854e+00,1.14576e+00,5.45226e+00,6.69688e-01,-8.12535e-01,-9.71884e-01,-9.42550e-01,2.45770e-02,-3.98463e-01,1.43909e-01,1.85219e-01,8.64098e-01,-3.98056e-01,-4.14235e-01,8.66527e-01,-9.82907e-02,-2.28117e-01,1.64381e+00,-1.39135e+00,1.15319e+00,-3.60533e+00,
-1.90270e-01,1.21681e+00,-1.78559e-01,-8.65028e-02,3.73013e-01,-2.45690e-01,-3.45954e-01,-2.36438e-01,-3.62607e-01,2.93146e-01,2.93458e-04,-8.03904e-01,5.95954e-01,1.41047e+00,-3.23113e-01,-3.01313e-01,-7.43607e-02,1.11310e-01,1.11013e+00,8.12967e+00,-1.28357e+00,-8.99492e-01,-1.89197e+00,-7.58943e-01,-3.79493e+00,
7.93715e-02,-1.93828e+00,-3.59952e+00,5.77937e-01,-2.78570e-01,7.91505e-01,1.58964e+00,-7.03497e-01,-1.63774e-01,-2.61544e+00,-1.60667e-01,-2.13745e-01,3.71913e-01,2.79045e-01,2.74689e-01,3.07786e-01,2.12721e-01,5.43147e-01,1.61515e-01,2.68467e-01,1.39413e-01,1.50062e+00,-3.25358e-01,1.07808e+00,1.72433e+00,
1.55574e-01,-1.12208e+00,-3.18514e+00,-6.20578e-01,1.13234e-01,1.92010e+00,1.03978e+00,-7.38602e-01,8.78969e-01,1.11537e+00,-5.10882e-01,-3.74989e-01,-1.31315e-01,7.07037e-01,1.12815e-01,-6.53467e-01,6.80228e-01,-3.03225e+00,-2.92094e+00,4.14174e-01,7.49167e-01,-1.92416e+00,6.78383e+00,-1.31702e+00,1.73342e+00,
4.07700e-01,4.15302e+00,-1.83826e+00,-2.29924e-01,-9.99855e-01,-3.62213e-01,1.89621e+00,3.39262e-01,1.26220e+00,-5.73802e-01,9.47738e-01,2.31474e-01,1.31960e-01,-1.31194e-01,6.14652e-01,7.08126e-01,1.00734e+00,1.23401e+00,-6.46329e-01,-6.73076e-01,4.49267e-01,-3.87449e-01,-2.14612e+00,-7.77900e-01,-5.53486e+00,
-2.35533e-01,-6.24936e-01,3.58871e-01,9.48132e-03,6.78001e-01,1.65727e+00,-6.57560e-01,1.03688e+00,-2.96397e-01,1.47486e+00,-1.85160e+00,1.74668e-01,6.65518e-01,-2.06052e-01,-1.17040e+00,1.02475e+00,3.17663e+00,-6.65485e-01,1.71441e+00,1.35702e+00,-4.89223e-02,-3.83695e-01,-1.97132e+00,-8.95962e-01,-2.49985e+00,
-1.91271e-02,-1.00515e+00,1.66521e+00,4.40139e-01,5.80181e-01,-4.88619e-01,2.04478e-01,-5.91111e-01,3.44794e-01,8.97823e-01,1.67274e+00,3.77805e-01,-6.20348e-01,-3.42159e-01,-1.63043e+00,-4.41726e-01,-1.86974e+00,-1.03324e+00,8.27754e-01,3.31319e+00,-2.56057e+00,-8.17094e-01,1.49243e+00,9.70315e-01,-3.47836e-01,
-3.06766e-02,-3.38327e+00,2.89147e+00,-1.53482e-01,1.24998e-01,2.08872e-01,5.23208e-01,-1.31455e-01,-1.06208e+00,4.77960e-01,5.55612e-03,-9.16137e-03,3.20404e-02,1.29580e-01,-2.10347e-01,-4.15256e-01,1.24693e-01,-5.10221e-02,1.71201e-01,-3.99267e+00,1.27221e-01,-7.54625e-01,6.01184e+00,-6.44781e-01,4.44320e-01,
-2.52932e-01,1.33447e+00,-2.11946e+00,-2.31940e-01,-4.27859e-01,2.27872e+00,1.35056e+00,-3.10950e-01,1.92232e+00,1.58863e+00,2.98750e-01,-2.73243e-01,-9.47166e-01,3.71038e-01,-7.06260e-01,3.96057e-01,-3.62613e-01,3.37132e+00,-5.04647e+00,4.18456e-01,-2.43153e+00,-1.19139e+00,1.98092e+00,-1.97759e+00,2.11142e+00,
-1.06129e-01,6.88514e-01,1.26216e+00,1.35140e-01,5.55558e-01,-4.73106e-01,2.09333e-01,-8.66480e-01,-7.29981e-01,3.36200e-01,-5.03482e-01,9.63317e-01,6.71171e-02,-1.89054e+00,-7.28618e-01,-5.28754e-01,5.72833e+00,-1.32944e+00,2.83980e+00,1.88696e+00,-2.76502e-02,-1.30199e+00,-2.67453e+00,-8.61540e-01,-1.59787e+00,
-2.03904e-01,-3.08568e+00,1.49515e+00,-8.67189e-02,2.30528e-01,-1.32056e+00,1.50441e+00,-1.76476e+00,1.95442e+00,1.17315e+00,1.52293e+00,2.32026e-01,1.51322e-01,-5.54089e-01,-7.57962e-01,-1.32347e+00,-3.11958e-01,1.20361e+00,-4.68976e+00,3.71768e+00,9.41908e-01,8.21946e-01,4.38214e-01,1.47853e+00,-2.05888e+00,
-7.72988e-01,-3.02133e+00,3.76233e+00,-2.40179e-01,-1.21644e-01,2.36060e+00,2.73892e-01,1.45054e+00,1.87624e-02,3.86888e-01,-1.74152e+00,3.25355e-01,-4.71081e-02,-5.61811e-01,3.97836e-01,-2.69228e-01,3.37090e-01,4.10111e-02,1.01335e+00,-9.09905e-02,-2.28760e-01,-3.46882e-01,-6.37452e-01,-9.38475e-01,-9.16034e-01,
1.49450e-01,-8.04811e-01,-1.52901e+00,-1.49713e-01,1.09271e+00,-9.57536e-03,-3.78677e-01,9.21681e-01,-5.34579e-01,-1.21837e-01,-2.27673e+00,2.00056e-01,3.51614e-01,-2.43525e-01,-3.48446e-01,1.55641e-02,1.04997e-02,-5.41057e-02,2.52451e-01,3.49381e+00,-1.79258e+00,-1.01279e+00,1.50269e+00,-8.78421e-01,1.62251e+00,
-1.33879e-01,4.03610e+00,-3.62048e+00,1.57769e-01,7.77648e-02,-7.33912e-01,-5.91165e-01,-2.76676e-01,9.75432e-01,1.08204e-01,1.19441e-01,3.78629e-02,4.92801e-01,-4.71480e-02,-3.53444e-01,4.43390e-01,-9.09315e-02,-1.59484e+00,7.87685e-01,-3.33482e+00,-6.39827e-01,7.19657e-01,1.37178e+00,8.74087e-02,1.88990e+00,
-1.48131e-02,4.53107e+00,-5.90928e+00,-2.88433e-01,3.37789e-01,-6.51124e-01,-4.10662e-01,-4.12072e-01,1.19846e+00,-9.58491e-02,-3.33933e-01,2.75184e-01,-2.08347e-01,-4.60874e-01,5.88410e-01,2.54688e-02,1.99602e+00,-1.88110e-01,5.30280e-01,-2.90719e+00,6.32736e-01,-2.78138e-01,4.23860e-01,-5.66081e-01,1.76274e+00,
7.71701e-02,8.83665e-02,3.40046e+00,3.34498e-02,-8.37941e-01,3.89752e-01,9.24695e-01,6.27017e-01,1.55001e-01,-4.11503e-02,8.31665e-01,-2.99184e-01,4.47925e-01,7.89910e-01,-9.50185e-01,5.42008e-01,6.09599e-01,-7.96932e-01,-9.56020e-01,-9.49007e-01,-8.75916e-01,-1.13520e+00,-1.26590e+00,-5.97329e-01,-3.21087e-01,
1.90278e-02,4.58352e+00,1.53376e+00,-3.85082e-01,1.80698e+00,1.50221e+00,-3.70039e-01,4.04678e-01,-1.58953e-01,1.82748e-01,-2.58244e+00,9.71794e-01,3.20067e-01,-1.70952e+00,4.47022e-01,-7.50931e-02,-6.87043e-01,-9.48744e-01,3.78873e-01,1.43900e+00,6.96478e-01,-1.25064e+00,-1.61258e+00,-1.68151e+00,-1.47521e+00,
-7.99791e-02,4.42536e+00,2.09742e+00,-1.32749e-01,2.26410e-01,3.45018e-01,-5.49698e-01,9.18444e-01,-4.67537e-01,4.18778e-02,1.33351e-01,-1.73524e-02,-5.11826e-02,-1.24087e-01,3.34226e-01,-3.61868e-01,3.14648e-02,9.80894e-01,4.79459e-01,8.90545e-02,-7.05674e+00,-1.75633e+00,5.08864e+00,-1.67222e+00,-2.41707e+00,
7.84772e-02,-1.58071e+00,2.07200e+00,-4.74385e-01,7.40776e-02,-3.73171e-01,1.29637e+00,-9.40868e-01,-1.33693e+00,8.67527e-01,-2.09038e-01,-3.78090e-01,-2.16043e-01,6.72701e-01,2.14411e-01,-7.28043e-01,-1.42408e+00,-2.20162e+00,9.63632e-01,1.02817e+00,3.96853e-01,6.38974e-02,1.63704e+00,5.43257e-01,-4.16999e-01,
2.79882e-01,
-1.55871e+00,
-2.38962e+00,
1.29625e+00,
-2.20463e+00,
-3.39984e+00,
-4.87200e+00,
-1.26165e+00,
1.25100e-01,
2.09024e-02,
-1.88754e+00,
7.89237e-01,
-1.58322e+00,
-7.99133e-01,
-9.22720e-01,
9.59248e-01,
-1.54224e+00,
8.29740e-01,
-3.70053e+00,
5.92349e-01,
-5.51844e-02,
-6.05193e-01,
1.12813e+00,
3.11808e-01,-2.43710e-01,-1.07375e+00,1.83975e-02,9.93365e-01,3.64093e+00,-2.95312e+00,8.93639e-01,3.93785e-02,-7.02521e-02,1.77821e+00,-2.24945e+00,-1.43482e+00,5.21369e-02,-1.04203e-01,-1.01686e-01,6.66218e-01,8.66859e-01,3.48661e-01,9.33716e-01,-1.30296e+00,-6.21522e-01,-2.68901e-02,
3.60889e-01,-1.38665e+00,1.15168e+00,2.11780e+00,-5.62931e-01,5.79132e-01,1.36396e+00,-1.93337e+00,1.76963e+00,5.86529e-01,1.56761e+00,-6.82406e-01,2.28903e-01,-7.22178e-01,-2.15000e+00,1.08638e+00,1.95640e-01,-1.40818e+00,-5.56737e-02,1.65743e+00,-1.81562e+00,4.06058e-01,-7.73790e-02,
5.84727e-01,-5.60915e-01,8.06504e-01,6.99328e-01,-1.15124e-01,2.85537e-01,-5.69515e-01,-3.76525e-01,-1.03538e-01,-2.96398e+00,6.36344e-01,-1.49182e+01,2.63565e-01,6.82544e-01,1.64616e+00,6.87327e-01,1.22375e+00,-7.41587e+00,-7.26905e+00,1.28308e+00,-1.27932e-01,-1.75693e+01,-1.57214e+00,
5.43131e-01,1.41204e+00,8.14344e-01,5.53720e-01,2.73787e+00,5.41958e-01,4.67879e-01,-1.43578e+00,-1.23020e-01,-1.97121e+00,-4.58682e-01,1.33050e+00,-5.30171e-01,2.41124e+00,2.33071e-01,-3.83148e+00,2.36452e-01,-1.69859e+00,2.99631e-01,-1.57073e+00,1.03149e+00,4.12616e-01,-2.30104e+00,
8.45596e-01,5.70605e-01,4.46827e-02,-2.42021e+00,2.44540e+00,-6.70218e-02,3.07950e-02,8.94954e-01,-1.31352e+00,1.06022e+00,4.90349e-01,-6.04598e-01,-2.37371e+00,1.48863e+00,4.61956e-01,-2.21526e+00,1.61164e-01,-1.43253e+00,-1.95462e+00,-1.55957e+00,2.79119e-02,4.66501e-01,-1.49884e-01,
3.95771e-01,4.64026e-01,-1.90783e+00,-1.82191e+00,4.42172e-01,2.76394e-01,4.75664e-01,8.27024e-01,1.18813e+00,-2.58053e-01,1.32433e+00,-3.40949e+00,-1.26573e-01,2.13860e+00,4.22334e-01,-1.00679e-02,1.86942e-01,-2.28331e-01,-1.39254e+00,-1.52235e-01,9.03562e-01,5.74612e-02,-8.31674e-03,
3.46312e-02,1.53249e+00,-1.68811e+00,1.25130e+00,2.00850e-01,-1.35330e+00,-1.54270e+00,9.73717e-01,9.75805e-01,-5.35630e-01,-1.19730e+00,3.94213e-01,8.92553e-01,-4.97640e-01,2.18164e+00,3.74287e-01,-8.19975e-01,-5.23741e-01,-8.31660e-03,-2.42357e+00,-1.66013e+00,-3.59901e+00,-1.79108e+00,
7.66927e-01,-1.85326e+00,-2.74823e-01,-1.14382e+00,-4.19593e-01,-4.76889e+00,-1.46430e+01,9.28431e-01,1.34423e+00,-3.83516e-01,4.67769e-01,6.53414e-01,1.20515e-02,9.58025e-02,3.41080e-01,1.55324e+00,2.37470e-01,-7.51286e-01,-1.22536e+00,2.83627e-01,-1.41992e+00,4.93153e-01,-1.80546e-01,
-2.14226e-01,9.77457e-02,-1.38234e+01,7.30529e-01,4.10272e-01,-3.86498e-01,2.70931e+00,-1.53871e+00,1.26774e+00,1.07992e+00,-2.25966e+00,-1.55403e+00,-1.25406e+00,-7.70879e-01,2.32349e+00,1.33539e-01,5.79709e-01,-7.90654e-01,1.78034e+00,-2.96509e-01,-8.01093e-01,1.42602e-01,1.06083e+00,
-3.10379e-01,-4.07275e+00,-7.89828e-01,1.05064e+00,2.13563e-01,-3.06433e+00,-2.62203e-01,1.01402e+00,8.36595e-01,-6.89643e-01,5.85286e-01,1.80042e-01,8.55563e-01,2.19081e+00,4.44499e-01,3.75619e-01,1.04970e+00,1.08811e+00,-8.03533e-01,-3.05562e+00,-1.02016e+00,-8.73721e-01,-2.43253e+00,
4.03720e-01,3.14401e-01,-5.34172e-01,2.12534e+00,-1.10627e-01,-6.07236e-01,-5.18164e-01,3.41716e-03,2.02777e-01,-3.44555e-01,9.31154e-02,-1.22473e+00,5.89277e-01,7.45024e-01,4.37600e-01,8.17696e-01,-3.67263e+00,6.49933e-02,-1.58837e-01,1.19667e+00,5.35306e-01,-5.56975e-01,-3.43119e-01,
1.43156e+00,-8.58355e-02,-1.43597e+00,1.37399e-01,-3.24244e-01,8.44908e-01,-1.34565e+00,2.19858e-01,1.00457e+00,-8.87839e-01,3.86770e-01,3.93591e-01,-1.66967e+00,4.71332e-03,1.79531e+00,7.70460e-01,-4.03645e-01,-2.20790e+00,-3.77973e+00,-1.83790e-01,2.56424e-01,3.80849e-01,1.65926e-02,
4.12631e-01,1.29226e+00,-3.93064e-01,4.08471e-01,9.14572e-01,1.25746e-01,1.44172e+00,-3.37744e-01,-8.40893e-01,-9.70046e-01,-5.41704e-01,5.69673e-01,9.63473e-02,9.58701e-01,4.91726e-01,-1.17438e+00,6.54897e-01,-1.16140e+00,1.09517e+00,1.19780e+00,8.24730e-01,6.32377e-01,-1.37444e+00,
2.59616e-01,1.25728e-01,1.09733e+00,1.97039e+00,-5.25633e-01,1.38447e+00,1.44212e+00,-2.52047e+00,-6.38741e+00,1.36160e-01,-1.51789e+00,-1.41101e+00,9.70411e-01,-1.46695e+00,-4.63895e-01,-8.87312e-01,-1.33583e+00,5.48247e-01,-4.73733e+00,1.51294e+00,1.28533e-01,9.47245e-02,9.93088e-01,
-8.76734e-01,-1.01450e+00,-1.13892e-01,1.45521e+00,8.60312e-01,6.19086e-01,4.71543e-01,-1.06489e+00,-3.89860e-02,6.03088e-01,-8.19998e-01,-1.37096e+00,-8.76604e-01,-1.24190e-01,1.48999e+00,-8.66539e-02,6.22994e-01,-9.04825e-01,1.35268e+00,1.09256e+00,-2.07618e+00,7.33372e-01,9.63845e-01,
2.03428e-01,-1.82193e+00,-1.10040e+00,2.11676e-02,2.94565e-01,-2.09345e+00,-7.57619e-01,-4.60543e-01,8.62576e-01,-1.07684e+00,-1.72061e+00,1.17252e+00,-1.12110e-01,1.44444e-01,2.81460e+00,1.05861e+00,3.94890e-01,5.56984e-02,1.43732e+00,5.73811e-03,-2.69812e+00,2.96569e-02,1.08143e+00,
-1.19838e+00,1.10083e-01,-1.38537e+00,2.67950e+00,-1.38345e+00,-3.05985e-01,-4.85516e-01,-3.90784e+00,1.18252e+00,8.79758e-01,-1.50995e-01,-7.41694e-01,-1.87497e+00,-1.77512e+00,2.09782e-01,1.82325e+00,1.03282e-01,1.85623e+00,-3.34284e+00,-6.96339e-02,4.86298e-01,-2.72629e-01,1.17122e+00,
-5.48249e+00,-2.03698e-01,1.92999e-01,8.58296e-01,-1.00298e-01,-3.54895e-01,-2.13835e+00,-3.28677e-01,-3.64554e-01,1.60682e+00,4.75347e-01,-2.55584e-01,-2.05553e+00,2.01210e-02,3.72660e-01,7.46710e-01,1.49058e+00,1.11395e-01,8.18577e-01,4.32600e-01,6.46726e-01,-8.83466e-01,2.32904e-01,
-3.33069e+00,
6.20645e-01,
-1.79459e+00,
1.49503e+00,
4.69888e+00,
2.82463e+00,
1.39485e+00,
4.82438e+00,
-6.32497e-01,
-4.11756e+00,
2.45910e+00,
2.20281e+00,
7.90657e-01,
4.50151e+00,
1.73368e+00,
-7.08863e-01,
-3.47477e+00,
1.33448e+00,
1.10869e-01,2.81300e-01,1.85801e-01,-4.66798e-01,1.84822e-01,-1.81300e-02,5.48807e-01,-7.01368e-01,-2.23758e-02,-9.50112e-01,-3.08675e-02,-2.61635e-01,2.85994e-01,-4.86194e-01,-3.40869e-01,7.58433e-01,3.99546e-01,-2.04170e-01,
9.48588e-01,-1.42717e+00,5.56918e-01,-1.47877e-01,-1.55125e+01,2.64717e-02,6.42435e-01,1.71711e+00,-1.41747e+00,3.81056e-03,2.26228e-01,-1.28172e+00,-5.65453e-01,-2.37785e-01,6.56808e-01,-2.27436e+00,1.32343e+00,-7.77694e-01,
-2.20026e-01,-9.69831e-01,-1.88457e+00,-4.93722e-01,-4.08808e-01,6.42025e-01,1.06104e+00,1.20674e+00,-4.95652e-02,1.09868e-01,-7.80873e-01,5.51077e-01,1.11508e-01,-5.09569e-01,5.13515e-01,-1.68562e+00,1.16735e-01,-2.06675e-01,
-7.38130e-01,-1.58399e-01,-3.21549e+00,3.79739e-01,-1.00963e+00,8.37113e-01,4.22942e-01,-1.02213e+00,-4.20930e-01,1.41754e+00,-3.49289e-02,5.18755e-01,-1.07113e+00,2.62307e-01,3.40298e-01,-1.42001e-02,-1.79813e-01,2.59048e-02,
1.66878e-01,-4.98830e-01,-2.17565e-01,3.29124e-01,6.05032e-01,-9.33243e-01,-8.51737e-01,3.03918e-01,1.17536e+00,6.49701e-01,1.12029e+00,-1.23889e+00,-1.27100e-01,-1.16905e+00,-8.23327e-01,-1.80413e-01,1.25015e+00,4.80164e-01,
-3.46409e-01,-8.17965e-01,3.69438e-01,2.57034e-01,1.26854e+00,-2.45058e+00,-2.29510e-01,5.94210e-01,1.57206e-01,3.90648e-01,7.67368e-01,8.73408e-01,6.30854e-01,-4.13315e-01,3.11145e-02,-7.43442e-01,-6.77777e-01,3.14065e-01,
-7.22297e-01,4.87177e-01,-1.86683e+00,-1.28862e+00,7.72794e-01,6.83654e-01,-6.80911e-01,-2.89282e-01,-1.19086e+00,1.45974e+00,-7.15081e-01,-6.06563e-01,6.48284e-01,9.28124e-01,-1.20124e-01,8.90130e-01,4.49265e-01,2.94342e-01,
-1.82120e+00,5.77699e-02,-1.20005e+00,1.53312e-01,6.26200e-01,6.55892e-03,-6.57730e-01,8.49588e-01,-8.76558e-01,1.02186e+00,-3.10580e-01,1.13518e+00,-1.99613e-01,5.20969e-01,1.07387e-01,1.76946e-02,-6.93695e-01,4.43782e-01,
8.24064e-01,-3.92394e-01,-1.82947e+00,1.85802e+00,-6.13612e-01,-2.96944e-01,-7.56618e-01,7.05880e-02,7.22778e-01,3.79458e-01,9.22678e-01,2.65281e-02,-1.32387e+00,-6.42818e-01,-6.03876e-01,7.14000e-01,-6.65430e-01,-4.14074e-01,
8.28441e-01,2.31523e-01,2.22735e-01,-5.02388e-01,4.65828e-01,-1.17723e+00,7.91145e-01,-4.83871e-01,-4.51133e-02,-5.63110e-01,-3.12198e-02,1.96932e-01,3.61286e-02,-6.62223e-02,-5.39581e-02,6.50051e-01,-2.05422e+00,2.33998e-01,
-9.10355e-01,-1.20291e+00,-1.82842e-01,1.79024e-01,1.37864e+00,-1.58836e+00,-1.20979e+00,1.16563e+00,5.83351e-01,2.40591e-01,1.27038e+00,1.08976e+00,4.96608e-01,-1.54774e-01,-1.39525e+00,-1.51710e-01,-8.80466e-01,1.02306e+00,
8.78476e+00,
3.25361e+00,
4.15081e+00,
7.22144e-01,
3.83275e+00,
2.79464e+00,
-7.58546e+00,
1.95461e+00,
4.50142e+00,
1.73917e-01,
1.35974e+00,
2.72539e-01,-2.56350e-01,-1.27133e-01,8.87486e-02,3.68312e-01,-1.17570e-01,-2.10821e-01,-6.40584e-02,5.26916e-02,-6.03379e-02,-1.19953e-01,
3.73126e-02,-5.82727e-01,-5.62408e-03,-4.89914e-02,5.48964e-01,-8.50657e-03,-9.96587e-02,7.52118e-02,-1.09059e-01,1.25921e-01,-2.92121e-01,
5.98871e-01,-6.63359e-01,-7.19032e-02,6.40363e-03,3.58843e-01,2.78441e-01,-4.52191e-01,3.54960e-01,7.09931e-02,-3.26093e-01,-7.34269e-01,
4.95933e-01,-5.19728e-01,-3.29457e-01,2.85234e-01,4.12294e-01,-2.48883e-01,-6.73612e-01,1.18550e-01,-3.55916e-01,1.38414e-01,-1.54357e-01,
4.00541e-01,-2.77674e-01,2.00742e-01,-4.53349e-01,-3.20508e-01,-2.01838e-02,-2.61065e-01,-3.95120e-01,-6.15404e-02,1.05393e-01,2.44686e-02,
4.93861e-01,
4.25251e-01,
-2.22911e+00,
5.53797e-01,
5.32265e-01,
