// Neural Network File Format by Kyle Julian, Stanford 2016
4,25,5,25,
25,23,18,11,5,
0,
-475400.0266052264,-2.2742168266317475,-3.040601056373692,-3.4403293669682746,-8.26138642548124,-3.9794837399197758,-3.4782136114468756,-3.236030731177478,-4.91674268662717,-4.5235954438635515,-3.065929722301771,-2.6446477570064935,-2.38907521922462,-39.22936053864814,-5.197984112931053,-85.68767892166507,-2.289458488105962,-7.184468957765953,-1.841010524837456,-1.4818274468390618,-8.183463031701745,-1.2254121390375285,-6.704295645646237,-9.53963292526758,-6.787171966300094,
2122233.0266052266,10.305013134212661,4.072379639083524,3.468414400119307,8.449961074798193,5.275253106748307,2.0544041860201685,2.0233674864980093,5.509437775920118,4.931955591065122,3.973447919274599,3.770391317694707,2.320906823704413,11.395962107116004,7.669447199240675,16.40128559410798,48.909368236810835,2.389625764521578,11.91763558164451,8.031684238411955,13.432176103629228,27.178957583481527,9.651310774124507,1.4825105501909646,22.26358998124882,
0,0,0,0,0,0,0,0,0,0,0,0,0,0,0,0,0,0,0,0,0,0,0,0,0,0,
1,1,1,1,1,1,1,1,1,1,1,1,1,1,1,1,1,1,1,1,1,1,1,1,1,1,
-2.05537e-01,-3.54152e-01,6.16347e-01,1.74775e-02,-3.45422e-02,-5.05290e-01,1.27574e+00,-3.35132e-01,9.48838e-01,-2.02228e-01,-5.16263e-01,-8.44491e-01,7.74450e-01,1.48157e+00,1.19351e+00,-3.66188e-01,-2.15414e-02,1.82739e+00,-1.65882e+00,-8.20143e-02,4.98831e-01,-1.50024e+00,1.92982e+00,-1.26173e+00,8.51503e-01,
-4.61875e-02,-1.74465e+00,-8.70766e-01,-1.78861e-01,8.94643e-01,3.27441e+00,9.06015e-01,-4.58889e-01,-7.39914e-01,4.02200e-03,-5.97092e-01,1.26976e-01,3.87849e-01,-3.01331e-01,5.90856e-02,-9.42440e-01,-3.49536e-01,1.59967e-01,-4.19527e-01,-1.50730e+00,-3.22062e-01,9.74820e-01,5.03431e-01,2.76898e-01,-3.95389e-01,
-2.44977e-01,4.23313e+00,-2.56840e+00,-1.83919e-01,-4.80497e-01,2.43151e+00,-9.70884e-02,-4.63596e-01,-8.22649e-01,4.65323e-01,2.00188e-02,5.90181e-01,9.07932e-02,-9.89617e-01,1.78349e-01,-8.47018e-01,1.88921e-01,-2.27474e-01,4.08607e-01,2.34746e-01,1.05163e-01,1.35876e+00,-1.61284e+00,1.24978e+00,-8.97115e-01,
-7.89495e-02,-5.18057e+00,1.58133e-01,-2.67835e-01,5.94806e-02,-8.80819e-01,-2.20206e+00,-4.98737e-01,7.90803e-01,6.83124e-01,4.16334e-02,-3.87755e-01,1.71509e-02,6.13990e-01,-1.54010e-01,1.48838e-01,2.11987e-01,7.93700e-01,5.47446e-01,-2.31625e+00,-3.68442e+00,9.22903e-02,-2.60174e+00,-1.51852e-01,3.53425e-01,
2.87000e-01,2.35286e+00,2.48663e+00,3.17607e-01,-1.44760e-01,-8.09487e-01,1.19538e-01,-6.68927e-01,-2.35385e-01,-5.77482e-01,3.41327e-01,4.34245e-01,4.68334e-01,-8.29801e-01,-6.20151e-02,-9.47085e-01,-3.35879e-01,1.91189e-01,1.99021e+00,-1.72259e+00,-1.38149e+00,-8.20644e-01,-4.10397e-02,-1.05604e+00,-3.29120e-01,
-3.92080e-01,3.82996e+00,-1.09395e+00,-3.80544e-01,3.84779e-02,2.26557e+00,-2.64377e-03,2.14320e-01,2.27489e-01,1.02745e+00,-8.19111e-01,-1.18921e+00,-2.40489e-01,2.24770e+00,3.51623e-01,4.21646e-02,-1.48554e-01,2.48969e+00,-2.81669e+00,2.52368e+00,-4.54452e+00,-3.58850e-01,1.41905e+00,-6.06034e-01,-8.18592e-01,
3.46493e-01,2.24196e+00,-4.43981e+00,4.06242e-01,-3.94802e-01,-1.59843e-01,2.15963e-01,-1.99041e-01,7.44091e-02,-1.21329e+00,1.30589e-01,1.64157e-01,4.13509e-01,-3.13911e-01,4.02440e-01,-7.44681e-01,1.87661e+00,-7.21222e-01,9.73330e-01,-3.71470e+00,-5.15834e-01,-4.00027e-01,-8.54972e-01,-3.29136e-01,1.24945e+00,
1.75031e-01,-1.67771e+00,-3.36383e-01,-1.15325e-01,2.89458e-01,8.47297e-01,-4.89231e-02,4.19384e-01,4.56444e-02,3.28193e-01,-6.01365e-01,-4.01392e-01,1.11361e+00,8.14572e-01,6.39461e-02,-1.79624e-01,1.22901e-01,1.07264e-01,-4.79941e-01,-3.44561e+00,1.94406e-01,2.04300e+00,-4.33258e-01,7.70405e-01,-3.60334e-01,
9.19023e-03,1.27869e+00,4.88577e+00,2.32820e-02,-3.39672e-01,3.31301e-01,-3.09272e-01,1.74914e-01,2.96863e-03,-1.99027e-01,4.52979e-01,-2.86156e-01,-4.77577e-02,4.68583e-01,-2.91535e-01,-4.31031e-02,-4.62115e-01,4.74695e-01,1.66275e+00,-6.66558e-01,-6.13332e-01,1.93905e+00,4.26553e-01,2.05620e+00,4.60140e-01,
2.49593e-01,1.80029e+00,-3.94703e+00,4.31920e-01,-1.50733e+00,1.69592e-01,-1.14045e+00,3.53825e-01,-2.36603e-01,4.94485e-01,9.78137e-01,3.51182e-01,3.49738e-01,-6.03910e-01,-7.68195e-01,3.06518e-02,-6.64479e-01,-6.77075e-01,-7.22061e+00,7.07427e-01,4.10494e-01,-5.79387e-01,6.46670e-01,7.97615e-01,2.17170e-01,
-5.09392e-01,2.00510e+00,-1.77054e+00,-1.69127e-01,1.03739e+00,-2.77846e-01,-8.85264e-01,1.37999e-01,-4.43160e-01,1.04471e+00,-5.06729e-01,-5.13640e-01,-3.26190e-01,1.12017e+00,-3.10991e-01,-1.50507e+00,-7.89568e-01,3.10209e-01,7.86986e-01,-3.55885e+00,1.56911e+00,-2.18132e-01,-8.90360e-01,3.14398e-01,-4.13729e+00,
3.07776e-01,4.48040e+00,-1.74954e+00,-1.81651e-01,-3.31201e-01,-4.50734e-01,6.42962e-01,-1.75865e-01,1.36840e+00,7.07051e-01,-3.58195e-02,-4.47611e-02,-1.32802e-01,3.17391e-02,7.81314e-02,4.98499e-01,1.67185e-01,5.59894e-01,-1.23350e+00,-1.14267e+00,-4.63721e+00,5.88431e-01,1.26502e-01,4.33629e-01,1.26561e+00,
-1.17880e-01,-1.08553e+00,-2.32861e-01,-6.97446e-02,3.96073e-01,1.24107e+00,-5.21612e-01,1.14921e+00,-3.50601e-01,5.86761e-01,-3.33489e-01,3.92533e-01,-2.06067e-01,-6.97627e-01,-1.15270e-01,-3.21006e-01,1.53062e+00,-9.02190e-01,1.36776e-01,-2.19742e+00,1.21392e+00,-1.20489e-01,-1.18455e+00,6.71373e-01,1.65459e-01,
-6.24999e-01,1.21937e+00,-2.04132e+00,-4.29629e-03,2.61971e-01,2.25380e-01,-1.05927e-01,2.24042e-01,1.66979e-01,-2.11179e-01,7.93004e-01,-5.03220e-01,-6.76917e-02,9.92216e-01,-1.23792e+00,-6.27612e-01,-4.67176e-01,-1.88652e-01,1.77477e-01,4.71706e+00,-5.64980e-01,1.47083e+00,7.52282e-01,2.28747e+00,3.20460e+00,
5.06910e-01,-2.18724e-01,-3.30322e-01,1.05197e-01,5.98626e-03,-8.28862e-02,-5.23164e-01,-5.70373e-01,-6.84227e-01,1.27846e+00,8.75841e-01,2.58798e-01,-1.39557e-01,-4.68509e-01,5.22173e-01,-1.46588e+00,-1.43195e-01,6.66864e-01,-1.89667e+00,2.96978e+00,9.16068e-01,1.52346e+00,3.83700e+00,8.56901e-01,1.68760e+00,
-5.45645e-01,-2.31339e+00,1.87687e+00,-4.11456e-01,-1.59122e-01,1.18647e+00,1.90266e+00,-7.89984e-01,1.87359e+00,5.12833e-01,-1.65760e-01,-4.41214e-01,-1.62054e-01,8.05951e-01,-2.85941e-01,3.86058e-01,-1.35706e-01,1.51723e-01,3.09762e-01,1.91935e-01,-6.14246e-01,-3.07600e-01,-5.14387e-01,-7.84577e-01,2.67379e+00,
9.27811e-02,-2.46154e+00,-2.18106e+00,7.54492e-01,2.21756e-01,2.24245e-01,3.92384e-01,2.82702e-01,-4.34546e-01,-2.03862e+00,-7.16297e-01,-6.24843e-02,1.63843e-01,1.13325e-01,1.20160e-01,-6.32997e-01,-3.92431e-02,-8.88090e-01,2.12454e+00,-3.95684e+00,-1.39663e+00,8.43216e-01,-6.87190e-01,7.96732e-01,1.26104e+00,
6.24002e-02,1.08938e+00,3.11847e+00,1.87371e-01,4.07066e-01,2.85792e-02,-7.25373e-01,-1.30672e-01,-3.36071e-01,-1.86233e-01,-6.66056e-01,1.34307e-01,6.88377e-01,-3.28023e-01,8.03751e-02,-9.70844e-01,-2.87504e+00,-1.66533e+00,-1.60515e+00,-6.35447e-01,-1.17708e-01,9.61403e-01,3.18060e-01,8.22545e-01,1.48346e+00,
3.40214e-01,-5.45497e+00,3.54335e+00,-2.52854e-04,1.08497e-01,-1.59800e-01,9.62291e-01,-1.90031e-01,1.28416e+00,3.74206e-01,-5.02770e-01,2.87409e-01,1.93009e-01,-5.32324e-01,3.06330e-01,-2.27014e-01,1.26683e+00,-2.39095e-01,7.93526e-02,1.41558e+00,8.12434e-02,5.18296e-01,3.09592e+00,3.44342e-01,-1.77976e+00,
-1.92367e-01,1.70938e+00,-2.13588e+00,-4.63141e-01,5.67972e-01,3.87686e-01,-5.77006e-01,4.28955e-01,2.54780e+00,1.14202e+00,5.76067e-01,-4.28971e-02,-1.84894e-01,2.91639e-02,-3.52363e-02,-5.13140e-01,-9.03419e-02,9.55730e-01,-8.43189e-01,1.34207e+00,-1.61995e+00,1.14401e+00,-1.92070e+00,1.00913e+00,-5.25407e-01,
2.46880e-01,2.15742e+00,-4.24462e+00,-1.53229e-01,4.70644e-01,-3.82791e-01,3.26004e-01,-3.24293e-01,7.13164e-03,1.43666e-01,-5.47837e-01,1.14046e-01,-2.58819e-01,-3.00257e-01,4.76709e-01,2.22405e-01,-2.82069e-02,2.17354e-01,-1.50807e-01,6.51140e+00,8.03921e-01,-6.20246e-01,1.55661e+00,-1.14863e+00,1.50889e-01,
-2.63545e-02,-2.93972e+00,3.57403e+00,-4.39548e-01,2.03669e-01,-1.04657e-01,1.20248e+00,-4.81150e-01,4.00977e-01,1.24187e+00,5.72981e-01,-5.08890e-01,1.09322e+00,8.87115e-01,-1.09916e+00,-3.61501e-01,1.60309e+00,5.52753e-01,-1.46121e-01,-1.57424e+00,2.99039e-01,8.87794e-01,1.14565e+00,7.85516e-01,2.49221e+00,
-2.50786e-01,7.66464e-01,8.48892e-01,2.34746e-01,-8.10673e-02,1.07569e+00,-2.79867e-01,5.22395e-01,-3.26538e-01,-6.52642e-01,-4.42203e-01,2.48365e-01,-2.15294e-01,-4.25645e-01,2.01639e-01,-6.55677e-02,2.91078e+00,-3.81425e-01,-6.94174e+00,-3.65194e+00,8.98650e-02,5.88904e-02,1.25255e+00,5.78954e-01,-2.72775e+00,
3.80904e-01,
-2.16405e-01,
4.35303e-01,
-1.76753e+00,
-1.92520e+00,
-9.07424e-01,
-1.17326e+00,
1.93729e+00,
-9.37525e-01,
-9.82381e-01,
1.02033e-01,
6.48763e-01,
7.80660e-01,
-2.11669e+00,
-2.77081e-01,
1.31050e+00,
-3.95891e+00,
-2.82804e+00,
-1.20834e-01,
-3.53063e-01,
-1.88690e+00,
-1.75610e+00,
-3.60416e+00,
-1.78059e-01,7.28514e-01,-6.78397e-01,-1.20783e+00,-4.12896e+00,-2.36609e+00,8.39579e-01,-1.67633e+00,-2.12898e+01,7.90714e-02,1.38673e+00,7.12739e-01,-1.55165e+00,4.23601e-01,6.69376e-04,-8.55680e-01,1.67028e-01,4.29764e-01,3.73199e-01,-5.46065e-01,-1.07535e+00,2.54365e-01,2.58905e+00,
6.28516e-01,-8.15105e-01,1.40744e-01,-1.05640e+00,3.52936e-01,1.78302e+00,-1.74959e+00,-2.16054e-01,2.47927e+00,-4.37122e+00,-7.46454e-01,-3.26676e-01,-1.84057e+00,8.44218e-01,1.30436e+00,-3.48216e+00,-3.20817e+00,-8.77856e-01,-1.32283e+01,-2.12696e-01,9.47750e-01,1.60464e+00,1.43944e-01,
-9.09877e-01,-1.43832e+00,2.13725e+00,-6.34772e-01,1.13817e+00,-8.03321e-01,1.30576e+00,-4.70264e-01,-4.53227e-01,-1.44870e+00,-7.81271e-01,-7.35942e-01,6.45481e-01,3.25993e-01,-1.38375e-01,-8.36300e-01,-1.26443e+00,-3.33942e+00,1.00540e+00,-1.30300e-01,1.76760e-01,1.65867e+00,-1.85447e-01,
8.56622e-02,-1.28627e+00,2.48789e-01,-2.94118e-02,3.89714e-01,-1.45908e+00,-2.06556e-01,3.19985e-01,3.01796e-01,5.61368e-01,1.17215e+00,6.98597e-01,-3.16392e-01,-7.39347e-01,-9.78083e-01,7.18282e-01,1.97568e-01,5.89509e-01,2.00909e+00,-7.67786e-02,3.40605e-01,1.14039e+00,3.97667e-01,
7.42734e-01,-1.93652e+00,-1.12577e-01,-1.76480e-01,1.63880e+00,9.98742e-01,-1.23259e+00,-3.24312e+00,1.71411e-01,1.74413e-02,-7.85177e-01,-1.23926e+00,2.33084e-01,1.89292e-01,-9.41959e-01,-9.04430e-01,-1.46132e+00,5.06541e-01,2.47068e-01,5.67418e-01,1.41774e+00,2.25587e+00,2.14901e+00,
3.12154e-01,1.40642e+00,2.08982e-01,1.63760e+00,-1.29355e+00,3.59927e-01,9.68890e-01,-1.07124e+00,8.39566e-01,1.96108e-01,-5.36439e-01,-1.05008e+00,-3.79032e-01,-5.90836e-01,5.15225e-01,1.80075e-01,-5.00473e-01,6.24107e-01,4.63927e-01,-1.46214e+00,-3.16478e-01,-2.93707e-01,-6.68863e+00,
-4.93158e-01,-1.31242e-01,6.15728e-01,8.53215e-01,1.03952e+00,-4.01004e-01,6.77306e-01,-8.57827e-01,2.56157e+00,-4.97903e-01,3.55778e-01,5.10610e-01,3.06220e-01,-5.21341e+00,-6.65045e-01,4.68238e-02,1.49075e+00,1.11711e+00,1.85198e-01,5.62399e-02,3.04167e-01,1.25857e-01,6.25734e-01,
9.50919e-01,2.33521e-01,1.70474e+00,5.54364e-01,-9.05495e-01,6.14252e-02,-4.64640e-01,4.86896e-01,-5.80587e-01,-3.09169e-01,-1.98031e+00,-5.25084e-01,5.36015e-01,1.40919e-01,-7.46790e-02,-1.36139e+00,1.03823e+00,7.04440e-01,9.75022e-01,-7.08956e-01,4.10699e-01,2.67299e+00,1.36510e+00,
8.71449e-02,-3.40130e-02,6.55349e-01,-6.27626e-01,-4.85186e-01,1.11757e-01,9.06150e-01,5.46080e-01,-9.51492e-01,-1.70314e-01,1.29013e+00,1.11027e+00,-4.83002e-01,-6.71215e-01,2.14118e-01,6.62357e-01,3.17501e-01,-5.39002e-01,2.24480e-01,-2.19902e-01,-3.01223e+00,-1.19975e-01,-3.67639e-01,
-9.45847e-02,1.96734e-01,-2.76507e-01,6.04663e-02,1.32114e+00,1.25203e+00,1.36330e+00,6.32487e-02,4.52709e-02,-3.36602e+00,4.38913e-03,-2.05592e+00,-2.23574e-01,2.97185e-01,6.19325e-01,-2.45913e+00,8.93527e-01,5.72663e-01,-1.33675e-01,2.54467e-01,1.41326e+00,1.27274e+00,1.51008e+00,
1.09586e+00,-1.73455e-02,3.03799e-01,2.42455e-01,1.64029e-01,1.76292e+00,-3.01491e+00,-1.39561e+00,-7.66382e-02,-1.34085e+00,-1.16588e-01,9.38513e-01,-1.43679e-01,8.29103e-01,3.80833e-01,-1.19293e+00,3.99889e-01,3.56600e-01,-2.21894e-01,-7.58625e-01,-1.14589e+00,3.96005e-02,8.17001e-01,
-1.95708e-01,-3.21012e-01,2.24276e-01,-6.03359e-01,1.57592e+00,6.21064e-02,-2.30540e+00,-1.71887e+00,3.00227e-01,5.89976e-01,-8.55636e-01,-1.61042e+00,-2.73030e+00,1.30078e-01,-2.71022e-01,5.60686e-01,1.50434e+00,2.33456e-01,1.54913e+00,1.03131e+00,1.93561e+00,2.05265e-01,3.69075e+00,
5.17113e-01,9.69865e-01,1.44126e+00,-1.61721e+00,-4.62353e-01,6.99011e-02,7.51304e-01,2.25756e-01,-4.50039e-01,-4.75302e-01,2.95339e-01,5.14403e-01,3.60651e-01,-2.19304e+00,-2.21016e+00,7.04192e-01,6.14665e-01,-1.99417e-01,-1.05701e+00,7.37230e-01,4.55748e-01,-1.89943e+00,7.80866e-01,
6.98921e-02,1.07000e+00,-9.08200e-01,-2.35343e+00,1.14255e+00,1.91577e-01,1.11157e+00,6.55074e-01,-4.63017e+01,1.07093e+00,-1.92471e-01,-1.46307e+00,-2.12595e-01,-1.36611e+00,5.42721e-01,1.89620e+00,-1.75854e+00,-6.16396e+00,3.65973e-01,-3.11869e-01,-1.33731e+00,-1.74429e+00,-5.21470e-01,
-6.72512e-01,-5.78519e-01,8.12352e-01,5.44649e-01,-1.05391e+00,-4.58680e-01,-3.78886e+00,-3.01251e-02,2.14730e+00,5.11914e-01,-2.99693e+00,-4.51896e-01,-2.16789e+00,4.30740e-01,1.80336e-01,3.17295e-01,1.01471e+00,-1.12511e-01,2.33335e-01,-1.10772e+00,1.35691e+00,-8.62671e-01,1.72554e+00,
8.50324e-01,-9.04591e-03,4.73836e-02,2.04206e+00,-1.23370e+00,7.12514e-01,-6.97766e-01,-3.30885e-01,-6.03150e-01,-9.13398e-02,-5.79559e-01,-2.82531e-01,7.98527e-01,-1.03442e+00,2.41859e-01,-7.57139e-02,-1.29277e+00,3.08730e-01,6.65127e-01,1.64011e-01,-1.56048e-01,7.43242e-01,1.76996e+00,
-6.67799e-02,6.16933e-01,-8.60965e-01,-1.31126e+00,-4.26794e-01,2.97948e-01,3.11968e-01,7.27701e-01,-5.27718e-01,3.86553e-01,8.10983e-01,5.39093e-01,-7.81416e-01,1.37282e+00,-2.60731e-02,4.02510e-01,-3.35232e+00,-7.74889e+00,1.23327e+00,-5.02375e-01,-1.71269e+00,-9.52646e-01,1.13352e+00,
1.33699e+00,-2.98228e-01,1.36456e+00,-2.49056e-01,3.61927e-01,-3.55557e+00,-8.00681e-01,5.91234e-01,1.26565e+00,-3.21733e-01,-3.71218e-01,-7.11634e-01,9.03522e-01,-6.31473e-01,2.13623e+00,9.26030e-01,-6.24099e-01,-8.69580e-02,-2.26164e+00,2.00420e-02,-7.97061e-01,-3.93164e-01,-6.08425e-01,
2.27361e+00,
-5.34322e-01,
7.84678e-01,
-4.71374e+00,
-2.14205e+00,
5.83805e-01,
6.41249e-01,
-1.66171e+00,
5.01186e+00,
-1.71980e+00,
3.30074e+00,
-6.03402e+00,
2.60527e-01,
-2.53222e+00,
-5.51240e+00,
-7.12497e-01,
3.96199e+00,
5.34555e+00,
-9.07680e-01,-2.81783e-01,9.29625e-01,1.93437e-01,5.53969e-01,7.98430e-01,-3.32103e-01,-5.00922e-01,-1.75445e+00,1.01277e+00,2.21074e-01,-1.14660e+00,9.96839e-01,-1.52808e+00,1.09281e+00,8.48110e-01,1.48473e-01,-5.76337e-01,
1.68772e+00,-1.41041e+00,5.47261e-01,-2.91016e-02,-9.49726e-01,3.59755e-01,6.50950e-01,-2.22313e-01,-2.10734e+00,-6.85044e-01,6.18562e-01,-1.53182e+00,3.89447e-01,-3.08416e-01,9.08806e-01,5.92878e-02,1.32790e+00,-7.90953e-01,
-2.63093e+00,-4.51718e-01,2.93672e+00,-5.14567e-02,3.46183e-01,-1.60002e+00,1.13442e-01,1.08420e-01,9.21498e-01,-1.17172e+00,6.73496e-01,-1.29096e+00,7.23143e-02,2.14889e+00,1.07072e+00,-6.36642e-01,-2.90557e+00,4.25664e-01,
-1.61149e-02,7.67129e-01,-1.30041e+00,3.15347e-01,-1.13789e+00,8.54035e-01,-2.87154e-02,-4.18511e-01,3.40756e-01,3.56602e-01,-1.03385e+00,-4.64541e-01,6.12899e-01,-2.34780e+00,7.55925e-01,3.44835e-01,-4.61406e-01,-6.82089e-01,
-7.35833e-01,-1.90799e-01,1.49456e+00,-1.61592e+00,7.57306e-03,9.12489e-01,3.38695e-01,-1.30045e+00,4.13989e-01,4.73778e-01,-1.66699e-01,-5.28369e-01,4.04001e-01,-1.26928e+00,-2.17002e+00,3.53545e-01,6.61601e-01,1.53550e-02,
-7.09880e-01,-6.55231e+00,-2.93209e-01,5.54714e-02,5.76291e-01,4.60291e-01,-4.01539e-01,-7.23101e-01,-4.09831e+00,1.51293e+00,2.53095e-01,-1.19967e+00,1.75965e+00,-3.47327e-01,8.35044e-01,7.24322e-01,9.67624e-01,-8.33651e-01,
5.42330e-03,-7.32064e-01,2.79123e+00,8.77812e-01,-2.37438e+00,-6.41567e-01,-2.14472e-01,-2.74753e-01,6.69578e-01,-7.18771e-01,1.79977e+00,1.82807e-01,8.00925e-01,9.63616e-01,-2.83972e+00,-4.32180e-02,-1.47749e+00,-1.59292e-01,
2.27235e+00,2.95336e-01,1.16971e+00,3.05945e-01,-8.61769e-03,3.64849e-01,-5.50480e+00,-2.15911e-01,5.92041e-01,2.00793e-01,1.17388e+00,1.28902e+00,8.80758e-01,4.87764e-03,-2.66569e+00,-6.33559e-01,1.49625e-01,-4.44079e-01,
1.55296e+00,-4.33100e-01,-1.43994e+00,1.50573e-01,8.43278e-02,9.04829e-01,2.48397e-01,-2.45634e-01,8.14411e-01,-1.57442e-01,-3.59938e-01,2.68963e-01,-1.85947e-01,-2.23520e-01,3.57358e-01,2.37108e-01,-2.56433e-02,-4.25043e-01,
5.20990e-01,4.90713e-01,2.51445e+00,3.38649e-01,2.00586e+00,8.28103e-01,-7.29979e-01,-5.97688e-02,1.02214e+00,-6.30940e-01,-3.54612e-01,-2.36762e+00,1.11328e-01,-3.27613e-03,2.23599e+00,-2.84226e-01,6.21306e-01,-2.60620e+00,
1.32787e+00,-5.64777e-01,2.59129e-01,-2.36926e-01,1.50744e-02,-9.13340e-02,4.23584e-01,-2.93078e-02,-8.88070e-01,-6.48768e-01,1.07889e+00,-1.87972e+00,-4.12604e+00,7.34152e-01,1.81105e-01,-9.01669e-01,1.62230e-01,-7.51359e-01,
3.61520e+00,
2.94747e+00,
9.27186e-01,
4.78721e+00,
1.14306e+00,
2.13645e+00,
2.83048e+00,
-2.04632e+00,
-4.44684e-01,
-2.32074e+00,
5.40114e+00,
2.14544e-02,9.66307e-03,-8.91920e-02,1.38842e-01,-5.68428e-02,-9.31681e-02,2.89921e-02,1.13645e-01,1.71082e-01,4.50007e-02,-7.28199e-01,
2.54537e-01,3.31558e-01,-2.41271e-01,1.67214e-01,-5.89368e-02,-5.12899e-01,-1.74158e-02,-1.52790e-01,4.63840e-02,1.00464e-01,-1.21051e+00,
-2.30950e-01,-2.82008e-01,-1.31350e-01,1.95472e-01,2.33843e-01,3.37476e-01,-2.66262e-01,-3.13545e-01,5.90382e-02,2.12442e-01,-2.12910e-01,
-7.83068e-02,-4.41424e-02,-4.31479e-01,-2.59998e-01,1.01327e-01,2.84105e-01,7.18219e-02,-2.94297e-01,4.87132e-01,-2.40123e-01,-6.75210e-01,
-2.83301e-01,-5.13024e-01,1.83967e-02,5.48330e-01,-5.64867e-01,5.54053e-02,-4.78255e-01,2.88373e-01,-4.60014e-02,-2.48081e-01,-2.78316e-01,
-8.43078e-01,
-4.66132e-01,
-2.55972e-01,
-3.72079e-01,
1.97994e+00,
