// Neural Network File Format by Kyle Julian, Stanford 2016
4,25,5,25,
25,23,18,11,5,
0,
-313464.8231028749,-2.2806539582736516,-3.027641953139859,-3.4361395654652327,-8.214915444783916,-3.960125661497241,-3.547556751573424,-3.219293316718768,-4.9710651406358615,-4.567468248258331,-3.094672336100764,-2.665224166877407,-2.3916500119637045,-39.20017082424595,-5.18398875173855,-85.77222730235607,-2.2823740939726282,-7.184290620030374,-1.7666478685165115,-1.440044371582666,-8.18000261725806,-1.324945830018136,-6.694814853610897,-9.521417177865395,-6.775333451715503,
1399337.823102875,10.298950265854568,4.059420535849691,3.464224598616265,8.403490094100867,5.255895028325772,2.123747326146717,2.0791100720393,5.563760229928809,4.975828395459901,4.002190533073592,3.7909677275656204,2.3234816164434973,11.36677239271382,7.608122038706638,16.48583397479898,48.9475738426775,2.389447426786,11.843272925323564,7.979161163155562,13.428715689185543,27.278491274462134,9.641829982089167,1.4642948027887785,22.25175146666423,
0,0,0,0,0,0,0,0,0,0,0,0,0,0,0,0,0,0,0,0,0,0,0,0,0,0,
1,1,1,1,1,1,1,1,1,1,1,1,1,1,1,1,1,1,1,1,1,1,1,1,1,1,
5.42752e-02,8.93419e-01,-3.20532e-01,-2.40698e-04,-2.16451e-02,5.02607e-01,1.96744e-01,-2.24046e-01,1.76664e-01,-6.43308e-02,-9.13551e-02,5.68169e-01,-3.49933e-01,-9.95403e-01,2.49876e-02,-1.25069e-01,6.12896e+00,-3.28489e-01,2.15374e+00,-8.99108e-01,1.18007e-01,2.97288e-01,-1.15616e+00,2.78374e-01,1.32564e+00,
3.27096e-02,7.33987e-01,-1.27720e-01,-2.27489e-01,-4.63943e-01,9.87220e-01,6.58112e-01,2.91721e-01,5.37449e-01,-3.18587e-01,-4.71514e-01,-4.57882e-02,-1.78940e-01,1.20551e-01,-1.62918e-01,6.52363e-01,1.49220e+00,-9.44962e-02,1.30597e+00,7.89925e-02,-8.10252e-02,2.76060e-01,-4.41335e-01,3.74451e-01,-1.57788e+00,
-9.23154e-03,-2.53906e+00,3.86546e+00,-1.12591e-02,-7.89001e-02,1.47865e+00,2.09544e-01,-3.23364e-01,1.61866e-01,1.68438e-01,9.04931e-02,-5.43511e-03,-3.73419e-02,-8.87357e-03,1.73597e-01,-9.61420e-02,-3.29320e-02,-2.07748e-01,-2.53198e+00,-3.37905e-01,-9.36748e+00,2.79623e-01,-9.48743e-01,1.27212e-01,-9.04816e-01,
-1.62109e-02,2.33111e+00,3.78089e+00,8.05598e-02,5.00770e-01,1.74292e+00,-2.08206e-01,3.92975e-01,-2.14433e-01,-4.40280e-01,-9.91641e-01,-6.72609e-01,-5.80566e-01,1.18951e+00,1.82301e-01,1.08880e-02,-8.57030e-01,1.58936e+00,-6.58527e-01,-1.98317e-01,1.49492e-02,3.10679e-01,2.09023e+00,1.96708e-01,2.44939e+00,
-2.96473e-02,1.18019e+00,2.43855e+00,2.12770e-02,6.82011e-02,3.38135e-01,4.65463e-01,-2.36983e-01,5.34591e-01,4.52841e-02,-1.35217e-02,1.52600e-01,2.52742e-01,-2.50587e-01,-1.13402e-01,-3.72486e-03,1.93621e+00,2.98039e-01,-8.67698e-02,-2.43917e+00,-7.19471e-01,-1.53999e-01,-2.14728e+00,-5.42671e-02,3.47017e-01,
-4.81029e-03,1.99728e-02,-6.84997e-01,1.61241e-02,1.17539e-01,6.34889e-01,4.94072e-01,4.51293e-01,4.50607e-01,-1.32380e-01,-7.68835e-01,-8.60269e-01,-3.81239e-01,1.65276e+00,3.57349e-01,1.27298e-01,-5.03868e-01,7.79424e-01,1.42017e-01,-3.84090e+00,-7.02319e-01,-3.26536e-01,1.16065e+00,-7.77249e-01,-3.39470e+00,
-4.28170e-02,-5.41064e+00,3.40192e+00,3.44206e-04,6.73803e-02,1.16980e+00,-9.12831e-02,2.16613e-01,-2.41486e-01,-1.25809e-01,-3.41330e-02,8.28090e-02,-2.88614e-02,-1.22714e-01,-1.48673e-01,-4.65827e-01,-6.02722e-01,-5.30914e-01,7.48733e-01,4.50318e-01,-3.67010e+00,-2.70799e-02,3.33652e-02,1.76430e-01,-1.80694e-01,
2.27870e-02,-4.96966e+00,-1.62626e+00,-6.12080e-02,-5.64583e-02,4.20995e-01,4.30854e-01,-2.37521e-01,4.18823e-01,-1.17013e-01,-7.78882e-02,-5.89693e-01,-2.09379e-01,1.17844e+00,-3.01933e-02,-3.96572e-02,-1.28547e-01,-3.48724e-01,-1.75523e-01,-2.27796e+00,-9.90694e-02,6.25449e-01,-1.38954e+00,6.70331e-01,-3.74633e-01,
5.10209e-03,-5.69165e-01,7.31961e-01,-9.24075e-02,-3.60671e-01,7.26469e-01,-3.38031e-01,7.25068e-01,-8.84172e-01,-2.34260e-01,-1.08482e+00,-2.06296e-01,-1.74799e-02,3.31401e-01,-1.97449e-01,7.78716e-01,-8.36893e-01,3.61778e-01,3.72170e-01,-8.76796e-02,-1.99588e-01,1.34357e+00,2.79104e+00,1.55349e+00,9.24309e-01,
7.89241e-02,2.62864e+00,-3.37277e+00,-4.61250e-02,1.28045e-01,-1.02147e-01,1.35332e-02,-7.01100e-01,-1.89536e-01,9.67578e-02,6.19611e-02,1.39456e-01,-1.61616e-01,-3.24136e-01,3.13509e-01,1.70273e-01,1.39487e-01,-3.95231e-01,2.99820e-01,2.85899e-01,-4.95703e+00,1.06787e+00,-1.79565e+00,7.86788e-01,-2.22410e+00,
2.87250e-02,3.06181e+00,-1.93904e+00,-1.04550e-02,-1.82258e-01,2.00373e+00,-4.93198e-01,-4.23851e-01,-4.58576e-01,-2.36592e-01,4.65741e-01,3.69731e-01,3.37271e-02,-5.62691e-01,2.02817e-01,-5.98491e-01,-8.96229e-01,-1.14663e+00,1.81796e+00,6.97600e-01,-4.12079e-03,1.01671e+00,-1.13246e+00,1.47084e+00,-3.33989e+00,
-7.30181e-03,-2.86659e+00,2.36060e+00,4.04686e-01,-1.90681e-01,-5.42446e-01,-1.34554e-01,2.50115e-01,-1.07343e-02,-1.51134e+00,-2.05525e-01,-2.10736e-01,-4.53868e-01,4.11059e-01,3.28460e-01,5.41796e-01,-4.33440e-01,4.08417e-01,1.91615e+00,-9.42380e-01,-2.12707e+00,-2.04591e-01,9.42975e-01,-2.95658e-01,9.29674e-01,
7.89720e-02,-1.98337e+00,5.66575e-01,2.29223e-02,8.18221e-02,3.88753e-02,8.69123e-02,3.06733e-02,3.63149e-02,6.48021e-02,-1.01506e-01,-1.49600e-01,-1.10374e-01,2.82152e-01,3.50114e-01,-1.08803e-01,-6.89240e-01,-5.36784e-01,3.28473e-02,-3.42555e+00,1.87770e-01,9.56902e-01,-1.16142e-01,-1.82166e-03,5.60426e-01,
1.97876e-01,-1.22110e+00,-2.28668e+00,-8.66386e-02,2.73383e-01,6.71268e-02,2.85914e-01,4.30864e-02,3.71155e-01,-1.20732e-01,-8.06017e-02,-2.11294e-01,5.97707e-03,3.04505e-01,-4.14293e-01,1.65687e-02,-3.40177e-01,1.29469e+00,4.56669e-01,9.96356e-01,-6.32201e-01,3.11078e-01,-2.97899e-01,-1.75578e+00,-3.79505e+00,
-1.89275e-02,4.21840e+00,-4.21049e+00,9.53868e-03,-1.36303e-02,1.71190e-01,5.64111e-01,-1.09313e-02,7.33776e-01,1.14814e-01,-2.42094e-01,-4.51710e-02,-4.01202e-02,1.22482e-01,-1.14959e-01,7.96652e-02,-2.01139e-01,5.50559e-01,1.28291e+00,-2.55654e-01,-1.48479e-01,-4.91559e-01,-1.44003e-01,-5.03617e-01,5.49702e-01,
-5.24935e-02,2.26843e-01,-4.69874e-01,-2.03551e-02,3.81437e-01,-1.89197e-02,1.54085e+00,3.64427e-01,1.64637e+00,1.10019e-02,-8.23328e-01,4.20828e-01,1.91789e+00,-7.00171e-01,-1.14399e+00,-6.06475e-02,1.10255e+00,-2.18998e-01,6.96751e-01,-1.81750e+00,-2.54506e-01,-5.39936e-01,-1.49839e+00,-1.79432e-01,-7.93135e-01,
9.81415e-03,-3.45668e-01,3.26460e-01,6.81146e-02,-2.79088e-01,6.48343e-02,-2.64395e-01,3.61164e-01,-3.34915e-01,-8.44741e-01,-7.93882e-01,-1.81965e-01,1.18545e-01,3.33423e-01,-4.83459e-01,5.09056e-01,1.19059e+00,-1.85966e+00,-1.52745e+00,3.01613e+00,-4.87968e+00,-2.90050e-01,1.13730e+00,-2.09472e-03,5.17888e-01,
-2.51503e-02,-1.03200e+00,7.17531e-01,5.35266e-02,-1.85748e-02,-8.02906e-01,1.32681e-01,-1.16022e-01,1.67324e-01,-3.50429e-02,1.42162e-01,7.63919e-01,-4.75323e-01,-1.40278e+00,8.98212e-02,4.02483e-03,1.56340e-01,-7.76954e-02,2.71242e+00,5.38859e+00,-1.17677e-01,-2.02994e-01,5.19852e-01,-1.15907e-01,1.08458e+00,
2.15207e-02,-7.76264e-01,1.92418e+00,-3.43465e-02,-5.97693e-02,1.44957e+00,2.58582e-02,8.74717e-02,3.32462e-02,-3.39840e-02,3.99991e-02,5.08231e-02,1.35381e-01,-7.21547e-02,-2.64379e-04,1.10423e-01,-9.32508e-02,-3.75881e-01,2.16751e-01,6.18822e+00,-2.09698e-01,7.57572e-01,4.54162e+00,5.96038e-01,1.10835e+00,
-4.56158e-02,1.12438e+00,-6.20651e-01,5.53151e-01,-7.73321e-01,1.12613e+00,-6.72664e-02,5.02445e-01,3.25582e-01,-1.47826e+00,1.45347e+00,-4.16921e-02,5.01989e-02,2.18393e-01,8.17095e-02,5.93972e-01,-2.33457e-01,-8.22081e-01,-1.60437e-01,2.30150e-01,-9.33504e-02,4.19404e-02,-1.48094e+00,1.52988e-01,-5.14344e-01,
7.81807e-02,-2.81393e-01,-2.00374e+00,-2.10635e-01,3.73403e-01,6.59455e-01,1.25463e+00,-6.28109e-02,1.08500e+00,4.09400e-02,-6.50618e-01,-1.07604e+00,1.05228e+00,1.92929e+00,-7.60824e-02,-5.40837e-02,-6.81075e-01,-4.57271e-01,-1.06956e+00,2.44929e+00,-1.62260e-01,-8.10990e-01,3.44160e+00,-6.06591e-01,1.24373e+00,
2.25879e-02,4.09891e-01,-7.37040e-01,1.82014e-01,-6.08551e-01,4.58698e-02,4.37369e-01,-4.66496e-01,3.79505e-01,-1.53232e-01,1.49761e-01,-1.73292e-01,-3.57298e-01,2.41909e-01,-4.18058e-02,-3.53228e+00,-3.13645e-01,2.17639e+00,-2.34440e+00,8.15427e-01,-1.91968e-01,-4.87580e-01,-4.81314e-01,-3.51984e-01,-6.64986e-01,
-1.89216e-01,-6.60014e-01,-1.49966e+00,4.28415e-02,6.72800e-01,-1.99767e-02,4.09961e-01,2.19854e-01,3.20029e-01,1.60012e-01,-1.25569e+00,-3.01092e-01,4.21598e-01,5.38413e-01,2.31847e-01,1.35299e-02,9.68068e-02,3.23523e-01,-6.94699e-01,2.70177e+00,-4.79369e+00,-3.75290e-01,2.05597e+00,-3.78164e-01,8.59061e-01,
-1.66742e+00,
6.89554e-01,
9.75967e-01,
-6.58256e-01,
-2.51274e+00,
1.45968e+00,
-1.01729e+00,
-4.63228e-01,
-2.20160e-01,
1.36160e-02,
-1.25383e+00,
-1.73176e-03,
-3.25737e+00,
-6.48575e-01,
2.72235e-01,
-1.46044e+00,
-2.49909e+00,
-2.41086e+00,
-1.98902e+00,
3.95014e-01,
-2.24743e-01,
-1.48479e+00,
-8.10235e-01,
7.82943e-02,3.14033e-01,1.20446e+00,1.31594e+00,-2.38506e-01,4.15258e-01,-2.83689e+00,-7.73573e-01,-3.22346e-01,-1.53315e-01,-6.19561e-01,-6.92355e-01,-7.82631e-01,1.46430e-01,4.52267e-01,9.82569e-01,3.45588e-01,-1.12273e+00,-2.05110e+00,2.87857e-01,-3.37045e-01,9.28231e-02,2.78136e-01,
3.71052e-02,9.61375e-01,1.36253e+00,5.71259e-01,-6.67336e-01,4.19329e-01,-2.84058e-01,-1.43021e+00,9.25142e-02,-4.21850e-01,-3.63054e-01,-6.49886e-01,-1.27857e+00,-1.50976e-01,5.49000e-01,1.00665e-01,-2.63397e-01,2.40661e-01,-3.47450e+00,3.94909e-01,6.55528e-01,2.37144e-01,-2.00771e-01,
-1.24157e+00,2.43427e-01,-3.44113e-02,1.87454e+00,1.86647e+00,-6.62876e-01,-3.53704e-01,9.82562e-01,-3.29983e-02,-1.63485e+00,2.82706e-01,6.16408e-01,1.20809e+00,-1.23692e+00,-1.75933e+00,-1.16128e-01,5.03136e-04,1.04535e+00,3.21564e-01,-6.83810e-01,3.55984e-01,1.00288e+00,3.10443e-01,
-3.74041e-01,5.95206e-01,2.35429e-01,1.05368e+00,8.48826e-01,-2.98769e+00,6.77960e-01,-8.53417e-01,1.69818e-01,-8.97176e-01,-4.16435e-01,1.52231e-01,-5.75909e+00,9.18311e-01,3.22613e-01,-4.98700e+00,-4.41932e-01,-3.21439e-01,-1.53601e+00,6.35311e-02,1.32517e+00,4.27291e-01,1.58553e+00,
1.17334e-01,-2.20673e-01,-9.42084e-01,1.64029e+00,1.58531e-01,8.24705e-01,1.11619e+00,2.61932e-01,4.05993e-02,-4.01159e-02,-1.04449e+00,-1.01672e+00,-2.56669e+00,-7.62618e-01,-3.62958e-01,-6.84961e-01,6.74396e-01,-4.20767e-01,1.69295e-01,6.03023e-01,-2.76644e-01,1.41323e+00,3.09294e-01,
-8.91048e-01,3.78124e-01,8.99880e-01,-9.47550e-01,1.71718e+00,-1.04197e+00,3.31416e-01,1.01696e+00,-1.42778e+00,-1.51559e+00,6.21748e-01,2.14207e+00,-3.57859e-01,1.11417e-02,1.54202e+00,-1.90956e+00,3.48782e-01,-2.94933e+00,-6.41217e-02,-1.72428e+00,1.38371e-01,1.19311e-01,1.44948e-01,
-2.52371e+00,2.74488e-01,9.23520e-01,-2.38339e-01,1.97651e+00,7.51466e-01,7.35490e-01,3.34719e-01,1.40502e-01,-1.21793e+00,-3.88529e-01,-6.49716e-02,4.50382e-01,-3.92421e-02,-1.78930e+00,-5.06761e-01,-4.68337e-01,-5.09592e+00,1.46008e+00,-2.92732e-01,-2.92072e-01,2.30353e-01,1.08487e-01,
4.41184e-01,2.03016e+00,-8.04440e+00,-1.42348e+00,-1.67769e+00,-6.22640e-01,4.84258e-01,1.21964e+00,-8.61595e-01,1.25267e+00,-1.80137e+00,1.35479e-01,-2.78669e-04,1.78878e-01,-1.14211e+00,4.00523e-01,-2.19257e+00,-1.12269e-01,-1.68833e+00,-2.34016e-01,8.50920e-01,-5.29825e-01,1.05610e-02,
1.73761e+00,8.77058e-01,-1.01183e+00,2.26563e-01,9.10647e-01,-1.53524e+00,-1.73554e+00,5.48540e-01,-2.28828e-01,8.65117e-01,1.38598e+00,4.04789e-01,2.73034e+00,6.07419e-01,-2.34286e+00,1.18901e+00,-1.13313e+00,-2.90975e-01,3.46649e-01,-5.10582e-01,1.23780e+00,-9.93535e-01,2.51688e-01,
8.58520e-01,-5.86907e-01,-2.48623e+00,-8.55321e-01,1.20847e+00,8.62483e-01,3.63783e-01,-2.71646e+00,3.73634e-02,4.22174e-04,7.11106e-01,-9.32492e-01,1.68677e+00,1.42030e-01,1.15904e-01,-4.44628e-01,-4.73314e+00,1.49599e+00,8.32105e-01,7.91461e-02,3.18990e-01,1.34131e-01,1.27146e+00,
-2.92646e-01,-1.16493e+00,-1.28875e+00,7.94520e-01,7.58218e-01,-8.95963e-01,-2.26662e-01,1.45004e+00,5.96003e-01,-5.59216e-01,6.46229e-01,1.01393e-03,2.02871e+00,-2.04185e-01,-1.45893e+00,3.76639e-01,6.96156e-01,6.24160e-01,1.11055e+00,-1.38515e-01,1.15628e+00,6.99862e-01,2.41007e-01,
-3.02814e-01,9.20419e-01,9.08703e-01,9.47653e-01,-1.66298e+00,-1.69482e+00,-1.80759e+00,2.03101e-01,-5.34007e-01,1.54540e-02,-5.41908e-01,-1.63402e+00,1.28933e+00,1.70465e-01,2.22829e+00,-1.03383e+00,4.83324e-01,-5.52372e-01,-1.04568e+00,8.75416e-02,1.85478e+00,3.88848e-01,-2.51386e-01,
6.83127e-01,1.14366e+00,-2.50276e-01,1.01801e-01,-9.94969e-01,2.42175e-01,2.32475e+00,-9.91889e-01,-1.42012e+00,4.27153e-01,-1.36927e+00,7.79421e-02,5.50798e-01,-4.01173e+00,1.24362e+00,-3.47498e-01,2.00888e-01,-9.57642e-01,1.49310e+00,1.08224e-01,2.66260e-02,3.42818e-01,5.06586e-01,
2.99304e-01,4.22826e-03,1.17478e+00,-1.16215e+00,-4.27239e-01,-6.50490e-01,5.72079e-01,8.94336e-01,4.40323e-01,-7.36228e-01,-2.21349e-01,2.62430e-01,6.04581e-01,1.48775e-01,-2.05071e+00,3.83344e-01,-6.09385e-01,4.37411e-01,9.49882e-01,1.93226e-02,1.18428e+00,1.04034e-02,9.70429e-01,
-1.80214e-01,4.44580e-01,1.50638e+00,1.19641e+00,8.95625e-01,-3.45302e-01,-5.96823e-02,2.28109e-01,2.25326e-01,-1.73694e+00,-1.06708e+00,3.43104e-01,-1.15063e+00,1.13993e+00,-2.99946e+00,4.44593e-01,-1.37120e+00,-1.70398e-01,-3.49680e+00,-5.89612e-01,1.61910e-01,-1.83806e+00,-2.52714e+00,
2.10087e+00,3.81508e-01,5.46008e-01,-2.26362e+00,2.36187e-01,8.66131e-01,2.68755e+00,-3.09692e+00,-9.37047e-01,-1.80627e-01,-1.34376e+00,-9.19331e-02,1.53192e+00,-2.93686e-01,-4.77594e-01,-1.86085e-02,9.56729e-01,1.93002e-01,-1.93581e-01,-3.80944e-02,-4.45960e-01,4.85062e-02,-2.91418e-02,
-2.05161e+00,5.83172e-03,-8.44497e-01,-9.68209e-01,2.22630e+00,7.80468e-01,1.39030e+00,5.04122e-01,-3.05093e-01,-7.49039e-01,-1.21782e+00,-3.37255e-01,1.50835e-01,2.81840e-02,-1.41172e-02,-1.09007e+00,-1.85967e+00,-1.12513e+00,-7.96759e+00,1.55794e-01,1.26356e+00,1.67059e+00,-1.01496e+00,
-1.03478e+00,2.57108e-01,1.30819e+00,-9.53438e-01,3.04673e-01,3.54616e-01,1.21780e+00,7.78899e-01,-9.62987e-01,2.39285e-01,1.67724e-01,9.32051e-01,-1.33860e+00,-4.30640e-01,2.37010e+00,-2.31020e-01,5.73772e-01,-5.57411e+00,-1.47124e+00,-7.16828e-01,-3.74527e-01,-7.66676e-01,-5.27298e-01,
-2.80439e-01,
2.98042e+00,
-3.01665e+00,
-3.26571e+00,
2.30878e+00,
5.64742e-02,
-2.08496e+00,
-5.33426e+00,
1.19218e+00,
-1.83390e+00,
-4.74529e+00,
-1.36340e+00,
1.52234e+00,
1.22171e+00,
3.77393e-01,
-1.53748e+00,
-2.81981e+00,
2.17592e+00,
-8.49026e-01,-4.06277e-02,1.29787e+00,-9.47504e-01,-3.43934e-01,-5.15031e-02,-8.14469e-01,-2.17632e+00,9.21920e-01,-7.24341e-01,2.02315e-01,4.25458e-01,-3.35704e-01,5.66562e-01,1.51869e+00,4.99977e-01,1.11632e+00,1.64818e-01,
1.18262e+00,-3.34456e-01,-2.10849e+00,-2.62661e+00,7.37055e-01,-1.91271e-01,5.20468e-01,-1.41851e+00,4.58441e-01,-5.10310e+00,1.20039e-01,2.09835e+00,-1.28018e+00,-1.49330e+00,-2.91757e-02,1.71355e-01,6.95851e-01,9.20056e-01,
-3.71561e-02,6.40044e-02,1.16942e+00,-9.90378e-01,-3.59672e-01,1.20128e-01,-8.57890e-01,1.43121e+00,-5.33215e-01,1.08290e+00,-2.56581e+00,-3.95394e-01,1.03764e+00,8.53788e-01,-3.48347e-01,-2.16230e+00,-9.26495e-01,7.68500e-01,
1.05426e+00,-3.21612e-01,-3.69438e+00,-2.48855e+00,2.03317e-01,-9.70776e-01,1.35731e+00,8.47454e-01,5.52138e-02,3.22931e-02,1.99844e+00,-8.64244e-02,7.48966e-01,-8.10389e-01,9.64846e-01,-4.79669e-01,-8.03350e-01,2.96029e-01,
1.70913e+00,-1.96399e+00,-1.21811e+00,1.34606e+00,4.94464e-01,-7.04915e-01,6.42900e-01,1.42433e+00,1.18340e-01,-1.57800e-01,-1.85363e+00,1.53324e-01,8.08860e-01,-1.84279e-01,-1.68575e+00,-1.02814e+00,-6.61680e-01,1.64967e-01,
-1.80130e-01,-1.86896e-02,-1.01251e+00,-3.60673e+00,4.83929e-01,-2.72340e-01,2.20393e-01,-6.23765e-01,8.43401e-01,-1.75343e-01,6.57084e-01,8.54829e-01,-1.36679e-01,-8.30750e-01,1.34545e+00,2.12006e-01,8.99369e-01,5.47763e-01,
1.71612e+00,-1.78351e-02,4.20273e-01,-3.35028e+00,-8.28131e-01,4.92800e-01,3.95833e-02,2.46757e+00,-2.27367e-01,-1.58889e+00,-5.74251e-01,-7.20061e-01,9.50752e-01,5.88543e-01,-2.03827e+00,1.25648e+00,4.74583e-01,-2.82888e+00,
-3.80389e-02,-4.12427e-01,3.95465e-01,6.62832e-01,-7.84624e-01,-2.38279e+00,-5.34991e-01,-2.30149e+00,1.15625e+00,-3.34444e-01,9.86062e-01,7.99619e-01,2.45067e-01,-4.32552e-01,1.89567e+00,1.38849e-01,1.80797e+00,4.77817e-01,
-1.55671e+00,-1.23124e-01,-4.60083e-01,6.92345e-01,-1.15350e+00,-5.19606e-01,-3.65907e+00,5.85598e-01,-1.43105e+00,3.03263e-02,2.97529e-01,-1.04621e+00,-5.09553e-01,8.62162e-01,-4.07243e+00,5.43056e-01,-5.00870e+00,3.09871e-01,
1.43221e+00,-3.20885e+00,3.46769e-01,-7.22368e-02,-1.22776e+00,-2.16391e-01,-7.63918e-01,1.84322e-01,-1.90665e+00,1.75404e-01,-4.98853e-01,1.33390e+00,1.58917e-01,1.47735e+00,8.19257e-01,4.46534e-01,2.60378e-01,-4.51082e-01,
1.52249e+00,4.17244e-01,7.27045e-01,-2.30096e-01,-6.36283e-01,3.04423e-01,1.60728e-01,-4.91468e-01,-1.65240e-01,5.55562e-01,7.27652e-02,4.19173e-01,2.04510e-01,3.96100e-01,-3.26922e+00,-7.43827e-01,-5.46478e-01,7.58874e-01,
-9.20697e-01,
-2.31430e+00,
-4.06747e+00,
-3.05966e+00,
3.33235e+00,
2.86727e+00,
1.52161e+00,
2.91828e+00,
-4.23004e+00,
-7.34896e-01,
-1.57752e+00,
-8.55299e-01,6.07773e-03,-1.30365e-02,-6.28335e-01,-3.78968e-01,1.97097e-01,-2.18324e-02,-1.51380e-03,-4.59374e+00,-1.72747e-01,1.04938e-01,
-3.37929e-01,2.45773e-01,8.48846e-02,-3.48855e-01,-4.24032e-01,-4.38514e-01,3.74020e-01,-2.38842e-01,-3.50727e+00,-1.01569e+00,-1.86526e-01,
-6.28313e-01,-1.35432e+00,-5.15032e-01,3.12731e-01,2.91389e-01,6.20639e-02,-2.93948e-01,-3.36747e-01,-5.12161e+00,-4.23941e-01,1.88920e-01,
6.49331e-02,-1.81598e-01,5.12186e-01,-3.42935e-02,1.52450e-01,1.17296e-01,-6.14794e-01,-7.83655e-01,-3.24289e+00,-4.82891e-01,-2.87443e-01,
-7.10714e-01,-5.03063e-01,6.80359e-01,-3.83066e-01,-9.73980e-01,-5.66894e-01,-4.33367e-01,3.13716e-01,-4.63969e+00,1.38479e-01,-5.74721e-01,
-1.14931e+00,
1.56956e-01,
2.70705e-01,
-4.46119e-01,
1.06784e+00,
