// Neural Network File Format by Kyle Julian, Stanford 2016
4,25,5,25,
25,23,18,11,5,
0,
-318499.31745021057,-2.414375535361537,-3.073225169919012,-4.094423053102924,-8.215992727348683,-3.9631349470205164,-3.6558939433651556,-3.2674347234288925,-4.970636289711115,-4.567063390698819,-3.337588052835406,-2.9082382236799735,-2.637445715430176,-39.205584252698216,-5.6370450660575875,-85.76859933131348,-2.3957037266869863,-7.184602585315329,-2.4242334170145936,-1.7157188406485564,-8.180988662704912,-1.6046846385678413,-6.754378338217318,-9.522569930580776,-6.775945076586843,
1421812.3174502105,10.299691476101408,4.121188244393142,3.6406953928767773,8.404567376665636,5.257104050859087,2.780597060981578,2.735773669181864,5.563331379004063,4.975423537900389,4.001766754639713,3.790642289199666,2.7759430289200235,11.372185821166081,7.609719243812574,16.4822060037564,48.952043494820586,2.389759392070954,12.119037796924305,8.051928419487655,13.430674258246794,27.282678236294778,9.642475041679571,1.7400577960368324,22.25236309153557,
0,0,0,0,0,0,0,0,0,0,0,0,0,0,0,0,0,0,0,0,0,0,0,0,0,0,
1,1,1,1,1,1,1,1,1,1,1,1,1,1,1,1,1,1,1,1,1,1,1,1,1,1,
4.46367e-02,2.16675e+00,4.86759e-02,3.97602e-02,-1.93267e-02,2.15924e-01,3.39250e-01,3.18085e-01,-3.62502e-01,-1.10891e-01,1.63012e-02,-1.57062e-01,-6.68408e-02,2.80547e-01,5.74753e-02,1.01047e-01,3.01028e+00,1.24130e-01,-2.44573e-01,-1.25768e+00,-1.50557e-02,-9.56599e-01,-3.36506e+00,9.48390e-02,-5.41085e-01,
1.49425e-01,6.43316e-01,1.00605e+00,-3.48418e-01,-8.21457e-02,-8.83552e-02,1.58190e+00,3.33599e-01,1.37885e+00,4.12000e-01,-6.58700e-01,2.95233e-01,4.73118e-01,-4.91879e-01,3.25860e-02,9.31536e-01,-9.29105e-01,1.11980e+00,-8.75657e-01,6.83010e-01,-9.52627e-02,-4.05425e-01,7.95823e-01,-5.12705e-01,-3.50340e+00,
-1.30185e-01,3.23573e+00,-2.16999e+00,2.38528e-01,3.05578e-01,-1.85375e-01,-1.38376e-01,-2.85101e-01,-6.05584e-01,-5.20873e-02,1.50102e-01,5.87671e-02,2.99830e-02,7.50392e-03,-7.93127e-02,9.09405e-03,-1.96570e-01,-4.32633e+00,4.43151e+00,1.14705e+00,2.39924e-01,-6.84376e-02,-4.85593e-02,-1.65604e-02,-1.78862e-01,
-6.72213e-02,-2.56582e+00,-1.10041e+00,1.46519e-01,1.51153e-01,3.96714e-01,1.08678e+00,4.37619e-01,-1.42182e+00,-5.43584e-02,9.99799e-02,-5.87820e-01,-8.62229e-03,1.02952e+00,-2.06716e-01,-4.68883e-01,-1.37326e-01,1.66345e-01,-7.15249e-01,1.88054e+00,-2.08692e-02,2.34474e-02,5.40874e-01,2.93666e-01,6.07623e-01,
1.05105e-02,-2.18793e+00,-4.39425e-01,-4.96303e-02,-1.34609e-01,-2.46090e-02,-5.63525e-01,-3.92002e-02,-5.03630e-02,-1.98954e-02,5.96082e-02,-7.58036e-01,2.88808e-01,1.44854e+00,-1.93308e-01,3.57541e-02,-3.20930e-01,-1.09306e+00,2.72210e+00,-8.78909e-02,-2.20834e+00,2.45605e+00,8.68797e-01,-6.60852e-02,-6.46602e-01,
5.25076e-02,-4.46357e+00,-1.68945e-01,-2.00512e-01,1.22735e-01,9.35456e-01,6.31395e-01,2.15917e-01,-6.88096e-01,3.53808e-01,-1.58056e-01,-8.35245e-01,-3.07825e-01,1.56327e+00,-2.94207e-02,-1.32609e-01,2.03407e-01,-5.51175e-01,-8.22568e-01,-5.16572e-01,-2.23039e-01,-5.92086e-01,4.41460e-02,-6.76282e-02,-3.12370e-01,
-1.32641e-01,-1.38514e+00,1.19744e+00,2.00859e-01,2.71490e-02,-7.41391e-02,1.88030e+00,-1.38920e-01,9.83290e-01,-7.88034e-01,3.71097e-01,6.17647e-01,7.05671e-02,-1.05403e+00,5.65998e-01,4.18682e-02,4.57453e-01,-1.17861e+00,1.31406e+00,-4.70173e-01,-7.95040e+00,-1.86947e-01,1.57510e+00,-1.44028e+00,4.33516e-01,
1.65461e-01,-3.22549e+00,2.34191e+00,8.43952e-03,-5.06846e-03,4.36089e-01,4.45078e-01,-9.87070e-02,-5.03457e-01,9.26306e-02,-1.22766e-01,-2.17176e-01,2.13656e+00,4.13633e-01,-6.06227e-01,-2.12431e-01,2.52267e-01,-2.85403e+00,2.25176e+00,-1.21758e+00,-4.19322e-02,1.12801e+00,3.76045e+00,6.87344e-01,7.70100e-01,
-9.17221e-02,-2.92236e+00,1.11444e+00,-5.51909e-02,5.31717e-02,-3.99336e-01,1.99334e-01,5.14667e-01,-6.21703e-01,-6.49201e-02,-6.37151e-01,-1.86142e-01,-1.08878e-01,3.67700e-01,-1.02958e-01,5.49928e-01,3.89029e-01,-6.87153e+00,2.43113e-01,-6.76320e-01,-4.61435e+00,2.07254e-01,-1.46141e+00,4.01021e-01,1.47209e-01,
-1.35738e-01,-2.07834e+00,1.42588e+00,-2.15728e-01,-4.27396e-02,7.04574e-01,4.11288e-01,8.44410e-01,1.55388e-01,7.60927e-02,-4.74847e-02,1.58527e-02,-1.95221e-02,9.47296e-02,-8.27717e-02,3.87646e-01,2.16333e+00,-8.12239e+00,7.32156e-01,2.46990e-01,-4.50624e+00,8.70249e-02,3.81771e-01,2.45823e-01,4.40479e-02,
6.47252e-02,1.65326e+00,2.76555e+00,1.03793e-02,2.59613e-01,7.82168e-03,5.09349e-01,8.27261e-03,-1.54245e-01,3.03275e-02,-7.51412e-02,-3.85434e-01,7.55669e-01,6.69004e-01,-1.92956e-01,1.83507e-02,3.14244e-03,-3.62845e+00,-1.56432e+00,4.79077e+00,-2.91756e-01,-6.20077e-01,2.96132e+00,-7.14269e-01,2.23783e+00,
2.75259e-02,-3.21370e+00,-9.47336e-02,-4.35393e-02,9.72425e-02,3.24733e-01,7.06292e-02,1.02544e-01,-4.54905e-01,-4.96152e-02,-7.57277e-02,2.64392e-02,-5.05665e-02,-2.22004e-01,-1.22664e-01,-1.03355e-01,3.05702e+00,-2.52113e-01,-8.77992e-01,2.80744e+00,-3.63636e+00,-6.20509e-01,1.01946e+00,-4.19467e-01,9.58811e-01,
-3.98660e-02,-3.27450e+00,-1.69446e+00,-1.23727e-01,-5.88056e-03,3.66797e-01,4.46782e-01,2.25967e-01,-3.04520e-01,1.58776e-01,-1.40977e-01,-2.11497e+00,-1.80937e-01,4.05119e+00,8.62838e-02,1.54465e-01,2.81352e-01,1.41278e+00,-4.68403e+00,-3.48611e+00,-4.03801e-02,6.06667e-01,3.70235e-01,6.66141e-01,1.07356e+00,
7.01620e-02,3.52601e+00,-2.84538e+00,-2.40358e-01,5.31114e-02,-2.30011e-01,8.94240e-01,-3.38306e-02,1.08198e+00,9.39341e-02,-1.12772e-01,4.81204e-01,5.38757e-03,-8.68870e-01,2.16426e-02,2.73335e-01,7.89523e-01,-2.94623e-01,5.48665e-01,-1.47827e+00,-2.51077e-01,1.45357e+00,9.36581e-01,2.61136e-01,1.80613e+00,
-6.54105e-02,-1.75487e+00,-2.16795e-01,4.62049e-02,-1.20000e-01,1.30719e-01,-1.08541e-01,2.02693e-01,-8.27863e-01,7.44249e-03,-8.09981e-03,2.50824e-01,-7.59934e-03,-4.37354e-01,-5.52619e-02,-4.96762e-02,2.24023e-01,3.90593e-01,6.65696e-01,6.28205e+00,-5.35196e-02,-1.62615e-01,1.64607e+00,-9.68438e-01,-6.11834e-01,
-2.88889e-02,-1.36546e+00,-2.41486e+00,-1.33697e-02,-1.08686e-01,2.41338e-01,6.52067e-01,1.76282e-01,7.23048e-03,6.47005e-02,-4.10379e-02,4.25125e-01,-4.73353e-01,-8.31937e-01,6.35182e-02,1.31173e-01,1.25943e-01,1.04806e-01,-8.72503e-01,5.16871e+00,-5.12539e+00,-3.44633e-01,6.60077e-01,3.56218e-01,6.09387e-01,
6.58047e-02,2.95647e+00,-2.02357e+00,-1.95416e-01,6.11937e-02,6.30003e-01,1.80447e-01,5.04074e-01,-5.12739e-01,2.57501e-01,-3.89474e-01,-1.49212e-01,-1.53407e-01,3.24124e-01,4.65349e-01,2.96340e-01,1.32410e-01,2.80788e-02,-3.67287e-01,4.30034e-01,1.18331e-01,1.20005e+00,1.37947e+00,3.82184e-01,-5.17697e+00,
-6.79890e-02,2.19475e-02,-6.79117e-03,-1.14119e-02,1.49640e-01,1.31261e-02,-2.26670e-01,4.27971e-02,-6.20587e-01,-4.23574e-03,4.78524e-02,-4.89385e-01,2.96417e-01,9.48532e-01,1.21573e-01,-1.46912e-01,2.96822e-02,-2.18740e+00,-1.69115e+00,-3.96634e+00,-9.42247e+00,-6.55254e-01,4.00969e+00,-7.98893e-01,-7.61572e-01,
-1.08842e-02,3.32726e+00,-4.70112e+00,2.73550e-03,4.48283e-02,4.87443e-03,2.19814e-01,1.16789e-01,2.03935e-01,8.58155e-02,-2.13049e-01,-3.70007e-01,-5.59036e-02,7.56535e-01,-1.61460e-01,-2.97956e-02,-7.71941e-01,-2.75704e-01,-6.73939e-01,-1.03385e+00,-5.30085e-01,-3.35822e-01,1.97400e+00,1.18519e-01,1.23776e+00,
-3.47148e-02,-1.38222e+00,5.66462e+00,-5.07288e-02,6.00433e-02,-3.37777e-02,2.15890e-01,3.74326e-02,-1.16093e-01,-7.76870e-02,-1.07885e-01,-2.11934e-01,-1.34551e-01,4.17725e-01,1.00344e-01,1.27261e-01,-2.56438e-01,1.83032e-01,1.26831e+00,5.76523e-01,-4.41232e+00,7.00540e-01,-6.94524e-01,5.03540e-01,-1.96041e-01,
-3.16872e-02,-7.16080e-01,-5.18987e-01,-1.60404e-01,-1.00695e-01,5.62497e-01,1.43069e+00,-3.00819e-01,4.19091e-01,4.93834e-01,-5.84660e-02,-9.45055e-01,-5.40289e-01,1.71893e+00,1.50170e-01,1.13633e-01,-1.54840e-01,-1.21330e+00,-1.25774e+00,-2.59233e-01,6.72328e-02,5.65275e-02,2.26085e+00,5.61167e-01,2.12900e+00,
-8.71001e-02,-5.25914e-02,-5.51162e-01,-2.42173e-02,1.95401e-01,2.73287e-01,1.33965e+00,4.63154e-01,-1.37559e+00,-1.76008e-01,-3.59403e-01,6.53721e-01,3.25981e-01,-1.13213e+00,1.43058e+00,-2.50331e-01,-7.80744e-01,3.73847e-01,-8.98145e-02,9.60334e-01,-7.77637e-01,1.71399e+00,-6.16783e-02,2.05695e-01,-1.19536e+00,
1.10336e-01,8.24578e-01,2.20327e-01,2.86065e-01,1.46643e-01,-7.84331e-01,-2.42412e-01,-1.09142e+00,-9.36064e-02,1.55821e-02,5.98498e-01,-2.51832e-02,9.79641e-01,-1.93900e-03,-7.25833e-02,-8.88861e-01,-6.93129e-01,-1.34088e+00,4.29726e-01,-5.42153e-01,-2.83492e+00,1.49190e-01,1.80128e+00,9.40687e-02,1.59421e+00,
-1.07093e+00,
-6.23209e-01,
-5.19792e-01,
2.60979e+00,
-1.23047e+00,
1.24215e+00,
-1.48301e-01,
-6.38515e-01,
-5.68479e-01,
-1.02386e+00,
-2.49110e+00,
-2.37977e+00,
-3.80014e+00,
1.67895e-01,
-2.76879e+00,
-8.27970e-02,
-1.47247e-01,
8.78749e-02,
-2.14767e-01,
9.00962e-01,
1.52628e+00,
-1.10573e+00,
-7.92058e-02,
1.25178e+00,-4.92622e-01,-7.59533e-01,4.16022e-01,-2.68538e+00,-1.37672e+00,9.09459e-01,2.73375e-01,-2.83194e-01,6.11288e-02,-8.10098e-01,-5.51120e-01,-1.36813e+00,-3.50995e-01,2.18932e+00,-5.91682e-01,1.15182e+00,-4.43080e-01,8.75689e-02,3.82831e-01,8.75875e-01,-2.12313e-01,-4.22379e-01,
1.01620e+00,-1.00332e+00,8.77673e-01,3.55188e-01,1.84078e-01,8.35071e-01,3.31169e-01,-1.23757e+00,4.67928e-01,-1.00762e-02,1.33480e+00,2.58520e-01,-2.57520e+00,9.29107e-01,-3.79532e-01,6.79840e-01,4.75508e-01,-3.21649e+00,2.20594e+00,-8.27936e-01,-9.23973e-01,4.11671e-01,6.79192e-01,
2.28073e-01,-8.69624e-01,-4.64941e-01,-1.57040e-01,-3.18202e-01,-8.78547e-01,-2.64499e-01,-1.89703e-01,-1.10614e+00,-3.75773e-01,-3.66284e-01,4.19363e-01,3.33433e+00,2.31981e-01,8.01219e-01,7.72080e-01,8.52447e-01,-2.04775e-01,7.95711e-01,1.93251e+00,-7.48031e-01,1.00244e-01,-1.64606e-01,
-7.48883e-01,6.09953e-01,5.17645e-01,8.80369e-01,-9.76836e-01,8.04247e-01,-3.11292e-01,-2.39807e+00,-4.67730e-01,-6.54112e-01,1.13745e+00,9.36133e-01,1.45342e+00,4.87183e-01,-4.18261e-01,-1.99034e+00,9.97137e-01,-8.79224e-01,1.38526e+00,6.29133e-01,-6.27252e-01,-6.96153e-01,9.47736e-01,
-4.06472e-02,-1.59420e-01,3.10046e-01,-1.13651e+00,-8.99678e-03,-1.76224e+00,-1.18815e+00,-1.13903e+00,2.46687e-01,-3.07846e-01,-7.33239e-01,1.87751e+00,-4.95135e+00,5.05137e-01,-2.74641e-01,6.93947e-01,1.87227e-01,1.99639e-01,-1.58405e-01,3.43309e-01,1.06548e+00,1.21792e+00,-5.17661e-01,
4.29357e-01,5.69038e-02,-1.54143e-01,1.35477e+00,-7.68977e-02,-2.15207e-02,-5.48810e-01,2.76090e-01,-4.76528e-01,2.03016e-01,-4.09484e+00,1.63748e-01,9.55617e-01,-2.27064e+00,-9.68374e-01,2.61357e-01,1.32831e+00,-1.81636e+00,1.71865e+00,-4.64409e-01,-7.30639e-01,-5.77088e-01,8.80266e-01,
-4.08070e+00,-8.17527e-01,-1.17067e+00,8.25253e-01,-1.08166e+00,-1.34215e+00,-1.46903e-02,9.80417e-01,5.71433e-02,7.71431e-01,-9.07150e-01,-6.63946e-01,4.66370e-01,7.72077e-01,-4.86643e-01,-1.00539e+00,8.81962e-01,-7.02314e-01,-8.04855e-01,1.42806e+00,9.19380e-01,-6.92028e-01,-1.52394e+00,
-7.20446e-01,-6.99740e-02,1.08352e+00,-5.11114e+00,-4.44475e-01,-1.69829e+00,4.22381e-01,-1.86165e+00,9.95742e-01,-7.58966e-01,7.61632e-01,5.90824e-01,6.74555e-01,2.88131e-01,1.64652e+00,-1.61565e+00,4.71469e-01,-3.11922e+00,1.27538e+00,-4.69973e-01,-2.30098e+00,-5.45509e-01,3.12885e-01,
1.74462e+00,-5.29316e-01,2.79233e-01,-1.98537e+00,-2.36941e-01,8.53471e-01,-7.37706e-01,-1.17835e+00,4.34809e-01,-3.00876e+00,3.93918e-01,-2.10745e+00,1.77680e+00,6.57324e-01,3.23443e-01,8.50019e-01,-1.36020e+00,2.21425e-01,-4.12354e+00,8.67309e-01,-1.17537e+00,1.33277e+00,-2.16385e-01,
9.75684e-01,-9.65100e-02,-4.85489e-01,-1.47340e+00,-7.01170e-01,2.59263e-01,3.44844e-02,-2.82159e-01,-3.05741e-01,-4.49768e-01,9.67119e-01,5.68300e-01,-1.78258e+00,-1.68832e+00,2.59536e+00,1.47779e+00,-1.26130e+00,2.47404e-01,1.75952e+00,3.31130e-01,-1.78053e-02,2.40256e-01,4.26311e-01,
8.97396e-01,1.39067e-01,1.99327e+00,-1.05602e+00,-1.64314e-01,3.42216e-01,4.36847e-01,-6.23477e-01,-9.73808e-01,-1.36054e+00,-8.54312e-01,5.93697e-01,6.39545e-01,2.77391e-01,-5.38519e-01,3.19099e-01,4.53242e-01,-8.49126e-01,-5.60889e-01,4.05200e-01,6.51678e-01,1.31776e-03,-4.46858e-01,
-4.13622e+00,-8.13958e-01,3.57506e-01,1.11762e+00,-3.62847e-01,-1.60377e+00,-2.24324e-01,-6.48518e-01,2.47709e-01,-5.87380e-01,6.67969e-01,4.32496e-01,5.15425e-01,-2.75632e+00,-1.34286e+00,-2.66958e-01,1.80697e+00,-4.01243e-01,4.04432e+00,-7.56481e-01,1.13106e+00,-1.42081e+00,-5.45246e-02,
2.54223e-01,-9.75846e-01,5.75997e-01,-3.55608e-01,2.52623e-01,1.22670e+00,-2.08214e+00,-5.31935e-01,-3.11746e+00,2.87470e-01,-7.83655e-01,1.27604e-02,1.72478e+00,1.49621e+00,1.08074e-02,-8.40338e-01,1.03040e-01,-9.15731e-01,-1.55441e+00,1.66820e+00,1.00518e+00,9.29741e-01,-8.81424e-01,
-4.26880e-01,-1.83886e-01,-7.00465e-01,9.82671e-01,-1.61257e+00,-2.82999e-01,-2.95580e-01,-1.61949e+00,-3.41839e-01,5.41006e-01,1.97545e+00,-1.77056e+00,1.30246e+00,2.48527e-01,-2.72683e-01,-4.40323e+00,-2.52795e-01,-5.25784e-01,-2.93287e-01,1.72574e+00,8.90373e-01,-1.20481e+00,-5.14055e-01,
2.37739e-01,-3.51790e-01,-4.37120e-01,-1.10848e-01,-2.02057e-01,-2.05824e-01,-1.46918e+00,-1.38190e+00,1.33235e-01,1.63251e-01,2.82006e+00,3.52709e-01,-2.61420e+00,6.24042e-01,-2.55223e+00,-1.09796e+00,5.99710e-01,-3.64570e-01,9.60295e-01,-1.63716e+00,-3.65063e-01,7.68973e-01,-8.49795e-03,
-7.64446e-02,-9.17593e-01,-2.81043e+00,-2.16827e-01,-3.74938e-01,2.37256e-02,3.49704e-01,-4.13891e-02,1.35178e-01,7.16562e-01,1.75032e+00,-5.33902e-01,1.33380e+00,-6.00540e-01,1.13070e+00,6.71764e-01,-5.20980e-01,3.70383e-01,9.24235e-01,1.10153e+00,2.36913e-01,-7.71287e-02,-9.33539e-02,
-1.51237e+00,-9.44736e-01,-2.60544e-01,-7.90250e-01,-2.87747e+00,-8.82915e-01,-1.11157e-01,1.65265e+00,7.86345e-03,1.51787e+00,2.40915e-01,3.81383e+00,1.25717e+00,6.38484e-01,1.06974e+00,-2.37698e+00,1.84050e-01,1.05139e+00,-1.41230e+00,-2.51923e-01,-7.51449e-01,2.53949e-01,3.36373e-01,
4.04795e-01,-5.59302e-01,1.04199e+00,-1.17311e-01,-4.21085e-01,-7.49594e-01,-5.37322e-01,-3.10561e-02,-1.78668e-01,-2.42093e-01,-5.04240e-01,-2.27720e-01,-2.73719e-01,2.18893e+00,2.55419e-01,6.10718e-01,7.78993e-01,2.01638e+00,1.69233e+00,-1.50183e+00,3.02562e-01,-2.60017e-01,1.01807e-01,
3.59536e+00,
5.58963e-01,
-5.96842e+00,
2.07030e+00,
3.37524e+00,
2.25170e+00,
2.01741e+00,
3.03812e+00,
-4.39395e+00,
-3.81869e+00,
3.63785e+00,
-2.69849e+00,
5.95402e-01,
7.45901e-01,
1.41078e+00,
-8.01542e-01,
-7.01993e-01,
-7.12513e-01,
1.30619e+00,-9.46707e-01,-1.44747e-02,-3.64857e-01,4.58920e-01,1.80769e+00,-1.03557e+00,9.32109e-01,-8.52586e-01,-4.47080e+00,-7.98763e-01,-1.03278e+00,-8.08278e-01,1.75483e+00,1.52406e-01,-6.19479e-01,1.70175e+00,-2.76657e-01,
5.36837e-01,7.67659e-01,1.05050e+00,-1.54678e-01,8.25721e-01,4.64669e-01,-1.59349e-01,3.61682e-01,-7.37355e-01,-4.19299e-01,2.36800e-01,4.21185e-01,-4.46358e-01,4.64102e-01,-1.12203e+00,-5.45198e-01,1.26574e+00,-2.00835e+00,
1.05979e+00,-1.19898e+00,-3.26654e+00,2.98108e-01,7.59700e-01,1.81192e+00,-1.21924e+00,9.24520e-01,-1.39317e+00,-1.17535e+00,-1.19999e+00,-1.47677e+00,-3.88424e-01,1.22497e+00,-2.42959e-01,2.65208e-01,3.77167e-01,6.87287e-02,
-8.55819e-01,1.05910e+00,-3.57469e-01,-4.43323e+00,-9.26064e-01,-1.45277e+00,-5.51999e-01,2.85137e+00,-3.20101e-01,9.55310e-01,-1.23579e+00,2.50557e+00,-1.35383e-01,1.83316e+00,-2.15781e+00,-1.21564e+00,1.25768e+00,-7.83576e-02,
1.89872e+00,-7.40268e-01,2.26223e+00,1.18581e+00,-5.79900e-01,-1.06567e-01,2.19424e-02,1.38913e-01,-1.05324e-01,-3.61147e+00,-1.06503e+00,-2.98170e-01,-1.42645e-01,-2.63295e-01,1.33501e-02,-2.56578e-01,-6.99046e-02,-1.57910e+00,
3.84703e-02,-7.23769e-02,-6.12043e-01,3.55112e-01,-1.88342e-01,-3.23177e-01,-3.17382e-01,1.21007e+00,6.14673e-02,4.87538e-01,1.73270e-01,3.64319e-03,4.94959e-01,6.29978e-01,-7.86999e-01,2.96100e-01,-1.56974e+00,5.14799e-01,
-9.91621e-02,8.22620e-01,8.26194e-01,-5.68139e-01,2.22774e-01,-3.70808e-01,-2.55665e+00,1.00435e+00,-3.43001e+00,-8.96346e-02,2.27964e-02,1.66690e+00,-1.94968e+00,-7.03999e+00,-1.59647e+01,-3.68687e-01,-7.46160e+00,-1.63710e+00,
3.59603e-01,-2.61932e-01,-1.21158e+00,1.43713e+00,6.11960e-01,8.37955e-01,1.89929e-01,-1.53791e-01,-3.99877e+00,-1.15008e+00,3.60948e-01,-1.44162e+00,-6.25404e-01,-2.04000e-01,3.63104e-01,7.11091e-01,-3.39443e-01,4.74592e-01,
-3.74057e-01,2.60838e-01,6.43363e-01,-6.33379e-01,1.73153e-01,-6.80743e-02,-7.72724e-01,-1.92201e-01,1.45934e-01,9.84520e-01,3.63235e-01,-2.47577e-01,5.21409e-02,3.87309e-01,2.27368e-01,-2.31801e+00,1.36266e+00,-2.38327e-02,
2.70598e-01,-2.45157e+00,-7.76010e-01,-1.22829e+00,-1.24863e+00,9.96204e-01,-1.22441e+00,3.38352e+00,1.47593e+00,-2.64230e-01,3.29860e-03,8.96585e-02,-4.94819e-01,1.89898e+00,1.67288e+00,-9.65334e-01,-6.86291e-01,4.46940e-01,
-4.43447e-01,8.94273e-01,-2.17138e+00,-2.04972e-01,7.61834e-01,-3.32008e-01,1.07574e+00,-2.35929e-01,1.58701e-01,-2.69513e-01,-7.64073e-01,-9.68167e+00,6.36517e-01,4.50200e-01,2.79844e+00,-5.70988e-01,2.74669e+00,-4.83964e+00,
-3.59875e+00,
8.96472e-01,
-2.26674e-01,
2.02779e+00,
-3.33430e+00,
1.91391e+00,
3.02987e+00,
-8.80363e-01,
-4.78412e+00,
2.13947e-01,
7.60911e-01,
2.46405e-01,-2.62787e-01,-8.34120e-01,-9.68324e-01,-9.07399e-01,-4.20510e-01,-1.44548e-01,1.25582e-01,-2.08741e-01,-1.98176e-01,-1.31257e-01,
3.97727e-01,5.71353e-01,-7.53366e-01,-1.35302e-01,-1.24403e+00,-2.62562e-01,-7.83187e-01,-1.77477e-02,-1.01457e+00,-3.53359e-01,1.53995e-01,
-8.23256e-01,-1.48851e-01,-2.89722e-01,-2.18209e-01,1.31903e-01,-8.36247e-01,1.02559e-01,1.56937e-01,-1.36444e-01,4.78255e-01,1.36814e-01,
-8.74883e-01,5.06031e-02,2.76207e-01,-5.38154e-01,-7.60500e-01,-1.15333e-01,-1.50188e-01,-3.05175e-01,-6.15064e-01,-1.02393e+00,-2.67470e-01,
-9.44108e-02,3.91922e-02,-3.58552e-01,-1.23539e+00,4.02813e-02,-4.07035e-01,3.50316e-01,-1.00423e+00,-5.02716e-01,-1.76206e-03,-6.77732e-01,
1.14694e+00,
-2.85938e+00,
-6.28763e-01,
-1.04851e+00,
3.18609e+00,
