// Neural Network File Format by Kyle Julian, Stanford 2016
4,25,5,25,
25,23,18,11,5,
0,
-2.1867712143103217,-2.976916953521056,-3.0246435070725495,-8.251729475378209,-3.982469179712962,-3.391172019363627,-3.1183562839423216,-4.933269487401423,-4.532418683413161,-2.8216576481762092,-2.4162209594836406,-2.1475802432764777,-39.19981977547291,-4.665382982410005,-85.67042728615851,-2.165030215782201,-7.151473821981977,-1.2130556252024791,-1.1861348784467083,-8.226898916297861,-1.0077224117296293,-6.667840661651383,-9.48059903643265,-6.744028750282501,-6.793317625597427,
10.28485622965984,4.052215536230888,3.393554839565278,8.440304124695157,5.278238546541494,1.4900711076117377,1.5202117194933125,5.962264772680088,4.940778830614732,3.9717058451490375,3.784494520171854,1.87273184775627,11.366421343940777,7.5411062693780915,16.38403395860144,48.938139964487064,2.356630628737602,11.67151068200953,7.928061670019602,13.475611988225339,27.235837856173628,9.614855790129651,1.1489066613560381,22.220446765231223,12.11160469415744,
0,0,0,0,0,0,0,0,0,0,0,0,0,0,0,0,0,0,0,0,0,0,0,0,0,0,
1,1,1,1,1,1,1,1,1,1,1,1,1,1,1,1,1,1,1,1,1,1,1,1,1,1,
-8.52405e-02,-1.81320e+00,4.49735e+00,-6.07411e-02,8.00133e-02,-1.00841e-01,-1.48266e-01,-1.31262e-01,-2.56126e-01,-8.78960e-02,7.56068e-02,6.12135e-01,2.47901e-01,-1.21546e+00,-8.64533e-02,5.79333e-03,-2.93175e-01,1.95399e-01,-1.88099e-01,1.09163e+01,3.08472e-02,2.52952e-01,3.98333e+00,6.17767e-01,2.57474e-01,
1.23369e-01,3.19215e+00,-3.68596e+00,2.74339e-01,-1.19873e+00,-1.96580e-01,2.58178e-01,-2.35275e-01,3.82321e-01,-4.47145e-01,1.11393e+00,2.03906e+00,-6.88859e-02,-3.82151e+00,2.59102e-01,1.42759e-01,1.20592e-01,1.08732e+00,2.36926e+00,1.84526e+00,-1.77052e+00,-1.01913e+00,-8.21811e-01,-7.20520e-01,3.03371e+00,
3.67455e-02,-2.52925e-01,1.78899e-01,-6.51959e-01,-4.63103e-01,5.91745e-01,5.22827e-01,-2.57252e-01,7.30643e-02,2.08483e+00,7.47404e-01,9.19329e-02,9.47377e-02,-1.28804e-01,-1.20852e-01,-1.49953e-01,3.20305e-01,-2.39001e+00,1.13055e+00,4.21652e+00,-2.10654e+00,-2.60989e-01,3.84872e-01,-1.12356e-01,-3.80865e+00,
1.71322e-02,7.23950e+00,-8.77129e+00,-7.11043e-02,9.92421e-03,-2.44936e-01,9.98126e-01,-1.94322e-01,9.62829e-01,-1.14434e-01,1.27813e-01,4.00465e-02,2.54400e-02,-1.08452e-01,-2.17983e-01,-1.08361e-01,2.59979e-02,7.73900e-01,-7.34325e-02,5.05014e+00,3.42008e-01,-1.01145e-01,2.06695e+00,2.27288e-01,2.12179e+00,
1.08542e-01,3.12374e-01,1.38598e+00,1.06929e-01,-2.78589e-02,-1.51916e-01,-2.38586e-01,-1.41179e-01,-3.15162e-01,-3.22088e-01,1.43421e-01,2.02920e+00,-1.73662e-01,-3.68016e+00,1.89276e-02,-9.76262e-02,1.07978e+01,-3.15740e+00,4.16892e+00,-3.76458e-01,-3.29510e-01,-4.87268e-02,-1.01983e+00,2.74302e-01,1.93079e+00,
-8.69813e-03,7.12611e+00,5.95618e-01,-3.88764e-02,-1.74803e-01,2.96024e-01,1.01372e-01,3.79913e-02,-3.98637e-02,4.28861e-01,1.07885e-01,8.44271e-02,2.38237e-02,-1.06146e-01,2.95316e-01,-1.35064e-02,5.19199e-01,-1.68493e-01,-5.47158e-01,1.46044e+00,-3.21305e+00,1.03633e+00,6.32699e+00,-3.47432e-02,-6.52851e-01,
1.84769e-01,4.21944e+00,-7.77876e+00,4.97383e-02,3.24339e-02,-1.38475e-01,-1.86485e-01,-1.37986e-01,-3.44020e-01,-2.05177e-01,4.03432e-01,1.85458e-01,-1.86513e-01,-3.73510e-01,-4.48745e-02,-4.81142e-02,1.26119e+00,-2.82856e+00,3.74252e+00,-5.36487e+00,-1.04003e+00,6.70478e-01,1.45528e+00,5.40757e-01,-1.63224e-01,
2.08982e-02,-2.79155e+00,4.76911e-01,-2.18872e-02,1.72708e-02,2.56936e-02,3.07246e-02,-6.42500e-02,7.78647e-02,7.81940e-02,2.51862e-01,1.25966e+00,1.42709e-01,-2.28392e+00,-6.73736e-01,7.15055e-03,-3.82541e-01,-4.66221e+00,2.15416e+00,-9.60477e-01,-5.54446e-01,1.38124e+00,-2.78287e+00,-1.50014e+00,-5.68432e+00,
3.90801e-02,-2.20714e+00,4.10331e+00,-1.68587e-01,2.88359e-01,-6.08272e-01,-6.22025e-01,-7.07328e-01,-1.40575e+00,2.14706e-01,2.94775e-01,-5.88175e-01,3.66178e-01,1.01238e+00,-1.04903e-01,-5.25932e-01,4.52494e-01,-3.03059e-01,7.26391e-01,1.03615e-01,1.54692e-01,2.48308e-01,-2.06365e+00,4.98256e-01,-4.51905e+00,
-2.08122e-02,9.04790e+00,-9.17702e+00,-4.87303e-02,-2.35519e-02,-1.00576e-01,1.87706e-01,-9.15885e-02,3.77439e-01,1.29604e-03,-9.11276e-02,-4.29973e-01,1.46667e-01,8.83118e-01,-1.26709e-01,1.61503e-02,-6.02889e-01,8.87681e-02,-3.06712e-01,-9.38287e-01,-4.62599e-01,1.18327e+00,1.67758e+00,6.55100e-01,-6.23890e-01,
2.30433e-01,6.68316e+00,-1.81318e+00,-1.61862e-01,6.15009e-01,-1.69637e+00,-5.36416e-01,-1.10797e+00,2.13458e-01,7.55279e-01,-9.76252e-01,1.38746e+00,2.04415e-02,-2.58417e+00,4.50238e-01,-1.10310e+00,-9.94368e-02,2.88620e+00,-1.25055e+00,1.60091e+00,-2.29355e-01,-1.98481e-02,3.90609e+00,-1.20748e+00,1.45683e+00,
2.19233e-01,-4.78960e+00,-5.89803e+00,2.48464e-03,9.12418e-02,-3.48234e-02,-2.26751e-01,-1.16720e-01,-3.05872e-01,-5.03480e-02,1.69974e-01,2.08976e-01,-4.94950e-03,-4.04616e-01,-1.24957e+00,4.77505e-02,-3.24693e-01,-3.25411e+00,2.39809e+00,1.54404e+00,-8.44173e-01,1.04357e+00,-7.80161e-01,-1.47215e+00,2.63133e-01,
3.36041e-02,1.91266e+00,-1.73527e+00,-2.18177e-01,1.41251e-01,-4.71064e-02,8.69609e-02,-8.52080e-02,6.74114e-02,2.54523e-01,5.19321e-01,3.44457e-01,-3.15486e-01,-7.28518e-01,1.03430e-01,-4.15688e-02,2.26709e-02,-5.17197e+00,-3.79700e-01,-5.56284e+00,-8.27625e-01,-5.37311e-01,2.06546e+00,-4.11258e-01,-1.60165e+00,
-1.91286e-01,1.24658e+00,-1.01046e+00,-1.58071e-01,-9.74166e-02,-4.04723e-01,2.07749e-01,-4.31124e-01,9.90137e-02,-1.33786e-01,1.46523e-02,-3.84743e-01,2.81611e-01,6.58975e-01,-7.96038e-01,4.44591e-03,-9.83154e-01,-2.95797e+00,3.89362e+00,-7.15185e-02,1.41743e+00,-6.48517e-02,4.08114e+00,-2.92767e+00,-4.08222e+00,
4.83348e-02,-5.57597e+00,4.25222e+00,-1.35107e-01,4.77681e-01,4.97980e-02,7.54131e-01,-1.09333e-01,1.45945e-01,3.37500e-01,7.01728e-01,-8.92852e-01,1.61782e-02,1.39733e+00,-8.11212e-01,-1.51968e+00,1.11602e-01,-2.85411e+00,-3.61852e+00,3.28664e+00,2.22595e-01,-1.48532e-01,1.36282e+00,3.54649e-01,2.84525e+00,
1.15061e-03,4.08850e+00,5.05557e+00,-9.85634e-02,1.33244e-01,-2.22315e-01,-5.72995e-01,3.61380e-02,-9.99715e-01,-1.10340e-01,4.87127e-01,-9.68694e-01,5.42484e-01,1.64608e+00,-5.94261e-01,2.39545e-02,-3.62366e-02,-1.69600e+00,-1.09519e+00,1.07352e+00,1.08865e+00,5.51847e-01,7.86878e-01,1.31200e+00,-7.32678e-01,
-1.03788e-01,-6.37747e+00,3.81534e+00,-4.09974e-01,-3.45479e-01,-2.58264e-01,-8.03765e-01,-4.44621e-01,-1.11809e+00,1.82102e-01,2.70159e-01,-1.81109e-01,1.64205e-01,5.87619e-01,3.34829e-01,-9.72605e-02,-8.60860e-01,-2.72201e-02,8.25694e-01,2.49369e+00,3.48020e-01,1.86173e+00,2.06169e+00,1.75208e+00,-1.13913e+00,
1.37944e-01,-1.19111e+01,2.96193e+00,6.39639e-02,-4.66330e-01,-2.08232e-02,5.95024e-02,-1.55529e-02,-9.24939e-02,3.92154e-01,-2.94427e-02,-1.06072e+00,2.63475e-02,1.98445e+00,6.54326e-02,3.12374e-02,1.19799e+00,-3.61563e-01,-1.59669e-01,-1.66776e+00,-5.28871e-01,-1.98929e-01,-1.58157e+00,-3.67099e-01,-3.29205e+00,
-8.68230e-03,-3.17227e+00,-3.20858e+00,-8.36568e-03,5.65935e-01,-4.23907e-01,-3.47307e-02,-5.05237e-01,-1.29395e+00,-6.97024e-01,1.57898e-01,-1.40279e+00,3.72953e-01,2.63758e+00,-2.18618e-01,-2.80433e-01,-5.28977e-01,-2.64576e+00,1.21300e+00,-9.06993e-01,6.59927e-01,1.81780e+00,-6.53783e-01,1.73838e+00,-2.18606e+00,
2.05882e-02,-2.23517e+00,6.42103e+00,-8.83719e-02,2.89933e-03,-9.63313e-03,-7.89281e-03,-6.65745e-02,4.95563e-02,6.24862e-02,1.45872e-01,-9.83278e-01,-2.44390e-01,1.81631e+00,9.20194e-02,-2.75038e-02,-2.52458e-01,2.10934e-01,1.95311e+00,-4.85888e+00,-5.07078e-01,3.00658e-01,-2.98604e+00,2.95624e-01,-9.91610e-01,
3.30312e-02,3.80927e-01,6.36632e+00,1.99142e-01,-1.31255e-01,5.44069e-02,-4.03019e-02,7.53101e-02,-8.31045e-02,-2.97912e-01,1.81559e-02,-1.69246e-01,-1.77503e-02,4.74874e-01,8.56674e-02,2.69953e-02,-2.48762e-01,1.01500e-01,1.76434e+00,-5.72180e+00,-2.92907e-01,-1.18000e+00,-1.00749e+00,-1.62000e+00,-1.50363e-01,
-1.52706e-02,7.09954e+00,-7.60506e+00,4.84822e-02,-1.76002e-01,9.77306e-02,8.03666e-02,1.69208e-01,1.80730e-01,-2.69570e-01,8.58166e-02,7.13328e-02,-1.02122e-01,-1.14204e-01,-1.65281e-01,1.49120e-02,-5.32427e-01,-3.73394e-01,1.69040e+00,3.48357e-01,1.13336e+00,-3.79786e-01,-1.33086e+00,2.12795e-01,5.19740e-01,
-3.89184e-02,-4.92485e-01,-5.04237e+00,-2.23615e-02,8.99348e-02,-7.26322e-02,1.53562e-01,-4.06696e-02,1.45985e-01,-8.69444e-03,1.14949e-01,-1.23653e+00,2.34990e-02,2.24019e+00,1.28356e+00,-7.38640e-02,3.47456e-01,-7.48559e+00,1.85889e+00,8.27181e-01,-1.29061e+00,-5.81578e-01,-3.23720e+00,1.72517e+00,-1.99454e+00,
-5.09810e+00,
3.28636e-01,
1.38614e+00,
-3.21948e+00,
-3.87443e+00,
-6.84241e-02,
-2.15311e+00,
3.52899e-01,
3.60803e-01,
7.01124e-02,
-3.82507e+00,
-5.17927e-02,
2.00749e+00,
-2.02388e+00,
-2.28126e+00,
-7.10193e+00,
-1.31072e+00,
-6.94786e-01,
-1.74097e+00,
-3.02533e+00,
-5.36960e+00,
-1.44162e+00,
8.44373e-01,
-1.37515e+00,8.04812e-01,1.32104e-01,-1.72274e+00,1.41025e+00,1.54077e+00,-8.55427e-02,-5.54857e-01,1.02397e+00,-2.71741e-01,2.25399e-01,-3.21448e-01,-1.56944e+00,1.24259e+00,1.09684e+00,1.08997e+00,2.07114e-01,2.08478e+00,-1.25892e+00,-1.19917e+01,-2.17790e+00,-5.01475e+00,-5.44367e-01,
-2.45968e-01,-7.72487e-01,5.80806e-01,4.97582e+00,2.69486e+00,-2.72260e+00,-2.36079e+00,8.70414e-01,7.43190e-01,2.54988e+00,1.88988e+00,-1.59541e-01,-1.00509e-01,-8.81285e-01,-3.29414e+00,2.76120e-01,-1.32763e-01,1.34106e+00,1.51912e+00,1.72093e+00,1.67390e+00,1.31725e+00,-8.69699e-02,
-3.78181e+00,-3.41969e+00,1.24653e+00,1.43485e-01,-3.50920e+00,-4.07719e+00,3.71434e+00,-4.28383e-01,1.17837e-01,3.14469e+00,2.68386e-02,7.65584e-01,-9.65951e-01,-2.19557e-01,1.35279e-01,5.50241e-01,1.27877e+00,-8.68269e-02,2.84379e-01,-1.86441e+00,-1.81902e+00,-6.07110e+00,6.45965e-01,
2.51786e+00,-4.03509e-01,-4.05090e-03,5.70918e-01,4.45476e-01,1.20987e+00,-1.50192e+00,2.15404e-01,6.33252e-01,-1.80912e+00,-1.75947e-01,7.14293e-01,1.27771e+00,-3.50131e-01,1.22862e+00,-2.25105e+00,8.88660e-01,1.95559e+00,-1.64702e+00,-1.84800e+00,3.27859e+00,2.68583e+00,1.42931e-01,
-3.03988e-01,-1.86984e-01,-5.37149e-02,6.54773e-02,-3.21862e-01,-3.71587e-02,1.19791e-01,-3.54456e-01,-1.30675e-01,-3.76468e-01,-4.82924e-02,-1.25053e-02,-4.01282e-01,-2.66184e-01,-3.61191e-01,-1.28137e-01,-1.51779e-01,9.51523e-02,-4.42921e-01,9.40313e-02,-5.44838e-02,-3.78732e-01,-3.56107e-01,
1.89761e+00,1.44662e-01,-3.05456e-01,1.93862e+00,-1.07438e+00,2.02173e+00,-2.77377e+00,-5.73775e-01,3.53584e-01,2.90757e-01,-2.55691e-01,-9.81284e-01,4.03228e-01,-4.88397e-01,3.83104e-01,-1.86713e+00,4.84444e-01,-8.86159e-01,-4.95535e-01,3.81688e+00,-9.62855e-01,-5.41155e+00,-3.20977e+00,
-1.61288e+00,-1.02262e-01,-3.92984e-01,3.96743e+00,-2.14795e+00,8.00563e-01,-1.15334e-01,-9.65866e-01,7.37482e-01,3.38876e-01,2.38151e+00,7.80064e-01,-1.10060e+00,-3.31268e-01,-3.31863e-01,1.85609e+00,-3.21897e-02,3.55715e-01,1.21682e-02,2.27162e+00,-2.76163e-01,-1.07573e+00,6.33915e-01,
-2.46295e-01,-7.40472e-01,-9.18940e-01,3.61411e+00,-3.75316e+00,1.42061e+00,-2.75256e+00,6.90285e-01,5.07102e-01,3.48124e+00,-1.03445e+00,-1.12569e-01,1.49860e+00,-3.44933e+00,6.12947e-01,-4.94482e-01,-2.90584e+00,2.85191e-01,1.67769e+00,-2.53977e+00,2.50740e+00,2.24749e+00,-3.77064e-02,
1.37976e+00,-8.03130e+00,-3.94497e-01,3.85973e+00,1.55023e-01,1.67993e+00,5.21315e-01,1.56760e+00,-1.81452e-01,-7.90098e-01,3.31003e-01,-2.90736e+00,-1.04553e+00,-1.21904e+00,-8.53626e-01,-3.13128e-01,5.28564e-01,6.13674e-01,1.38270e-01,-4.46140e-01,-9.53655e-01,-3.94658e+00,-6.04343e+00,
3.30920e-01,1.58511e-01,9.76970e-01,3.80991e-01,5.92234e-01,-6.49656e-01,1.91523e+00,1.84293e-01,2.92672e+00,2.65981e-01,-3.36954e-01,7.27970e-01,3.75009e-01,9.39783e-01,-7.39104e-01,-8.27703e-01,-7.45317e-01,-3.35231e+00,-1.56922e+00,-1.15170e+00,-2.81096e-01,1.56739e+00,5.19490e-01,
2.50875e-01,-3.41566e+00,-2.98144e-01,-1.40392e+00,-1.06333e+00,3.16563e-01,3.03067e+00,3.25121e+00,-2.59682e-01,-2.37764e+00,3.94254e-01,-2.67156e+00,-1.24633e+00,-3.01820e+00,1.74024e+00,2.13935e+00,9.63695e-01,-5.02451e-01,-1.07123e+00,-6.49144e+00,-1.01596e+00,3.13732e+00,-1.30691e+00,
2.87249e-01,-3.72089e+00,-1.47873e+00,3.43388e-01,4.53491e+00,1.99679e+00,-8.30616e-01,2.60074e-01,-1.76540e+00,6.31760e-01,1.88826e-01,-1.73002e-01,2.19463e-01,2.67728e-01,-1.19673e+00,6.22991e-02,-1.46555e+00,1.87622e+00,1.93485e+00,-1.73325e-01,-4.02092e+00,-1.23278e+01,4.93008e-01,
4.32591e-01,-9.34595e-01,-1.42328e-01,5.96266e-01,-1.31141e+00,2.17151e+00,8.92897e-01,2.14029e-01,1.91727e-01,2.89588e+00,5.26116e-01,-1.12920e-01,1.84541e-01,-7.93580e-01,2.87358e-01,-4.18418e+00,-1.12599e+00,1.85477e+00,4.81004e-01,-1.13898e+00,2.37685e+00,-2.03460e+00,2.08363e-01,
-4.22796e+00,-2.71308e-01,-3.83858e-01,4.05342e-01,-1.51259e+00,2.43895e-01,1.87286e+00,1.16442e-01,7.50364e-01,1.24926e+00,1.05828e+00,-7.38180e-01,8.36971e-01,-2.09627e-01,1.53030e+00,-1.03195e+00,8.07248e-01,-8.86009e-03,8.31848e-02,2.72145e-01,-1.49236e+00,2.03389e+00,6.14113e-02,
2.45705e-01,-1.59398e+00,4.21535e-03,-3.94799e-01,-4.26997e-01,1.41282e+00,5.19467e+00,-5.18183e-01,-2.93033e-01,9.31144e-01,1.85246e-01,1.88514e+00,-3.11859e+00,-1.32397e+00,-1.41800e-01,-2.44422e+00,7.62279e-01,-8.57307e-01,3.19841e-01,-1.18854e+01,5.16151e+00,1.98874e+00,1.38652e+00,
2.04002e+00,-1.63762e+00,-1.27417e-01,-2.15592e+00,-2.86748e+00,1.98629e+00,-2.01280e+01,-2.82843e+00,-1.00751e+00,1.63410e+00,1.30791e+00,-5.58347e-01,-4.85349e+00,3.36278e-01,1.81156e+00,-5.75874e+00,1.64437e+00,4.76397e-01,1.86828e-01,5.00485e+00,-2.70856e+00,-4.98339e+01,-3.92080e-01,
-1.77801e+00,-1.24714e-01,4.36009e-01,-4.30674e-01,2.35752e+00,2.84946e+00,-2.02735e-01,6.87072e-01,7.49334e-01,9.57886e-01,-7.97096e-01,-3.36340e-01,-1.74232e+00,5.28576e-01,4.53271e-01,-3.44871e+00,-1.15177e+00,1.89289e+00,-1.40038e+00,3.01860e+00,-6.53852e+00,-2.70272e+00,-5.14693e-02,
-6.35447e+00,-2.54529e+00,-7.28099e+00,5.32278e+00,-1.99932e+00,8.72033e-01,1.48735e+00,-6.26747e-01,3.69834e-01,-2.85716e-01,1.97354e+00,9.80804e-01,-3.42125e+00,-3.39729e-02,3.24962e-01,-9.54141e+00,-9.48543e-02,1.43420e+00,5.53648e-01,2.63091e+00,-3.16066e-01,-3.16006e+00,7.97077e-01,
4.01342e+00,
-1.41240e+00,
-2.80543e+00,
-8.83372e+00,
-1.27586e-01,
3.83232e+00,
4.11990e+00,
2.30317e+00,
1.00883e+01,
-3.66410e+00,
7.97255e+00,
-4.13212e+00,
5.40169e-01,
1.02169e+00,
-6.39380e+00,
1.32797e+00,
3.06613e+00,
-3.35486e+00,
-1.40005e+00,-5.46906e-02,2.19521e+00,7.50020e-01,8.49907e-02,1.40022e+00,2.36457e-01,-3.50926e-02,-1.70966e+00,-3.12414e-01,7.65106e-01,3.86707e-01,3.66341e-01,-2.92439e-01,-1.52246e+00,4.77992e-01,6.11205e-01,-4.77714e+00,
1.61374e+00,-5.44817e-01,8.04261e-01,-1.77703e+00,-2.11820e-01,-8.17383e-01,6.28703e-02,2.17125e-01,5.90771e-01,1.05584e+00,1.32193e+00,8.69314e-01,5.51488e-01,1.55502e-01,5.05082e-01,7.47031e-01,7.28465e-02,2.56394e-01,
4.29029e+00,-2.47936e+00,-2.67225e-01,-1.51481e+00,-2.26891e-01,4.24114e+00,-4.19696e+00,6.84975e-01,7.89325e-01,-7.13104e-01,9.46259e-01,-1.76132e+00,2.23438e-01,8.14304e-01,2.28984e+00,-2.64515e+00,-3.24093e+00,4.24684e+00,
6.09081e-01,-3.31757e-01,6.47585e-01,4.70547e-01,-1.67584e-01,-1.86872e-01,1.49041e+00,-2.27350e-01,-8.30701e-01,2.57477e-01,1.79472e-01,2.93354e-01,-2.93871e-01,-1.48346e+00,8.85211e-02,1.31023e+00,1.45172e-01,-6.68435e-01,
3.32800e-01,-3.25419e-01,-2.44216e-02,7.18790e-01,1.06587e-02,4.37748e-01,3.59136e-01,-6.90592e-01,-8.76356e-01,3.19349e-01,8.60030e-01,1.15153e+00,-1.04555e+00,-1.45114e-02,-1.47820e+00,1.41275e+00,3.02636e-01,1.56107e+00,
-1.12228e-02,-7.67891e-01,1.01499e+00,1.15131e+00,-8.28831e-02,-1.72938e+00,-3.63321e-01,7.58133e-01,-2.90828e+00,3.26501e-01,5.98916e-01,4.67060e-01,-1.41962e+00,3.87672e-02,-7.81977e-01,-8.62889e-01,3.05427e-01,2.19396e+00,
-1.43127e+00,2.12132e-01,2.30288e+00,-8.72828e-01,1.14579e-01,-3.77153e-01,1.75733e-01,1.85258e+00,2.01693e-01,-9.96940e-01,-4.07481e-01,-1.99998e+00,-1.00467e+00,-2.60104e-01,-3.38110e+00,1.67525e+00,1.86931e+00,2.27004e-01,
1.06322e+00,2.79253e-01,7.90088e-01,3.04846e-01,-3.51281e-01,-1.61337e+00,2.20307e-02,7.26107e-01,3.49306e-01,7.30007e-01,1.53470e+00,-8.72594e-01,9.64127e-01,-1.13340e+00,-1.42256e+00,1.38321e+00,-5.85880e-01,-3.65674e-01,
2.46470e+00,-2.05812e+00,8.45937e-01,1.91104e-02,-3.65781e-01,-9.64845e-03,-5.66704e-01,1.50077e+00,1.87303e+00,9.24440e-01,-3.12647e+00,-1.26678e-03,1.21541e+00,8.07610e-02,-1.18322e+00,-5.67476e-01,-1.98194e+00,4.23121e+00,
1.10519e+00,-1.38658e+00,1.12006e+00,-1.57956e+00,2.03378e-01,1.57919e-01,2.12030e-01,1.39639e+00,3.86665e-01,1.70185e+00,-4.32677e-02,1.03930e+00,-3.69297e-01,3.23601e-01,-2.82540e-01,4.62000e-01,6.51413e-01,3.90343e+00,
-9.51962e-01,-3.24626e-01,3.53481e+00,-8.56781e-01,-1.86493e-01,-2.62344e-02,4.47819e-01,5.16050e-01,1.46244e+00,-1.40278e+00,2.38930e+00,-1.49268e+00,3.82556e-01,-3.25486e+00,-2.41110e+00,-9.75005e-01,3.85948e-01,8.05072e-01,
6.90930e-01,
8.89053e-02,
-1.25969e+01,
-3.74110e+00,
4.71858e+00,
9.38456e+00,
1.59619e+00,
-1.93395e+00,
-1.63606e+01,
-4.69530e+00,
1.75964e+00,
6.28523e-02,1.89111e-01,-3.08430e-01,-8.54727e-01,2.58249e-01,-5.69789e-01,-2.97093e-01,2.67494e-01,-4.21191e-01,2.15236e-01,-3.13177e-01,
-6.87884e-01,6.43904e-01,-1.01411e-01,6.62835e-03,6.00964e-01,7.04242e-02,2.67904e-01,-7.48751e-01,-1.16339e+00,-1.89815e-01,1.90640e-01,
-4.00154e-01,6.94995e-01,4.18288e-01,-1.87818e-01,-5.40028e-01,2.40179e-01,-3.55412e-01,1.16557e-01,-3.01843e-01,-4.18948e-01,-4.05831e-02,
2.70012e-01,3.29111e-01,5.14979e-01,-1.11316e-01,-1.18569e-01,-1.34745e-03,-1.50285e-01,-2.09650e-01,-5.99785e-01,-2.32434e-03,-6.43779e-01,
2.42759e-01,-4.88269e-01,-7.24154e-01,-2.09279e-01,-1.77877e-01,-4.11074e-01,-6.92732e-01,1.30898e-01,-1.03533e+00,7.31640e-01,4.19728e-02,
1.52744e+00,
-8.23762e+00,
-5.06938e-01,
-4.88078e-01,
5.34833e+00,
