// Neural Network File Format by Kyle Julian, Stanford 2016
4,25,5,25,
25,23,17,11,5,
0,
-2.1867712143103217,-2.976916953521056,-3.02464350707255,-8.251729475378205,-3.9824691797129628,-3.3911720193636277,-3.1183562839423233,-4.933269487401428,-4.532418683413161,-2.8216576481762097,-2.416220959483641,-2.1475802432764777,-39.19981977547292,-4.665382982410006,-85.67042728615854,-2.165030215782201,-7.151473821981978,-1.2130556252024791,-1.1861348784467083,-8.226898916297866,-1.0077224117296293,-6.667840661651383,-9.480599036432652,-6.7440287502824985,-6.7933176255974255,
10.284856229659841,4.052215536230888,3.393554839565277,8.440304124695158,5.278238546541495,1.4900711076117352,1.520211719493311,5.962264772680086,4.940778830614732,3.9717058451490383,3.7844945201718536,1.87273184775627,11.366421343940779,7.541106269378092,16.384033958601442,48.938139964487064,2.356630628737602,11.671510682009526,7.9280616700196,13.475611988225346,27.235837856173617,9.614855790129651,1.1489066613560381,22.22044676523123,12.111604694157437,
0,0,0,0,0,0,0,0,0,0,0,0,0,0,0,0,0,0,0,0,0,0,0,0,0,0,
1,1,1,1,1,1,1,1,1,1,1,1,1,1,1,1,1,1,1,1,1,1,1,1,1,1,
1.74600e-01,6.90889e-01,-1.14787e+00,3.83234e-01,-1.10486e-01,-1.74779e-01,-9.12640e-01,-1.66814e-01,5.20536e-02,-1.45703e+00,3.20488e-01,-7.03068e-01,-3.02879e-01,1.43266e+00,-1.78630e-01,-1.14659e-02,-1.99141e-01,8.79623e-01,-9.26403e-01,-4.10620e+00,3.06244e-01,-2.88297e-01,2.13603e+00,6.86344e-01,2.50629e+00,
-2.45481e-01,6.94966e-01,-1.29573e+00,-9.77231e-02,-4.11791e-01,3.59724e-01,1.25950e+00,2.86548e-01,-3.73074e-01,1.07286e-01,4.31379e-02,-5.86230e-01,-6.44875e-02,1.13003e+00,-2.17107e-01,-6.91290e-02,-1.06930e+00,-3.86081e-01,-6.01344e-01,9.99380e-01,-3.69621e-01,-2.23669e+00,-1.25950e+00,-1.45798e+00,-1.38431e+00,
-6.27976e-02,6.64635e+00,-2.73194e+00,-8.98219e-02,2.56773e-02,-1.41188e-01,1.43083e+00,1.02820e-01,-2.88979e-02,2.58585e-01,-7.41871e-02,-2.33231e-01,-2.61766e-01,3.99496e-01,2.03759e-01,2.80949e-02,7.16103e-01,1.70333e+00,-3.18591e-01,-2.41653e+00,-2.43896e-01,9.71948e-02,-2.31610e+00,9.42919e-02,-1.67769e+00,
-1.26582e-01,1.91605e+00,-3.14177e+00,-1.63857e-01,9.41449e-01,-5.98237e-01,2.22976e+00,-7.45303e-01,1.36357e+00,3.51542e-01,1.62622e-01,-3.48447e-02,-2.11639e-02,5.06502e-02,-7.75324e-02,-8.35746e-01,-4.79557e-02,7.20834e-02,5.87846e-01,-2.00140e-01,-5.15770e-01,-1.19841e+00,-1.92280e-01,-9.84798e-01,-4.46896e-01,
-4.65047e-02,2.17198e+00,6.10320e+00,-3.85030e-02,5.75797e-02,-6.51969e-03,3.93523e-02,9.72195e-02,5.88911e-02,1.17907e-01,-2.60004e-02,-1.24246e-01,-3.90664e-01,1.31171e-01,2.57275e-01,-1.04090e-01,-8.87773e-02,-9.30549e-01,1.00695e+00,4.22423e-01,-2.49521e-01,1.88884e-01,1.48905e+00,7.81079e-03,1.03654e+00,
3.66886e-01,3.32819e+00,7.35746e-01,1.39783e-01,-1.42073e-01,1.41010e-01,-2.39405e-01,2.53013e-01,1.13473e+00,3.03409e-01,-7.47629e-01,-4.67861e-01,-2.62341e-01,8.31456e-01,4.16417e-01,3.36641e-03,-7.51760e-01,1.23470e+00,-1.37639e+00,3.27675e+00,-3.78840e-02,-6.99935e-01,-2.28730e+00,4.25160e-01,-6.13532e-01,
6.21416e-02,1.65301e+00,3.45519e+00,6.01938e-01,3.51598e-01,-9.44618e-01,-1.33526e-01,-3.39669e-01,-7.02567e-02,-1.77067e+00,-5.04875e-01,-5.06144e-01,-2.18764e-01,1.04823e+00,4.22815e-01,-9.43444e-02,-2.56547e-01,2.23003e+00,2.01537e-02,1.06406e+00,-1.92225e-03,-1.03219e+00,-5.33998e-01,-5.76496e-01,7.93375e-03,
4.88205e-02,-5.08022e+00,-1.82267e+00,-1.31232e-01,-6.66899e-01,1.59665e-01,-9.01302e-01,3.32253e-02,-2.75317e-02,4.81357e-01,1.20042e+00,-4.77326e-01,-1.22676e-01,8.39508e-01,3.12588e-02,2.63862e-01,1.83738e-01,-1.71112e+00,1.59555e-01,-7.65166e-01,2.41238e-01,3.08524e-01,-1.09063e+00,3.01526e-01,-9.26155e-01,
3.07642e-02,1.29055e+00,8.39955e-01,-2.34360e-01,3.80330e-01,1.15938e+00,1.83247e-01,-6.50508e-01,-1.74743e-01,3.06267e-01,-3.16129e-01,4.12070e-01,-3.43799e-01,-7.09362e-01,1.12898e+00,-2.43404e-01,-7.61927e-01,-1.36396e+00,-2.87870e+00,4.54454e-01,1.23462e-01,-6.83147e-01,2.89042e+00,3.69320e-01,-7.28055e-01,
1.42010e-01,-3.10973e-02,-5.81901e-01,2.86813e-01,-2.64652e-01,1.46355e-01,-4.92293e-01,-3.90881e-01,-8.08215e-01,-2.05260e-01,2.97075e-02,-1.40475e+00,6.65482e-01,2.65920e+00,1.29404e-01,-2.32847e-01,1.17417e+00,-3.37660e-01,6.32532e-01,2.96010e-01,1.77606e-01,-4.47333e-01,2.84333e+00,4.69104e-01,4.46805e-01,
-7.15163e-02,-2.68868e+00,5.34483e+00,-1.16508e-01,1.08916e-01,2.81696e-01,1.15051e+00,1.13731e-01,8.56711e-01,-2.90428e-01,-1.12395e-01,1.93121e-01,5.30764e-02,-3.26640e-01,1.11842e-01,8.10462e-02,1.34850e+00,-1.53687e+00,-8.88721e-01,-3.43561e-01,-1.32917e-01,-2.84903e-01,1.78380e+00,-3.79180e-01,-8.16341e-01,
1.31239e-03,-1.54333e+00,1.29851e-01,-1.54956e-01,-3.54117e-01,-1.59501e-01,-7.85124e-02,-4.62733e-01,1.80606e+00,-3.36079e-02,3.47845e-01,-8.80300e-01,-1.14631e+00,1.79198e+00,1.36237e-01,1.49887e-01,1.05299e+00,1.46562e+00,1.36609e-01,1.48807e+00,1.81217e-01,-1.29946e+00,4.50916e+00,-1.47339e-01,1.18417e+00,
-3.06409e-02,-5.01789e+00,3.86320e+00,2.71407e-02,-3.18037e-02,2.75893e-02,3.03389e-01,6.54671e-03,1.16897e-01,-5.18533e-02,-1.63003e-02,3.02911e-02,-1.77448e-01,-3.75621e-02,1.79576e-03,-4.82014e-02,-1.93061e-01,-5.56322e-01,-1.48911e+00,-2.66328e+00,6.85702e-02,-1.33918e-01,1.54610e+00,5.52815e-03,9.17721e-01,
-4.08432e-02,4.13931e-01,-1.27408e-01,7.22778e-02,-3.54729e-01,3.04056e-01,3.19918e-01,5.70407e-02,1.07632e+00,-2.47317e-02,2.77244e-03,6.71319e-02,-1.06512e-01,-1.81454e-01,1.38628e-01,1.24602e-01,-1.88380e-01,-1.67074e+00,-2.78178e+00,-4.02459e+00,1.85296e-02,-1.94840e+00,2.06057e+00,-2.21948e+00,-1.57821e+00,
4.28265e-04,1.07314e+00,-1.19497e+00,-1.20440e-01,-3.38022e-01,3.10093e-01,-9.33300e-01,1.81969e-01,7.34988e-02,5.16341e-01,2.96287e-01,1.94172e+00,-2.67067e-01,-3.61715e+00,5.99876e-02,6.34766e-03,6.89950e+00,-1.81491e+00,3.45516e+00,-6.06117e-01,2.42503e-01,1.05683e-01,-1.72999e+00,2.26912e-01,-8.92760e-01,
7.24704e-02,4.92775e+00,-1.79061e+00,-4.42676e-01,9.26390e-01,4.28883e-01,-8.40806e-01,-4.82466e-01,-4.05104e-01,-1.93305e-01,-6.70988e-01,2.65618e-01,-2.47611e-01,-4.89826e-01,-1.19239e+00,-5.00496e-01,1.00323e+00,3.50660e-01,2.75836e+00,1.22384e+00,1.36778e-01,5.16873e-01,-2.01761e+00,1.25760e+00,3.36586e-01,
-9.15577e-02,-2.34964e+00,4.33133e+00,3.29881e-02,7.16796e-01,-7.42235e-01,-3.39396e-01,-7.20512e-01,-8.96655e-01,2.77737e-01,-8.83867e-01,2.82618e-02,-3.52645e-02,1.30172e-01,-1.12920e-01,-6.96021e-01,1.55730e+00,-1.75294e-01,1.70847e+00,2.58109e+00,-1.39790e-01,3.66311e-01,-1.09769e+00,8.11830e-01,1.57751e+00,
-1.13085e-02,-8.09090e-01,-4.26387e-01,7.78309e-02,-2.84529e-01,1.82652e-01,4.02536e-01,1.83334e-01,4.21997e-01,-4.18775e-02,3.45218e-02,1.69103e-01,9.44104e-02,-3.70295e-01,-3.52784e-02,7.50978e-02,-7.42248e-01,-1.37470e-01,7.62509e-01,7.71172e+00,-2.20107e-01,4.21066e-01,1.65646e+00,6.05942e-01,-1.19036e+00,
4.74486e-02,-4.66543e+00,-2.36114e+00,-1.28945e-02,1.40565e-01,3.19074e-02,6.34058e-01,-1.29901e-01,3.06074e-01,-3.07177e-02,-1.32577e-01,-8.09040e-02,-4.98786e-02,1.58958e-01,2.39783e-02,-4.03256e-02,6.97548e-01,6.10236e-01,-1.79327e+00,-7.95623e-01,-8.75103e-02,-5.58912e-02,7.47024e-01,-2.17463e-01,6.36719e-01,
-6.56664e-02,1.48877e+00,7.16525e+00,6.48973e-01,5.61985e-01,-7.89949e-01,-9.40427e-01,-5.01959e-01,1.45361e+00,-1.76639e+00,-1.11465e+00,-6.78427e-02,-5.31339e-02,1.96265e-01,-4.43769e-01,1.46961e-02,-9.82673e-01,-3.01209e-01,6.93756e-01,-3.73997e-01,-5.44176e-02,7.72507e-02,4.22817e-01,-1.27911e-01,-4.11464e-01,
4.60152e-02,4.65610e+00,-5.94339e+00,-3.96096e-02,-2.88388e-02,-1.51732e-01,7.49250e-01,-1.65775e-01,9.56641e-02,1.70981e-01,1.36991e-02,-8.05700e-01,-5.15024e-02,1.53616e+00,5.04744e-02,-1.18500e-01,1.31118e-01,-6.75652e-02,3.05176e-01,6.74029e-01,9.51488e-02,4.57191e-01,-1.71859e-01,4.94619e-01,2.84120e-02,
-3.08433e-02,-2.59353e+00,6.13221e-01,-3.08098e-02,9.46471e-02,-4.20475e-01,4.01829e-01,-1.65803e-01,1.29884e-01,-3.82631e-02,1.10417e-02,1.11276e+00,3.37465e-01,-1.98677e+00,1.50313e-01,2.19011e-02,4.00659e-01,-1.26462e+00,-1.02562e-01,-4.28722e-01,-7.73790e-02,4.75496e-01,-3.09672e+00,-1.50422e+00,-3.93113e+00,
-1.33188e-01,7.86499e+00,-3.46112e+00,-3.81227e-03,3.72446e-02,2.45659e-02,2.26123e-01,-2.50960e-02,-1.63609e-01,-4.81415e-02,-7.14757e-02,-8.71864e-02,-2.35351e-02,1.45145e-01,2.51445e-02,-5.47052e-03,1.29090e-01,7.21307e-01,-4.13318e-02,3.51692e+00,-1.41566e-02,2.52742e-01,1.94546e+00,2.20465e-01,2.08771e-01,
-1.29011e+00,
5.21573e-01,
1.50842e-01,
-5.37219e-01,
3.69619e-01,
-1.27777e+00,
-4.71848e+00,
-4.76611e+00,
-1.07288e+00,
-9.78026e-01,
6.98850e-01,
-9.59326e-01,
-2.83490e-01,
5.51520e-01,
-2.66397e+00,
-3.49656e+00,
-2.31338e+00,
-1.72660e+00,
5.62388e-01,
-4.77026e+00,
-6.94805e-01,
4.29899e-01,
-1.24494e+00,
-6.83690e-02,4.69786e-01,6.65816e-01,4.19724e-01,1.69976e+00,9.57593e-01,-3.51415e+00,-1.31034e+00,-9.02997e-01,4.05402e-01,1.35120e+00,-1.64750e-01,-2.31958e+00,4.82113e-01,-1.05730e+00,-1.51122e+00,2.72583e-02,4.57380e-01,4.26047e-01,-1.09535e+01,3.45544e+00,-3.87300e-01,1.73652e+00,
-7.42795e-01,1.67867e+00,-8.53245e-01,-7.21346e-01,2.17242e+00,3.97101e-01,6.83855e-01,-3.20465e-01,7.06482e-01,-2.67316e-02,6.84475e-01,-7.89642e-01,1.14841e+00,4.14940e-02,-8.64241e-01,3.13280e-01,-1.04558e+00,2.78298e-01,9.15983e-01,-4.00382e+00,6.09286e-01,9.52171e-01,4.46151e-01,
-1.71850e-01,5.87211e-01,9.81261e-01,1.57311e-02,2.42038e+00,-7.82904e-01,1.08505e+00,-2.81142e+00,9.87763e-01,-1.08006e+00,-8.89585e-01,-5.23665e-01,1.00667e+00,-6.93209e-01,4.98556e-01,1.81398e-01,-3.10889e-01,1.35142e+00,1.91522e+00,-1.06188e+00,-2.85760e-01,-1.05497e-01,2.81734e-01,
-3.90704e+00,1.10730e+00,-4.36153e+00,2.59615e-01,-5.29508e+00,1.00222e+00,4.46379e-01,-1.08196e-01,-9.21538e-02,4.39760e-01,-2.86293e-01,1.00247e+00,8.88671e-01,-1.36067e+00,-1.11246e+00,1.38935e-01,4.01764e-01,3.33000e-02,2.40025e-01,1.51139e+00,1.23318e+00,4.15241e-01,5.60373e+00,
-3.54484e-02,9.95827e-01,1.12791e+00,4.22050e-01,-2.86656e-01,3.20080e-01,-1.81222e+00,6.54056e-01,1.07818e+00,-7.73076e-02,-1.05974e+00,-1.08312e-01,-1.35472e+00,1.24699e+00,-1.28651e-01,-3.10631e-01,-3.79297e+00,-1.42065e+00,1.30514e+00,6.37537e-01,2.89038e+00,9.70248e-01,-1.93673e-02,
5.05420e-02,3.11325e-01,1.59591e+00,-3.55341e-01,-8.32778e-01,1.78783e+00,-4.20892e-01,8.22798e-01,-1.72834e+00,1.15092e+00,2.10219e+00,-4.65710e-01,-3.29623e-02,-6.87209e-01,1.42109e+00,-3.70980e+00,1.29405e+00,-1.17510e+00,3.48372e-01,-2.76589e+00,4.85730e+00,-4.14415e-01,5.21150e-01,
-6.02595e-01,-7.40685e-01,-2.24213e+00,2.68110e+00,3.83341e-01,1.17102e-01,5.58366e-01,2.78925e-01,1.31587e-02,4.98561e-01,-1.04280e+00,1.87018e+00,1.26416e+00,-2.98628e+00,-1.59521e+00,3.83725e-01,2.10059e-02,-5.97601e+00,1.83781e+00,-8.24209e-01,-2.58877e+00,1.41036e-01,3.11303e+00,
7.68623e-01,1.68069e+00,-1.22335e-01,-1.58112e+00,8.06766e-01,7.25689e-01,-1.70937e-01,-2.00736e+00,8.26385e-03,-8.02442e-02,2.49797e-01,-5.96898e-01,-1.77419e+00,9.81689e-01,-1.12752e+01,-1.55709e+00,-1.09406e+00,-1.53129e+00,9.38678e-01,-2.45217e-02,2.80914e+00,-9.88035e-02,8.62737e-01,
-1.29609e+00,1.27603e+00,4.71148e-01,-1.94739e-01,1.64649e+00,9.97804e-01,-4.00944e+00,-4.44518e+00,2.80559e-02,-6.20610e-01,6.24913e-01,-9.26318e-01,5.52308e-01,1.28610e-01,-6.23753e-01,-6.21653e+00,6.83893e-01,-1.16398e-01,1.39086e+00,-2.33654e+00,1.91872e+00,-3.62931e-01,-1.77644e-01,
-6.66473e-01,5.16416e-01,-1.53770e+00,8.08499e-02,1.42358e+00,3.32900e-01,1.51264e-01,-1.07113e+00,-5.24301e-02,1.00085e+00,-4.40178e-01,4.30732e-01,-5.03709e-02,1.05033e+00,5.72650e-01,1.13323e+00,-1.01281e+00,1.50140e+00,-1.38423e-01,-7.61201e-01,9.20469e-01,1.40589e+00,3.87354e+00,
-1.06520e+01,3.78746e-02,-1.34642e+01,1.98382e-02,2.20302e+00,1.29466e-01,-2.02013e+00,-3.22839e+01,-1.99969e-01,-8.44097e-01,-6.98572e-01,3.10547e-01,-3.26190e-01,-4.19675e-01,-5.24560e+00,4.07484e-01,1.85912e-01,-2.14335e-01,2.79136e+00,-8.22790e-01,-1.67195e+00,-2.45152e+00,-3.22536e-02,
-3.36104e-01,1.01125e+00,2.04004e-01,-1.91632e-01,2.79535e-01,7.00637e-01,3.59595e-01,4.48566e-01,4.54317e-01,-9.90491e-01,1.56401e+00,-1.17642e+00,2.89368e-01,-6.61469e-01,-8.20104e-01,-6.97334e-01,-1.01301e+00,8.90380e-01,-1.11197e+00,-1.18137e+00,2.33865e+00,-2.62206e-01,-3.47725e-01,
-5.21437e-01,-5.83021e-01,1.73407e+00,-2.64636e-01,1.88544e+00,-5.10900e-01,-3.72866e+00,-5.29196e+00,1.19814e-02,5.90180e-01,-1.42540e+00,-1.39301e+00,1.79293e+00,-1.29667e+00,1.69742e+00,1.54469e+00,-2.18547e-01,8.76197e-01,9.64348e-01,-3.44362e+00,-2.05943e+00,5.92882e-02,-1.34104e+00,
2.12454e-01,1.38320e+00,6.42160e-01,-6.18636e-01,-2.24573e-01,-4.35380e-01,2.33131e-01,-9.21041e-01,1.70069e+00,-6.77650e-01,3.02938e-01,3.13560e-01,2.71561e+00,-3.03384e+00,-7.02245e-01,1.25636e+00,-1.36135e-01,1.46370e+00,2.60481e-01,-4.04249e-01,-2.25128e-01,3.07944e-02,5.25410e-01,
-3.99080e-01,3.28108e-02,3.42024e-01,2.03185e-02,5.72004e-01,4.56496e-01,5.16330e-01,-5.85954e-01,4.49413e-01,-3.95895e-01,1.45269e-02,-2.88538e-01,5.75833e-02,-8.88317e-01,1.51195e+00,-9.85938e-01,5.62116e-01,-1.34629e+00,1.67812e+00,8.18209e-01,-2.10900e+00,-6.00108e-01,-1.08087e+01,
-2.10899e+00,1.13515e+00,-2.40699e+00,3.03655e-01,9.58969e-01,4.71425e-01,-1.56577e+00,-7.78484e-01,4.27376e-01,-5.44729e-02,4.42880e-01,-2.58990e-01,-8.29393e+00,8.70712e-01,-3.70965e-01,3.55092e-01,-5.46386e-01,-1.02321e+00,5.57041e-01,-2.35999e+00,1.78159e+00,-1.80996e-01,3.60542e+00,
-9.46435e-01,2.02649e+00,-1.40401e+00,6.84970e-01,1.44039e+00,1.28566e+00,1.12756e+00,-4.24699e-01,2.53183e-01,8.49362e-01,-1.35852e-03,-7.09992e-01,-1.37890e+00,9.84464e-01,-3.21568e-01,3.36969e-01,-1.37826e+00,-2.59264e+00,4.79515e-01,-1.34113e+00,-1.26824e+00,1.53501e-01,-3.24176e-01,
-3.60207e-01,
3.86798e-01,
-3.39979e+00,
3.20702e-01,
-1.97538e+00,
-3.87235e+00,
3.20790e+00,
9.58477e-01,
3.72423e-01,
-1.04823e+00,
-1.02451e+00,
3.77398e+00,
1.26467e-01,
-1.61959e-01,
4.65997e+00,
2.20966e+00,
4.47666e+00,
2.40356e-01,1.02732e+00,2.08694e+00,9.25996e-01,-1.54483e+00,-3.91368e+00,4.13093e-01,-3.72400e+00,2.05281e+00,-4.22985e-01,1.31283e+00,-9.50187e-01,-4.86963e+00,-9.44403e-01,7.25182e-02,-6.69973e-01,4.56472e-01,
-1.33647e+00,9.66690e-02,-1.66018e-01,8.14777e-01,9.34676e-01,-1.74912e-01,-1.36050e-01,1.83570e-01,-2.56906e+00,-4.56546e-01,-1.51770e+00,-4.94646e+00,-1.90050e-02,-1.80853e+00,9.06274e-01,5.62592e-02,-1.74723e+00,
1.80681e+00,-3.01926e-03,1.52833e+00,5.23207e-01,1.22297e+00,-2.10983e-01,8.06056e-03,3.96291e-01,-5.61571e-01,-9.28075e-01,-3.56369e-02,-2.51560e-01,2.68197e-01,2.11605e-01,6.19590e-01,-1.55650e+00,2.37516e-01,
7.74542e-01,-8.71291e-01,7.63049e-01,-2.37662e+00,1.37427e+00,-3.29277e-01,1.59774e+00,6.61605e-01,-3.05698e-01,-4.86898e-01,2.47490e+00,4.42204e-01,6.28924e-01,-4.14116e-01,-2.73798e-01,1.86599e+00,2.99492e-01,
-8.23141e-01,6.19137e-01,1.56832e+00,-3.79392e-01,7.18842e-02,1.43717e+00,-7.92092e-01,3.39504e-01,-1.46198e+00,-8.43206e-01,-6.33457e-02,-1.75950e+00,6.32726e-01,-1.35636e+00,-5.65907e-01,1.92485e+00,1.58780e+00,
9.29103e-01,-2.86190e-01,5.39552e-01,-1.56756e+00,4.34717e-01,7.93697e-01,-1.26390e+00,5.89324e-01,1.43764e+00,-2.69190e-01,4.61373e+00,-1.22444e+00,4.70450e-01,5.82184e-01,-5.84361e-02,1.73608e+00,-7.07667e-01,
-8.58355e-01,-5.53418e-01,2.07938e-01,1.74142e+00,1.58556e+00,1.05202e+00,-9.92462e-01,-7.15790e-01,-5.09336e-01,-1.87112e+00,-3.38410e+00,1.34918e+00,-1.47409e-01,-3.54347e-01,-2.96885e+00,2.32021e+00,-2.36554e+00,
1.03174e+00,1.00658e+00,2.87810e-01,9.29490e-01,5.15380e-01,1.82052e+00,-7.37405e-01,-3.78068e-02,7.47579e-02,-2.87095e+00,2.10272e+00,5.84206e-01,1.28032e+00,-5.72060e-01,-2.08852e+00,3.11025e-01,-1.73989e-01,
-1.09056e+00,1.89574e+00,1.18023e-01,-3.20096e-01,3.40669e-02,1.55779e+00,-7.23114e-02,-2.10359e+00,8.34174e-01,-1.53499e+00,2.25537e+00,7.58021e-01,-2.32692e+00,-7.89106e-01,9.99510e-01,1.83090e+00,-3.13218e+00,
-6.25231e-01,1.46117e+00,1.27741e+00,-2.37234e-01,-9.92521e-01,1.05922e+00,-1.43640e+00,9.12397e-02,-7.99593e-01,6.99625e-02,2.57425e+00,-3.83808e-01,-1.29005e+00,-8.70695e-01,9.18973e-01,1.78101e+00,2.23722e-02,
1.24198e+00,8.30201e-01,6.68882e-02,-8.45111e-01,4.40450e-01,-1.14691e+00,-8.28644e-01,3.72249e-01,1.57121e+00,-4.45659e-01,-3.35146e+00,-1.27181e+00,2.60714e-01,1.05501e+00,9.24151e-01,-1.69319e+00,-5.97218e-01,
-3.07441e+00,
-2.75058e+00,
-2.53363e+00,
-2.78227e-01,
-3.60382e+00,
3.20237e-01,
-6.86185e+00,
3.46583e+00,
1.17136e+00,
-7.04419e+00,
-4.65002e+00,
3.06787e-02,-7.15407e-01,-5.21758e-01,6.20261e-01,2.33179e-01,1.53758e-01,3.17016e-01,-8.78148e-01,-1.73077e-01,-1.44259e+00,2.59308e-01,
-8.50407e-01,-1.10174e-01,-4.86188e-01,-1.23231e+00,4.89761e-01,8.28482e-02,2.52007e-01,-9.64741e-01,5.10931e-01,4.82970e-01,-8.49333e-01,
2.43705e-01,-1.80033e-01,-6.29258e-01,5.88209e-01,-5.70203e-01,-8.05653e-01,-5.76458e-01,2.54725e-01,-3.18212e-01,-2.00985e-02,4.81564e-01,
-6.72393e-03,-8.47068e-01,2.88980e-01,1.21532e-01,-5.99793e-01,-1.27669e-01,-1.49973e+00,-4.60332e-01,-3.41594e-01,-2.94001e-01,-1.15653e-01,
4.24478e-01,-5.39404e-01,-1.72132e-01,-1.81256e-01,3.24198e-01,-1.45151e-01,9.91079e-01,-7.61932e-01,-1.07427e+00,-2.78604e-01,2.84663e-01,
-7.90979e-01,
1.21041e-01,
-2.54524e-01,
1.00963e-01,
3.69568e-02,
