// Neural Network File Format by Kyle Julian, Stanford 2016
4,25,5,25,
25,23,18,11,5,
0,
-2.1867712143103217,-2.9769169535210525,-3.024643507072549,-8.251729475378209,-3.982469179712961,-3.3911720193636263,-3.1183562839423224,-4.933269487401425,-4.532418683413161,-2.821657648176209,-2.416220959483641,-2.1475802432764777,-39.19981977547291,-4.665382982410006,-85.67042728615853,-2.165030215782201,-7.151473821981976,-1.2130556252024791,-1.1861348784467083,-8.226898916297863,-1.0077224117296293,-6.667840661651383,-9.480599036432654,-6.744028750282499,-6.7933176255974255,
10.284856229659841,4.0522155362308885,3.3935548395652795,8.440304124695162,5.278238546541492,1.4900711076117394,1.5202117194933122,5.96226477268009,4.940778830614732,3.971705845149037,3.7844945201718536,1.8727318477562702,11.366421343940777,7.541106269378092,16.384033958601442,48.93813996448708,2.3566306287376015,11.671510682009526,7.928061670019602,13.475611988225342,27.235837856173625,9.614855790129653,1.1489066613560381,22.220446765231223,12.111604694157437,
0,0,0,0,0,0,0,0,0,0,0,0,0,0,0,0,0,0,0,0,0,0,0,0,0,0,
1,1,1,1,1,1,1,1,1,1,1,1,1,1,1,1,1,1,1,1,1,1,1,1,1,1,
-2.46721e-01,-1.29351e+00,9.94345e-01,4.52296e-02,-2.48679e-01,6.71182e-02,1.51386e-01,1.26184e-02,-3.06074e-01,6.91963e-02,1.09190e-01,-2.48989e-01,-4.30405e-01,4.45193e-01,-3.06434e-01,-3.47511e-01,-1.65416e+00,1.16562e+00,-5.69987e-01,1.85439e+00,1.23084e+00,-1.37436e+00,1.26339e+00,8.88278e-01,7.36823e-01,
5.91774e-02,1.47896e+00,-2.92631e-01,-5.13823e-02,-1.43429e-01,-5.63862e-02,6.88725e-01,-5.22488e-02,3.70746e-01,1.89655e-02,-6.96938e-02,-8.68643e-01,8.26795e-02,1.62922e+00,-2.07278e-01,5.11845e-02,5.71549e-02,4.15947e-01,-1.31004e+00,6.58801e+00,-1.08418e-01,-5.91072e-01,3.94438e+00,-7.08291e-01,2.05797e+00,
2.59204e-02,-3.94449e+00,-1.45248e+00,-1.48778e-02,1.54970e-01,1.29019e-02,-1.45313e-01,-6.69945e-02,3.99878e-01,-1.97690e-01,1.45276e-01,-3.03773e-01,-9.75583e-02,5.58076e-01,4.26045e-01,2.67935e-02,1.92929e+00,-7.66393e-01,-4.34458e-01,1.78368e-01,1.83653e-01,-6.72685e-01,-8.11912e-01,-4.69162e-01,-2.17749e-01,
-4.71583e-02,1.48742e+00,-8.47931e-01,-3.85825e-02,5.61966e-02,2.57141e-01,-7.70280e-01,1.16412e-01,-1.39444e+00,3.10740e-02,3.03898e-01,-1.43622e+00,4.48187e-01,2.64037e+00,3.79296e-01,3.51789e-03,5.57896e-01,-1.13172e+00,1.76707e+00,3.63792e+00,1.10240e+00,3.75408e-01,-6.02849e-01,1.00016e+00,1.14899e+00,
-1.47957e-01,-2.12478e+00,1.64690e+00,8.16714e-02,-1.02767e-01,1.08908e-01,8.40848e-01,4.10554e-02,8.16229e-01,-2.41976e-02,2.01059e-01,4.48720e-02,3.35706e-02,-8.04775e-02,8.05369e-02,1.57135e-02,-5.93480e-01,-8.49915e-02,-3.59072e-01,5.04141e+00,-5.66909e-02,6.53446e-01,3.84579e+00,6.77117e-01,2.18948e+00,
3.44274e-01,-1.18533e+00,-2.54742e-01,-1.99780e-03,-3.27318e-01,4.57203e-03,2.79467e-01,-5.92542e-02,5.84431e-02,7.53542e-03,-7.27925e-02,-5.20471e-01,1.91336e-01,1.02963e+00,-3.54369e-01,2.38106e-02,1.23715e+00,1.00394e+00,-9.19131e-01,-3.22594e+00,-2.34185e-01,4.99212e-01,1.78383e+00,4.07416e-01,-1.82097e+00,
1.72101e-03,-2.34288e+00,-2.96944e+00,2.45058e-01,7.30856e-01,-2.34824e-01,-1.31437e+00,-1.90730e-01,1.91256e-01,-6.69618e-01,-1.16225e+00,-1.25068e-01,-4.29775e-02,1.24112e-01,-1.62124e-02,1.27803e-01,9.71239e-02,-1.69472e+00,1.69252e+00,8.76434e-02,-1.29574e-01,1.70203e-01,-1.32889e-02,2.51885e-01,-9.47202e-02,
9.40707e-01,5.70671e-01,-1.71501e-01,3.53031e-01,-1.70177e+00,4.40936e-01,1.07177e+00,6.78610e-01,1.30782e+00,-5.85783e-01,2.15355e-01,-3.65367e-02,8.55811e-02,1.49331e-01,3.82270e-02,2.50775e-01,9.53603e-01,3.23927e-02,5.80027e-01,-1.23142e+00,-3.99453e-01,-7.84526e-01,7.98377e-01,-7.31624e-01,1.83003e-01,
3.17295e-02,-5.86108e+00,3.40011e+00,-9.11732e-02,-2.93012e-01,1.87433e-01,3.87917e-01,1.62670e-01,-3.23366e-01,4.82477e-02,-4.71940e-01,-1.83192e-01,7.90172e-02,3.10653e-01,-1.30332e-01,8.77980e-02,-9.38230e-02,-1.14352e-01,3.66160e-01,1.93611e+00,8.19382e-03,2.10589e-01,-9.91886e-01,3.30010e-01,9.48198e-02,
-3.15457e-01,-8.77867e-01,8.73850e-01,-1.51186e-01,4.45369e-01,1.47290e-01,-1.71478e+00,5.11851e-02,-2.26927e+00,3.77549e-01,3.14479e-02,2.54770e-01,-2.57701e-03,-5.45253e-01,-5.53583e-01,-3.91652e-01,-1.08806e+00,7.35681e-01,-7.46276e-01,4.57948e-01,-2.79866e-01,2.94866e-01,-7.08141e-01,5.27520e-01,-2.55658e-01,
8.66076e-02,-1.32970e+00,2.37225e+00,1.46677e-01,-6.15107e-01,6.01810e-01,1.14058e+00,5.56630e-01,4.92957e-01,-1.81687e-01,-3.57336e-02,-6.75594e-01,1.04364e-01,1.31448e+00,-1.14125e-01,2.79020e-01,3.77430e-01,-1.51427e+00,-7.34642e-02,3.52509e-01,7.35968e-01,2.07376e-01,1.96529e-02,-5.57496e-01,-8.89545e-01,
8.29817e-02,-4.51370e-01,-4.79097e+00,2.52422e-02,-7.08263e-02,1.66019e-02,-3.61874e-01,-1.67346e-02,-7.49093e-01,1.21800e-01,-5.82388e-02,-4.71915e-01,1.65730e-01,8.39978e-01,-7.26895e-01,-3.37094e-02,-3.94208e-01,6.58515e-03,-1.75179e+00,-2.94362e-01,-6.16495e-01,-1.66478e-01,1.75729e+00,-5.80710e-02,7.85540e-02,
6.25282e-01,-3.15086e+00,2.99652e+00,-1.23444e-01,-3.39184e-01,-2.30323e-01,-4.71222e-01,-1.27293e-01,3.03346e-01,9.34408e-04,7.12027e-02,9.41357e-01,1.30570e-01,-1.85107e+00,3.33422e-01,9.16418e-02,1.07090e+00,1.56594e+00,-2.50084e+00,-1.94536e+00,-1.12621e+00,-1.67450e-01,-1.10034e-01,-8.33671e-01,1.15714e+00,
9.67600e-02,-1.02163e+00,1.61186e+00,-3.33376e-02,2.69138e-01,-2.48127e-01,-8.23982e-02,-2.34383e-01,6.31277e-02,-1.21614e-01,1.95813e-03,6.06189e-01,1.98006e-02,-1.02931e+00,-4.40272e-01,-1.29872e-01,7.03493e+00,2.03015e-01,8.50910e-01,1.71075e-01,6.02410e-02,3.61396e-01,-6.08040e-03,1.29569e-01,7.64423e-01,
-5.36888e-02,1.58120e+00,5.58624e+00,3.84059e-03,-4.84866e-02,3.16338e-01,4.03548e-01,1.19061e-01,-1.22439e-01,-1.38959e-01,4.36725e-02,-6.81576e-01,-3.89344e-02,1.33544e+00,-1.79035e-01,3.47343e-02,-2.08656e-01,-1.81145e+00,-2.67428e-01,-1.73913e+00,7.67910e-02,3.41701e-02,-1.03713e-01,-1.38321e-02,2.54484e-01,
1.16209e-02,8.68069e-01,4.10753e+00,6.13124e-02,-1.69764e-02,2.20245e-01,-3.50069e-01,1.96661e-01,-3.03152e-01,-1.26505e-01,-7.18232e-02,-2.67184e-01,-1.95962e-01,4.81988e-01,5.25553e-03,-5.93531e-02,-4.06763e-01,1.27559e+00,1.11996e+00,4.03017e-01,1.14425e-01,-6.00263e-01,3.49239e-01,-4.60128e-01,1.02705e+00,
5.34237e-03,4.45606e+00,-2.75319e+00,-2.62252e-01,4.82709e-01,4.21938e-01,2.03157e-01,4.18283e-01,6.66657e-02,4.62957e-01,-7.74798e-01,2.50289e-01,-1.87966e-02,-5.29601e-01,-3.44495e-01,2.53669e-01,1.49550e-01,5.27395e-01,5.72781e-01,1.74792e+00,-2.71547e-01,4.38215e-02,-1.22865e+00,5.86538e-01,4.91876e-02,
1.28845e-02,-2.32049e+00,-1.83578e+00,1.73516e-01,-3.53146e-01,-4.81535e-03,4.14219e-01,-6.02821e-02,4.59446e-01,2.49722e-03,-3.51121e-02,-2.40453e-01,-5.79252e-02,5.94683e-01,-1.20556e+00,-3.50192e-02,-2.89095e-01,3.85917e-01,-2.53370e+00,2.53024e-01,1.38450e+00,7.17821e-01,2.69433e+00,-6.97469e-01,1.15135e+00,
-3.48123e-02,3.17752e+00,-3.91107e+00,1.18809e-01,-5.05916e-02,-9.06705e-02,2.07041e-01,-5.22511e-02,4.65922e-01,-3.45897e-02,-4.47255e-02,-3.69035e-01,6.66976e-02,7.38390e-01,-1.46046e-01,1.30348e-01,-1.33420e-01,-5.08318e-01,4.96735e-01,-3.10087e+00,2.20579e-01,-6.59174e-01,3.42307e-01,-6.09977e-01,2.06347e-01,
1.25547e-01,4.67100e+00,-3.19237e+00,-4.25594e-02,-8.45288e-02,-8.47145e-02,8.66612e-01,-1.07466e-01,1.33579e-01,-7.62285e-02,9.94688e-03,-9.73180e-01,1.37313e-01,1.83545e+00,2.61710e-01,-1.92665e-02,1.07182e+00,2.62186e-02,-5.40968e-01,1.78668e+00,-2.47542e-01,-2.53550e-01,-3.15786e-02,-7.47259e-01,1.32365e+00,
1.07619e-01,-3.15279e+00,2.68285e+00,1.62901e-02,-7.82055e-02,-3.78504e-01,1.80183e+00,-4.42250e-01,6.26638e-01,-3.23175e-02,-3.48134e-02,-6.09005e-01,-3.78578e-01,1.17100e+00,2.68355e-01,-7.67663e-02,-2.65240e-01,2.13207e-01,-1.90826e+00,-4.97888e-01,-7.11901e-01,-1.04894e+00,-7.25836e-01,-3.00714e-01,-2.51790e-01,
-1.83395e-01,-6.39141e-01,9.09177e-01,9.29270e-02,-1.82838e-01,-2.85884e-01,-2.59122e-01,-2.44347e-01,-2.08171e-01,-3.14713e-02,-3.49456e-02,-1.09289e+00,-1.60742e-01,2.17580e+00,5.13786e-02,-1.00032e-01,-1.91389e+00,4.77751e-01,-2.23844e+00,-1.87037e-01,-1.70497e-01,6.74932e-01,-5.90989e-01,8.97634e-01,4.71938e-01,
-1.03388e-01,-7.17698e-01,-7.70921e-01,-3.79894e-01,3.12717e-01,2.05564e+00,1.92302e+00,-4.16357e-01,5.71394e-01,7.78007e-01,-4.44401e-01,2.00633e-01,-1.34343e-01,-3.77034e-01,1.08659e-01,-1.03212e-01,4.20973e-01,-1.23672e-01,-1.20342e-01,4.25324e-01,-7.62064e-01,-1.70497e-01,-1.11016e-01,3.09512e-01,2.76297e-01,
-1.41466e+00,
-1.48583e+00,
-5.02352e-01,
-5.48530e-01,
-3.28456e+00,
1.45619e+00,
-6.21523e+00,
9.50172e-02,
-1.86805e+00,
4.70177e-02,
1.03352e+00,
-5.37161e-01,
-3.21741e-01,
-3.00299e+00,
-5.56740e-01,
-5.06888e+00,
-2.46615e-01,
-7.60268e-01,
-2.51472e-01,
2.03149e-01,
2.70107e-01,
-3.53518e-01,
-1.23597e+00,
1.40077e+00,9.62458e-01,9.64422e-01,-1.81716e+00,1.46345e+00,-2.33343e-01,1.23236e+00,3.13238e-01,-3.34189e+00,-1.85053e+00,-1.49856e+00,1.57946e-01,3.36238e-01,-1.53487e+00,1.36336e+00,9.52424e-01,-1.54255e-01,4.85219e-01,3.12498e-01,-1.77076e+00,-9.40398e-01,-7.52913e-01,3.63031e-01,
-4.17157e-01,-8.07338e-01,1.28596e+00,-2.98088e-01,8.70009e-01,-1.52024e-01,2.85407e+00,-2.93554e-02,2.84739e-02,3.12077e-01,-3.88800e-01,1.26115e+00,-2.02916e-01,-1.46599e-01,4.73694e-01,5.57377e-01,5.73865e-01,1.00681e-01,-7.24588e-01,-1.14137e-01,7.36406e-01,4.06829e-01,-6.64438e-01,
-3.98687e-01,1.66981e+00,2.67199e-01,2.76599e-02,-1.04988e+00,-2.24445e+00,-4.36684e-01,8.76754e-01,-1.40103e+00,1.47597e-01,3.29479e-01,-9.20372e-01,-5.34267e-01,8.58705e-01,1.94817e-01,-4.84267e+00,1.33620e+00,-1.88133e-01,-2.21766e+00,3.82126e-01,-4.08938e-01,4.72777e-01,-1.17267e-01,
2.15886e-01,-1.25853e+00,5.60044e-02,1.51831e-01,-1.15599e+00,1.18086e+00,7.80171e-01,-9.02381e-01,-1.63518e-01,3.09749e-01,1.37300e+00,-7.10498e-01,9.51963e-01,9.05076e-01,-4.07975e-01,-5.84278e-01,-6.80493e-02,4.65257e-01,-1.86194e+00,1.09781e+00,3.12147e-01,1.18984e+00,-1.80162e-01,
-4.24057e-01,1.19281e+00,5.68570e-01,5.30998e-01,-6.26168e-01,-1.33189e+00,2.84962e-01,9.66410e-01,4.24192e-02,-3.64424e-01,-1.77506e-01,1.11830e+00,-8.34620e-01,1.75008e+00,1.15318e+00,-2.16398e+00,3.68949e-01,-2.12910e-01,-1.56926e+00,9.28739e-01,-6.83654e-01,1.10931e+00,-1.45900e-01,
-1.10558e+00,1.92069e+00,1.19098e-01,5.88004e-01,4.90806e-01,2.44972e-01,-4.16035e-01,6.25298e-01,1.10007e+00,-9.66252e-02,-3.17141e-01,-9.91827e-02,-1.39404e+00,9.14801e-01,-9.94978e-01,1.93954e-01,-7.85633e-01,-1.20314e-01,7.86118e-02,-1.72295e-01,-4.33431e-01,5.84865e-01,3.33237e-01,
-7.37001e-01,-4.46975e+00,1.01805e-01,-5.88547e-01,-1.96018e+00,-6.76997e-01,-8.41415e+00,-1.50774e-02,2.47812e-01,-2.63519e-01,7.48362e-01,7.35177e-01,-5.22377e-02,7.43814e-01,1.21857e+00,7.07127e-01,2.07206e-01,6.06645e-02,-1.03218e+00,-5.23409e-01,9.01685e-01,3.93426e-01,4.21538e-01,
-2.74926e-01,2.28353e-01,1.08629e-01,-2.15115e+00,-9.43761e-02,-1.42645e-01,-2.75259e-01,2.27010e-01,-6.61576e-01,-8.09028e-01,8.19682e-01,5.01699e-01,-4.71078e-01,-2.68099e-01,-5.02161e-01,1.54824e+00,3.10717e-01,-3.18844e+00,-3.13120e-01,-9.60132e-01,4.42869e-01,-1.58080e+00,1.31774e-01,
3.52489e-01,7.92154e-01,-6.75907e-01,4.33677e-01,-1.57655e-01,-1.21644e-01,1.80850e+00,-6.21299e-01,2.72117e+00,1.71309e-01,-9.34095e-03,-1.90577e+00,1.34388e-02,1.42104e+00,7.01893e-02,3.69353e-02,-3.17885e+00,-7.34219e-01,1.35128e+00,-6.70235e-01,1.65346e-01,6.36466e-01,9.90709e-01,
7.41206e-01,-2.16071e-02,-6.50962e-01,-2.42233e-01,6.10589e-01,4.91544e-01,-5.32205e+00,5.13696e-01,1.55280e+00,-3.77761e-01,1.99260e-01,6.61090e-01,-5.75469e-01,-1.75508e-01,7.62730e-01,-9.86972e-01,-1.28677e+00,-2.59375e-01,9.94188e-01,1.15465e+00,-9.03103e-01,-4.27234e-01,1.16290e+00,
-1.81413e-01,-1.98086e+00,1.22956e-01,-5.58143e-01,-9.42203e-01,-1.34127e-01,-1.98171e+00,1.49039e-01,6.83608e-02,-2.51439e-01,2.17022e-01,7.16260e-01,-1.31791e-01,-4.68520e-01,2.30000e+00,9.71571e-01,4.08473e-01,2.88103e-02,-2.20759e+00,-1.16443e+00,7.11087e-01,3.37809e-01,-2.57359e-01,
6.71060e-01,7.23001e-01,-6.57286e-01,3.38613e-01,2.81198e+00,1.28025e+00,4.35957e-01,1.29349e-01,4.25092e-01,-7.63683e-01,-8.37898e-01,-1.59691e-01,4.05090e-01,1.00760e-01,1.54906e+00,-4.09930e-01,-8.40703e-01,1.00063e+00,-1.73769e+00,-1.11117e+00,-3.07852e-01,-1.31193e+00,6.24596e-01,
-1.60972e-01,5.98134e-01,1.48639e-01,-1.16771e-01,4.39351e-01,3.48517e-01,9.96577e-01,-2.44305e-01,1.72022e+00,5.31286e-01,-5.06936e-01,-7.34475e-01,-1.63199e+00,2.33936e-01,1.91400e-01,-6.89765e+00,1.95066e-02,1.70255e-01,1.97183e+00,7.98786e-01,4.96447e-01,2.51285e-01,-1.44031e+00,
6.27930e-02,-5.93267e-01,4.51500e-01,-6.98082e-01,2.24877e-02,-2.58285e+00,8.40481e-01,4.12032e-01,6.19003e-02,-3.29385e-01,2.91224e-01,1.24044e-01,-1.58259e-02,-1.41316e-01,4.21346e-01,9.83480e-01,1.06330e+00,-1.25207e-01,-1.89435e+00,1.98096e+00,1.72755e-01,-3.34349e-01,-1.32910e-01,
6.01751e-01,-2.74503e+00,6.58325e-01,-3.42975e+00,-5.88512e+00,-3.02355e-01,2.46893e+00,4.82752e-02,-2.06511e+00,-3.44978e+00,-1.91630e-01,-2.03177e-01,1.36783e+00,-4.10198e-01,1.72291e+00,7.75970e-01,7.12043e-01,8.28090e-01,-1.29867e+00,-2.95255e+00,-2.04077e+00,1.58535e+00,-6.48357e-01,
7.64014e-01,-8.86419e-01,7.69540e-01,-8.47944e-01,-7.61724e-01,1.56572e-01,-1.01143e+01,1.12778e+00,9.83727e-02,6.66925e-01,-1.01972e+00,-5.42195e-01,-3.65357e+00,-4.33375e-01,5.48108e-01,-4.00286e-01,7.86971e-01,5.40719e-01,-1.08779e+00,2.22177e+00,-5.21892e-01,-3.11144e+00,1.86528e-01,
1.28930e+00,1.18655e+00,-1.56567e+00,-6.03520e-01,1.83176e+00,-2.74854e-01,-5.94337e-01,6.63540e-01,2.84680e+00,1.25984e-01,-1.27481e+00,-1.05752e-01,-2.53079e-01,-1.70267e+00,1.21123e+00,1.24415e+00,-4.00273e-01,-6.12059e-01,8.11597e-01,-4.16775e-01,-2.19480e+00,-5.93264e-01,-2.66166e-01,
1.06626e-01,-1.65181e-01,-2.59803e+00,-6.02876e-01,-4.68129e-01,4.36749e-01,-2.34599e+00,7.33598e-02,1.86719e+00,-2.80577e-02,1.27805e+00,-1.32638e+00,-1.12573e+00,1.43385e+00,-3.09623e-01,-7.35755e+00,-2.09074e-01,-1.99106e+00,7.89776e-01,7.90973e-01,-2.78479e-01,7.12688e-01,-2.09113e-01,
-1.18875e+00,
-2.04811e-02,
1.09591e+00,
-3.33491e-01,
-2.49944e-01,
2.85895e-01,
3.01266e+00,
4.32716e+00,
-1.64878e-01,
-1.92682e-01,
2.90622e+00,
-1.41809e+00,
-1.19832e+00,
2.74423e+00,
-1.96446e-01,
7.74990e-01,
-4.40124e+00,
1.60997e+00,
8.23484e-01,2.18815e-01,-1.57133e+00,-5.77743e-01,-8.25983e-01,1.09039e+00,2.77302e+00,-2.44561e-01,3.49264e-02,1.14347e+00,-2.94640e-01,1.83539e-01,4.91856e-01,5.16398e-01,-2.11019e+00,7.26715e-01,-4.09773e-01,-1.55133e-01,
2.88791e-01,-2.93914e-01,-7.54544e-01,-8.43817e-01,7.84920e-01,1.21881e+00,-1.05109e+00,4.16484e-01,8.90744e-02,5.91999e-01,1.68597e+00,2.38079e-02,-4.90684e-01,-6.47287e-01,6.33846e-01,1.47328e+00,-1.50507e+00,8.91399e-01,
1.23158e-01,-4.24506e-02,4.10832e-01,-1.59305e-01,-5.98966e-02,4.07583e-01,1.11091e+00,1.10179e-01,3.63936e-01,8.88840e-01,2.51008e-01,-1.15733e-01,3.81376e-01,-5.96867e-01,-1.42315e+00,1.10157e+00,-3.51631e+00,-5.03486e-01,
-9.39158e-01,9.83985e-01,2.60657e-01,4.00576e-01,-9.82340e-01,2.08868e+00,1.28963e+00,-1.88306e-01,9.87342e-01,-1.09682e-01,-7.35590e-01,-5.58536e-03,-6.63121e-01,-4.17794e-01,-3.78809e-01,6.29643e-01,-3.56468e-01,3.65653e-01,
9.44259e-01,4.11358e-01,1.22124e+00,-9.82507e-01,2.33847e-01,1.01340e+00,-3.66302e+00,-1.40569e+00,5.21445e-01,9.32590e-01,-1.10832e+00,2.98668e-01,5.79387e-01,3.26835e-02,-1.51528e+00,-4.95659e-01,5.10781e-01,-1.46302e-01,
1.80355e+00,7.27727e-01,7.98833e-01,3.99388e-01,-6.02360e-01,-4.31464e-01,1.81909e+00,-1.52758e+00,1.41907e+00,6.57480e-01,3.84557e-01,-2.84714e+00,6.36550e-02,-4.90497e-01,-8.95069e-01,4.57034e-01,-1.58976e+00,-7.82329e-01,
-2.59793e-01,1.31713e+00,-4.90609e-01,6.22149e-02,1.32183e+00,-2.84874e-01,5.72067e-01,-1.30753e+00,1.60202e+00,-9.76470e-01,8.28268e-01,1.68360e-01,-2.35948e+00,-8.70935e-01,2.53717e-01,4.10632e-02,5.79353e-01,2.54171e-01,
-9.80502e-01,5.14528e-01,1.65054e+00,-7.51151e-01,-9.74703e-01,-1.25158e+00,1.69007e-01,-5.75582e-02,3.28882e-01,1.06307e+00,-1.39788e-01,4.45353e-01,1.92960e-01,-2.53318e+00,6.83789e-01,2.11764e+00,-1.68621e+00,1.41309e+00,
1.22893e+00,1.16551e-04,2.35809e-01,-1.28679e+00,8.25029e-01,2.90583e-01,3.86321e+00,-6.64841e-01,5.84998e-01,7.89029e-01,-2.20460e+00,1.77890e-01,4.51729e-01,-6.53661e-02,-8.59088e-01,-1.33383e+00,-9.21127e-01,1.03601e-01,
-5.40309e-01,2.04326e-01,8.00748e-01,-4.89113e-01,3.64288e-01,1.89533e+00,1.08364e+00,-4.93260e-01,1.06148e+00,3.58548e-01,-5.25784e-01,4.76241e-01,-6.28337e-01,-1.99726e-01,3.16500e-01,-3.60130e-01,8.15457e-01,-2.95046e-01,
3.58458e-01,-4.98762e-01,-6.23301e-01,-4.58636e-01,1.67375e+00,-1.05786e+00,8.99362e-01,-2.10242e+00,-1.37626e-01,5.64378e-01,7.00773e-01,-6.76574e-01,-2.35380e-02,3.26561e-01,7.62925e-01,7.39233e-02,1.81299e-01,-1.55315e+00,
1.52547e+00,
1.00584e+00,
-6.37751e+00,
-6.59284e-01,
-1.01844e+00,
-9.92409e-01,
-3.94127e+00,
4.15222e+00,
-3.72657e+00,
-1.89511e-01,
9.78721e-01,
-1.58678e-01,-6.33545e-01,4.39933e-01,4.06310e-01,-1.70007e-01,-9.32706e-02,-1.22401e+00,8.73956e-01,2.12582e-01,3.42626e-01,1.01801e+00,
-1.17145e+00,6.26179e-01,9.49754e-01,2.87795e-01,-1.11860e+00,-7.59096e-01,5.76319e-01,-1.46150e+00,1.10668e+00,2.74942e-01,-1.17395e+00,
-1.12581e-01,4.12287e-01,-1.64972e+00,3.76850e-01,1.45719e+00,-2.99767e-02,-7.84057e-02,5.69900e-01,-1.45372e+00,-8.44124e-01,1.05076e-01,
5.45285e-01,1.15693e-01,1.72005e-02,-7.94726e-01,-2.14145e-01,1.29920e-01,2.08371e-01,1.11596e-01,-2.21117e-01,8.01781e-01,-7.30215e-01,
4.58857e-01,-7.47142e-01,1.65792e+00,1.08839e-01,1.12878e-01,-9.78515e-01,6.29399e-02,-1.08950e+00,6.50688e-01,4.89524e-02,4.03623e-01,
-1.54222e+00,
1.25364e+00,
-2.22107e+00,
-1.11994e-01,
2.83329e+00,
