// Neural Network File Format by Kyle Julian, Stanford 2016
4,25,5,25,
25,23,18,11,5,
0,
-2.1867712143103226,-2.976916953521056,-3.024643507072549,-8.25172947537821,-3.98246917971296,-3.3911720193636263,-3.1183562839423216,-4.933269487401423,-4.53241868341316,-2.8216576481762092,-2.416220959483641,-2.1475802432764772,-39.19981977547291,-4.665382982410007,-85.67042728615854,-2.165030215782201,-7.1514738219819804,-1.2130556252024791,-1.1861348784467083,-8.226898916297863,-1.0077224117296293,-6.667840661651378,-9.480599036432652,-6.744028750282499,-6.793317625597428,
10.284856229659843,4.052215536230889,3.3935548395652795,8.440304124695155,5.278238546541495,1.4900711076117363,1.5202117194933125,5.962264772680088,4.940778830614732,3.9717058451490375,3.784494520171853,1.87273184775627,11.366421343940777,7.541106269378094,16.384033958601442,48.938139964487064,2.3566306287376015,11.671510682009528,7.928061670019603,13.475611988225342,27.235837856173617,9.614855790129658,1.1489066613560381,22.220446765231223,12.111604694157442,
0,0,0,0,0,0,0,0,0,0,0,0,0,0,0,0,0,0,0,0,0,0,0,0,0,0,
1,1,1,1,1,1,1,1,1,1,1,1,1,1,1,1,1,1,1,1,1,1,1,1,1,1,
-1.37328e-01,-2.07529e+00,4.93784e-01,2.73275e-02,3.57144e-01,5.59727e-01,1.12188e+00,4.89177e-02,-2.88115e-01,5.09147e-01,1.23284e-01,-4.80883e-01,9.59863e-02,9.81663e-01,-1.61012e-01,-4.16400e-01,1.25977e-01,-1.93315e+00,7.56519e-03,1.17709e+00,-7.64727e-01,-5.50703e-01,1.90875e-01,-5.43079e-02,-2.27341e+00,
2.75545e-02,5.35151e+00,-7.00146e+00,-6.24307e-02,1.64443e-01,3.45007e-01,2.25252e-01,2.85295e-01,2.98573e-01,5.44549e-02,-7.20265e-02,1.30557e-01,-4.62104e-02,-2.48799e-01,-2.44995e-01,1.73682e-02,2.83513e-01,1.41466e+00,-3.98699e-01,-3.58333e-01,-1.32779e+00,5.88579e-02,-1.25261e+00,-2.59262e-01,-1.99127e-01,
7.07175e-02,2.71930e+00,-1.19883e+00,2.97716e-01,-5.54122e-02,-8.14149e-01,1.62252e+00,-4.32210e-01,3.09355e+00,-4.04090e-01,2.24928e-01,1.58798e-01,-1.13728e-01,-3.36262e-01,-3.85118e-02,1.84311e-01,-4.57615e-01,5.58951e-01,5.18794e-01,5.03161e-02,1.52410e+00,9.72438e-01,1.96542e+00,1.00363e+00,-7.55352e-01,
2.20897e-02,1.76368e+00,4.23266e+00,-1.06670e-01,1.62042e-01,1.31284e-01,-2.24299e-01,-2.99050e-03,-5.09301e-01,1.83238e-01,-4.81003e-03,-1.28604e+00,-6.92044e-01,2.33582e+00,6.95395e-01,-7.15965e-02,-6.53493e-01,1.69424e-01,2.43005e+00,-2.59828e-01,1.89491e-01,1.03040e-01,1.10901e+00,4.12372e-01,9.26515e-01,
-1.49358e-01,2.39772e+00,-2.05908e+00,-2.12165e-02,-4.32404e-01,6.81712e-01,5.55241e-01,3.76823e-01,-1.05989e+00,-5.89336e-02,2.10914e-01,3.47006e-01,-5.11604e-02,-5.12962e-01,6.29947e-01,-2.80215e-01,8.14711e-01,-4.10359e-01,1.13678e+00,6.81185e-01,3.36894e-01,-6.95600e-02,3.63664e+00,-1.07844e+00,7.17482e-01,
-2.35649e-01,-1.40724e+00,-1.05638e+00,1.25914e-01,-3.04505e-01,-2.01013e-01,2.60822e-02,-1.94742e-01,1.02046e-01,-1.30942e-01,1.16506e-01,7.15435e-01,8.02065e-01,-1.34365e+00,-4.63468e-01,-1.30859e-02,-1.31515e-01,4.31813e-02,-3.47345e-01,7.82744e+00,-2.26799e-01,-7.34078e-01,3.95689e+00,-2.43089e-01,7.57238e-01,
1.57948e-01,-1.29715e-01,-1.41487e+00,-1.47353e-01,-3.39502e-01,2.09954e-01,-7.50199e-02,2.50243e-01,-1.21175e-01,-2.96033e-01,1.13230e-01,-6.29913e-01,-4.25906e-01,1.14959e+00,2.42601e-01,4.50405e-02,2.35264e+00,-1.48983e+00,1.97783e+00,-8.32881e-02,3.05291e-01,-4.44907e-01,-1.86512e+00,1.74241e+00,8.24147e-01,
5.35932e-02,5.72623e+00,-5.19050e+00,-1.05009e-01,-1.69161e-01,-3.85065e-01,-1.21111e-01,-2.32754e-01,2.47244e-01,-8.45913e-02,-1.34866e-01,-5.76194e-01,-4.18587e-01,1.15189e+00,-3.00167e-01,-1.48452e-01,-8.08863e-01,-1.04791e+00,8.63007e-01,-1.24611e+00,-2.83742e-01,-1.89160e+00,-1.35864e+00,-7.93369e-01,-6.35409e-01,
-1.69070e-02,-1.90167e+00,7.09573e-03,2.50336e-01,-3.37841e-01,6.49284e-01,6.26367e-02,2.67724e-01,-1.31863e+00,-4.21285e-02,2.74420e-01,-2.29686e-01,3.00213e-01,5.92397e-01,1.19221e+00,-2.76584e-01,-1.72958e+00,-1.17031e+00,-6.76986e-01,1.62225e-01,-3.99009e-01,8.31930e-01,-1.84778e+00,5.40731e-01,3.37367e-01,
4.90764e-02,6.05006e+00,-2.79108e+00,2.46670e-01,-4.12489e-01,1.21782e+00,-5.79397e-01,9.98027e-01,-7.69713e-01,-1.10756e-01,1.28916e-02,4.43404e-01,1.59477e+00,-8.62182e-01,-7.79474e-01,1.40028e-01,3.10588e-02,-1.30638e+00,-6.29809e-01,3.66933e-02,-2.99341e-02,-7.18668e-01,1.80917e+00,-6.22732e-01,-1.76027e+00,
8.57741e-02,1.62095e-01,6.65032e-01,-8.88588e-01,8.77734e-01,3.72011e-01,8.28762e-01,5.86782e-01,8.65296e-01,1.74553e-01,-4.14650e-01,1.57780e-01,-2.21191e-02,-1.35608e-01,-1.36138e+00,1.51225e-02,2.98806e+00,4.03406e-01,-3.79213e+00,3.20560e-01,-1.17907e+00,-8.07760e-01,-2.33609e+00,-1.18304e+00,-1.79060e+00,
4.93290e-02,-3.20575e+00,9.98775e-01,-3.21188e-02,8.04228e-01,1.01782e-01,9.15630e-02,3.06111e-02,1.32636e-01,1.00274e-01,-1.29169e-01,9.09055e-01,-7.35033e-01,-1.54284e+00,-1.03736e+00,4.38574e-02,5.28873e+00,3.51873e-01,4.72635e-02,-1.71244e+00,1.79904e-01,-7.69775e-01,-2.30050e+00,-1.75056e+00,7.36982e-02,
-7.15545e-02,2.51841e+00,-2.92975e+00,1.17945e-02,-7.65764e-02,4.17705e-01,1.39594e+00,1.90158e-01,3.68582e-01,2.27776e-01,-5.55590e-02,-6.86557e-01,1.68659e-01,1.26054e+00,-2.54394e-01,5.43919e-02,-3.76318e-01,3.48018e-02,-3.40444e+00,3.35823e+00,-5.54792e-01,-3.85874e-01,-1.77536e-01,3.29392e-01,-1.48875e+00,
1.71751e-01,-1.52376e+00,-8.14771e-01,-3.13514e-02,-1.78215e-01,-5.69622e-01,-9.97748e-02,-5.91059e-01,-5.73795e-02,-2.75600e-01,3.52076e-01,2.09740e-01,-4.84119e-01,-4.15095e-01,-5.66982e-02,-1.65105e-01,1.80485e+00,-3.46189e-01,1.15103e+00,-5.68559e+00,3.20840e-01,3.19544e-01,5.35569e-01,5.55591e-01,4.84197e-01,
6.07938e-02,-2.37853e+00,1.11569e+00,-9.81239e-02,-4.45478e-01,3.22375e-02,4.67798e-01,6.14289e-02,-2.43960e-02,3.30300e-02,-4.71427e-02,-1.09003e+00,-1.49971e-01,2.17792e+00,-7.01698e-01,-6.02628e-02,5.91990e-01,1.19701e+00,-1.57683e+00,3.51680e+00,-7.95759e-02,2.49718e+00,-6.83822e-01,-2.49088e-01,3.11646e-01,
-2.07253e-02,-7.18907e+00,6.12589e+00,1.63332e-03,-8.97188e-01,-4.70758e-02,-1.16901e-01,-1.10613e-01,-1.37214e-01,6.46350e-02,-1.51830e-01,9.91110e-02,-8.41877e-02,-1.42905e-01,-2.90518e-01,5.16241e-02,1.38359e-01,8.68961e-01,-1.62903e+00,2.30381e+00,-4.28568e-01,-1.17068e+00,-9.59382e-01,-9.99534e-01,-8.97673e-01,
-1.32164e-02,-1.52182e-02,7.78090e-02,-1.26751e-01,-5.39379e-02,6.86037e-02,4.12051e-01,6.02663e-03,4.50062e-02,2.82487e-01,-2.27628e-01,-8.16045e-02,-1.53502e-01,1.13862e-01,2.41833e-02,2.53501e-02,5.50087e-02,1.53170e-02,-4.81928e-02,-6.71762e+00,-6.44101e-01,-2.80481e-01,-8.78882e-01,-8.19182e-02,-6.71056e-01,
1.49112e-01,-1.92017e+00,4.98181e+00,-3.69026e-02,1.19299e-01,-1.45196e-02,1.91840e-01,6.06180e-02,2.63917e-01,-1.85934e-01,-2.25396e-02,-3.75206e-01,5.62302e-01,7.41177e-01,-2.57564e-01,8.32251e-03,2.14233e+00,-4.78565e+00,-5.71609e-02,-2.14319e+00,2.42716e-01,7.00863e-01,-4.11513e+00,2.09998e+00,-1.90004e+00,
2.64721e-01,-4.42360e-02,8.86577e-01,-1.75665e-02,2.92870e-01,4.38503e-01,-2.59249e-01,2.63798e-01,-3.04315e-01,1.07815e-01,3.04299e-02,1.66726e+00,-1.69215e+00,-3.11345e+00,-1.79065e+00,-1.30602e-01,-1.43698e+00,6.14107e-02,-5.95005e-01,-1.19129e-01,-2.86023e+00,5.04589e-01,-8.59529e-01,9.17894e-02,1.08420e+00,
-1.09687e-02,3.33957e+00,9.45093e-01,1.02229e-01,-1.94051e-01,-3.77144e-02,-8.42844e-01,5.10021e-02,-3.95698e-01,-1.63502e-01,1.23989e-01,-9.60499e-02,5.47257e-01,1.79657e-01,1.98205e-01,-6.88074e-02,6.33824e-01,-9.68569e-02,-1.20339e+00,6.46938e+00,3.14771e-03,1.76123e+00,-1.43570e+00,9.01471e-01,-8.49313e-03,
6.99715e-03,-1.07115e-02,3.92335e+00,-8.87334e-02,2.47778e-02,-4.59253e-01,2.94007e-02,-3.44338e-01,3.00256e-01,-2.83712e-02,7.59868e-02,5.97554e-01,4.95290e-01,-1.09927e+00,-7.60364e-01,-1.95775e-01,-1.50077e-02,3.00083e+00,-1.54049e+00,-7.27790e-01,5.53316e-01,-2.92694e-02,1.40321e-01,-1.26400e+00,1.22136e+00,
2.16861e-02,2.76472e+00,-6.18106e+00,-6.33382e-02,1.22609e-01,7.11739e-02,-3.89941e-01,-5.95739e-02,-6.00329e-01,9.66743e-02,-6.41238e-02,-7.35284e-01,3.11537e-01,1.53865e+00,-5.55648e-01,-7.18309e-02,1.39506e+00,4.23308e-01,-1.53960e+00,1.65771e+00,-1.35559e+00,-8.13420e-01,6.48607e-01,-1.47468e+00,-9.52598e-01,
1.25668e-01,-9.30498e+00,2.03404e-01,-6.84962e-02,5.44369e-02,-7.11460e-02,-2.65049e-01,-3.02049e-02,3.25864e-02,-1.18252e-01,3.91392e-02,-3.99833e-01,-2.53899e-01,7.80160e-01,1.72403e-01,5.80415e-02,4.38117e-02,3.83734e-01,7.57499e-01,-3.82145e+00,4.02637e-01,-1.11057e+00,-1.78924e-01,-1.13200e+00,3.47752e-01,
3.16116e-01,
-3.03990e-01,
9.64965e-01,
8.03398e-01,
-8.28839e-01,
-2.93063e+00,
4.48047e-01,
5.50773e-01,
2.26852e-01,
-3.35413e-01,
7.79620e-01,
-2.50177e+00,
-3.52787e-01,
8.46073e-01,
-1.07913e+00,
1.02320e+00,
4.30686e+00,
-1.10915e+00,
-5.09312e-01,
-2.97980e+00,
-1.39825e+00,
1.66958e+00,
3.59149e-01,
7.70104e-01,4.99963e+00,-6.05772e-01,1.87301e+00,5.47988e-01,8.57401e-01,-7.36039e-02,1.23856e+00,-1.48952e+00,-2.56305e-01,-6.58351e-01,8.08825e-01,4.69328e-01,6.89022e-01,-3.16777e-02,-1.23888e+00,-1.18864e+00,4.50339e-01,-5.27423e-01,1.57103e+00,9.28793e-01,-1.36676e+00,-4.66041e-01,
5.34024e-01,-6.62588e-01,-4.72734e-01,1.24903e+00,-1.04351e-01,9.49342e-01,1.62730e-01,-2.67227e-01,-5.60018e-01,-8.97942e-01,-7.76177e-01,3.47558e-01,4.94477e-01,-9.85688e-01,5.18648e-01,1.57432e+00,-1.24447e+01,8.10170e-01,-4.26889e-01,-7.06580e-01,2.17058e+00,7.66013e-02,-6.69379e-02,
1.46454e+00,3.29683e+00,-2.13216e-01,-2.56566e+00,-9.60103e-01,2.39418e+00,-1.52221e-01,-5.06309e-01,-8.20250e-02,-6.67475e-01,-1.88155e-01,-7.71270e-01,-3.97202e-01,2.47957e-01,1.04696e+00,-2.01430e-01,1.44721e+00,-1.99307e+00,-3.54206e-01,5.15504e-02,-2.74683e+00,-3.86120e-01,-1.58785e+00,
1.10672e+00,1.17267e+00,-9.92085e-01,-5.91573e-02,7.37444e-01,9.50371e-01,6.95258e-01,1.40940e+00,-1.61886e+00,7.80810e-01,-3.42365e-01,2.11478e-01,6.55013e-01,-1.31627e+00,1.88432e+00,-8.70040e-02,9.47792e-01,-4.62585e-01,-9.49325e-01,-7.45273e-02,-1.80377e+00,-1.29862e+00,3.75360e-01,
-7.68633e-01,5.72443e-01,-3.29932e-02,3.04366e+00,3.29713e-01,2.25779e+00,-6.84080e-01,9.12389e-01,-1.00432e+00,3.68796e-02,1.40808e+00,-6.58851e-01,4.86748e-01,-1.22119e+00,-1.44314e+00,-8.38667e-01,-4.39123e-01,2.54008e-01,2.64030e-01,1.92817e-01,-1.53764e+00,5.88026e-01,-9.96254e-04,
-1.92546e-01,2.33809e+00,4.20841e-01,8.64276e-02,9.61188e-01,-6.20018e-01,2.67955e-02,8.09784e-01,5.20820e-01,-1.91540e+00,6.86759e-02,4.83603e-01,1.28589e+00,-1.44898e+00,-2.02610e-01,6.82072e-01,2.89487e-01,-1.81920e+00,-6.12920e-01,2.91655e+00,-1.14673e+00,-3.04488e-01,-6.22961e-02,
3.47589e-01,4.26879e+00,3.95866e-01,3.89399e-01,-2.80497e-01,-2.20035e-01,2.82080e-01,6.20806e-01,3.99741e-01,5.93889e-01,2.79720e-01,2.72160e-01,-1.15179e-01,2.74101e+00,8.86587e-02,2.64679e+00,-8.34185e-01,-1.22071e+00,-7.44884e-01,5.48658e-01,-4.55527e-01,-1.07267e+00,-6.66701e+00,
2.39142e-01,-8.74819e-02,-2.59455e-01,1.73342e+00,2.90842e-01,2.50306e-01,-1.61773e+00,3.83008e-01,-5.69196e-01,1.03444e+00,4.45887e-01,-3.95822e-01,6.66060e-01,3.37932e-01,-8.74837e-01,1.10515e+00,7.29974e-01,2.80868e-01,-4.57006e-01,1.35787e+00,-1.05743e+00,-1.23571e+00,3.53284e-01,
1.25909e-01,-7.82884e-01,-6.99907e-01,1.93520e-01,-1.80689e-01,4.88845e+00,8.13304e-01,9.27965e-01,-5.86565e-01,1.65557e+00,8.82458e-01,1.40548e-01,-8.85358e-01,2.84953e-01,1.90129e+00,-2.58662e+00,4.79564e-01,-1.64674e+00,-5.14705e+00,-2.98115e+00,-2.74928e+00,-1.15262e+00,-1.08475e-01,
1.59361e-01,-1.21210e+00,-1.06899e+00,1.45241e-01,-9.71181e-01,1.67447e+00,1.22959e-01,-1.22469e+00,-1.45771e+00,-7.58826e-01,1.19283e+00,-1.01072e+00,1.23426e+00,-2.55713e+00,-3.84210e-02,1.78988e+00,-6.88289e+00,-1.82894e+00,8.04980e-02,1.04303e+00,-2.52264e+00,-2.54688e+00,1.41119e+00,
-4.92739e-02,-1.27059e-01,-6.14089e-01,-4.04845e-01,6.68808e-01,-1.33022e+00,-2.28830e-01,3.05663e-01,-1.45805e+00,6.50455e-01,3.93155e-01,5.84395e-01,1.33068e+00,6.35546e-01,-7.63776e-01,1.43313e+00,-8.62080e-01,5.12270e-01,-4.03479e-01,1.72063e+00,-6.78542e-01,-5.76598e-01,-9.74681e-01,
-2.86249e-01,1.08121e+00,-1.13062e-01,7.54043e-01,1.02131e+00,-7.29539e-01,2.31054e-01,2.57365e+00,-9.93372e-01,2.02372e-01,1.27192e-02,-1.65530e+00,2.09633e+00,-2.72161e+00,1.28060e-01,6.59648e-01,-1.56536e+00,-3.57195e-01,4.38423e-01,8.35098e-01,6.41514e-01,7.79442e-01,-3.86308e-02,
1.34049e+00,1.73939e+00,-5.42185e-02,-4.50553e-01,-1.99149e+00,-8.40932e-01,-3.11963e-01,2.75455e+00,1.58248e-01,1.15994e+00,6.55334e-01,3.39005e-01,-2.29880e-01,7.03196e-03,-1.97224e+00,1.00157e+00,-1.65374e-01,-2.91387e+00,-1.43883e+00,-3.12710e-01,2.90605e+00,6.18382e-01,-3.69799e-01,
3.51282e-01,6.99240e-01,-1.18821e+00,-2.60399e-01,9.64538e-01,1.99582e+00,-1.92065e+00,-1.50644e-01,-8.01645e-01,-8.99212e-01,-1.22169e+00,1.10047e+00,-5.99033e-01,-9.48949e-01,-2.23843e+00,9.38411e-01,8.36060e-01,2.92883e+00,2.30327e-01,-2.00696e-01,3.58242e+00,-3.34501e+00,1.43791e-01,
-1.98247e-01,5.06102e+00,4.10751e-01,1.19972e-02,6.53930e-01,-2.10956e+00,-7.00537e-01,5.01572e-01,-6.59463e-01,-9.15220e-01,-2.97843e-01,-8.18720e-01,4.13335e-02,-3.06831e-01,-1.01168e+00,-1.04649e+00,9.97551e-01,-7.07002e-01,-3.90039e-01,1.59018e+00,1.45660e+00,1.82850e+00,-4.31114e-01,
-1.35338e+00,1.77112e+00,-3.46787e+00,9.63690e-01,-2.30259e-01,-3.69205e-01,-5.29290e-02,-4.86577e-01,-7.75040e-01,-2.93370e-01,-4.97442e-01,-2.84934e-01,3.01818e+00,1.65994e+00,1.43071e-01,-9.52126e-03,-2.00317e+00,3.65869e-01,-3.99855e-02,-4.06852e+00,1.14182e+00,2.23131e-01,1.21575e+00,
9.50121e-01,8.23840e-02,-2.05405e-02,4.05862e-01,-1.85859e-01,-3.66145e+00,7.72108e-01,1.20721e+00,-1.40374e-01,-8.27050e-01,1.96093e-01,-3.10514e-01,6.27315e-01,1.07261e+00,-3.41513e-01,1.09815e+00,-8.74810e-01,-1.63407e+00,-1.83530e-01,-2.93736e-01,-1.88666e-02,3.33163e-01,1.12487e-01,
1.57228e+00,9.15577e-01,-1.04851e+00,9.10656e-02,-4.23402e-01,5.69027e-01,-5.94656e-01,1.38078e+00,-1.01269e+00,-3.91080e-01,1.15742e+00,-2.09464e+00,9.86017e-02,6.22401e-01,-2.29062e+00,6.69635e-01,-3.47208e-01,-2.05023e-01,9.27587e-01,9.40678e-01,-3.16414e+00,6.41609e-01,-1.86878e-01,
-6.85938e+00,
-4.18983e+00,
-6.34429e+00,
2.52187e+00,
-2.76344e+00,
-5.24385e+00,
-2.41455e+00,
-4.93611e+00,
-1.68783e+00,
-2.44971e+00,
5.06544e+00,
3.22303e-01,
-2.16257e+00,
-6.18118e+00,
2.35010e-01,
-6.27840e+00,
3.32843e+00,
-3.46123e-01,
-3.90580e+00,-2.63993e-01,1.19369e+00,1.60660e-01,-2.34116e-01,-1.18169e+00,4.91118e-01,6.81203e-01,-2.70268e-01,-4.46272e-01,8.13121e-01,3.86629e-01,3.21994e-01,-1.33575e-01,-7.04064e-01,4.54456e-01,-4.81638e-01,1.02407e+00,
-9.46603e-01,-1.03999e-01,1.20370e-01,-1.25863e-01,1.27424e+00,6.74760e-01,8.19782e-01,4.38596e-01,8.85475e-01,7.01916e-01,-1.88520e-01,6.51178e-01,-4.54407e-02,4.93811e-01,-3.83139e-01,3.31174e-01,7.60301e-02,-4.47181e-01,
-8.54685e-01,-9.04631e-01,3.19342e-01,3.71462e-01,4.23393e-01,-2.65736e-01,1.49002e+00,5.57426e-01,9.99642e-01,1.23366e+00,-1.42789e-01,8.60802e-01,-4.17891e-01,-4.91592e-01,7.53178e-01,-6.23288e-01,-1.75194e+00,1.00759e+00,
-1.88373e+00,1.15337e+00,-4.26429e-01,8.89945e-01,1.30588e+00,6.36732e-01,6.94484e-01,-2.21953e+00,1.25353e+00,2.63797e-01,-3.75009e-01,-6.96271e-01,-1.16645e+00,-1.35095e+00,1.11152e+00,4.80964e-01,9.06078e-01,-2.48714e-01,
-1.51210e+00,-7.89320e-02,-5.58690e-01,8.87930e-01,-4.77605e-01,-2.50150e+00,8.87046e-01,2.12714e-01,2.78655e-01,-7.27226e-01,8.66654e-01,-3.95033e-01,-9.03257e-01,-1.90144e+00,1.70972e+00,2.53890e-01,8.02581e-02,6.29058e-01,
1.02801e+00,-7.57982e-01,7.64333e-01,1.08501e+00,-7.59440e-01,-1.08755e+00,6.46387e-01,-6.33582e-01,-1.33086e+00,1.67593e-01,9.42613e-01,-9.02816e-01,-1.42613e-01,4.70846e-02,9.14522e-02,-3.50347e+00,3.71195e-01,7.13864e-01,
-1.26810e+00,1.91251e+00,-3.49705e+00,-2.88776e-01,1.03291e+00,5.76176e-01,1.26806e+00,-4.85762e-01,1.40137e+00,-9.28248e-01,1.19912e+00,-2.04894e+00,1.33796e+00,-3.04094e-01,-5.58192e-01,1.13108e+00,1.17818e+00,-1.21655e+00,
-1.42416e+00,-1.24482e+00,2.63631e+00,-1.50049e+00,-4.65000e-01,3.51436e-01,-1.04127e+00,1.80264e+00,6.09899e-01,-1.85275e+00,1.32000e-03,1.46547e+00,3.96889e-01,-2.28152e-01,-4.94505e-01,2.40181e+00,-4.79795e-01,4.10149e-01,
-1.62104e+00,6.13222e-01,-1.24638e-01,7.93613e-01,8.87871e-01,4.84342e-01,-7.44213e-01,1.22076e+00,8.60782e-02,-4.58996e-01,-2.34181e-01,-7.33247e-01,5.79385e-02,-8.59738e-01,1.42928e+00,-6.18756e-02,4.32962e-01,1.16924e-01,
-5.45143e-01,1.37920e+00,-1.98634e+00,-9.47380e-02,1.34420e-01,7.97117e-01,-1.77372e+00,1.07384e+00,3.46966e-01,-1.35919e+01,2.74279e+00,-7.96663e-01,8.20822e-01,-2.23061e+00,-3.12313e-02,6.28566e-01,4.89455e-01,-1.38187e+00,
-8.36393e-01,-7.33768e-01,2.23094e+00,9.89979e-01,-1.03758e+00,7.80498e-01,-4.42642e-01,-3.22005e+00,1.02837e+00,9.66544e-01,-1.74385e+00,-5.31833e-01,7.60211e-01,9.84489e-02,-6.26452e-01,7.80709e-01,8.67174e-01,8.50382e-02,
4.22223e+00,
-8.86775e+00,
1.13589e+00,
-1.63661e-01,
-1.15263e+00,
6.03623e+00,
3.77160e+00,
-3.73378e-01,
5.40919e-01,
-5.67117e+00,
3.44228e+00,
-3.68464e-01,-6.34482e-01,7.62820e-01,-2.12023e-01,-6.08464e-01,7.39904e-01,-3.75586e-01,-1.19242e-01,7.21279e-01,2.43413e-02,-7.84418e-01,
1.21613e+00,1.19964e-01,-9.15992e-01,8.05097e-01,-4.27763e-01,-2.54798e-01,-2.15066e-01,2.03334e-01,-7.74047e-01,6.63954e-01,-7.30257e-01,
-3.95434e-01,-2.81455e-01,5.68715e-01,-4.76854e-01,6.89989e-01,-5.22011e-02,-2.50554e-01,2.27778e-01,-4.26009e-01,5.30584e-01,-1.55686e-02,
5.24522e-01,3.22731e-01,1.13405e-01,-6.69392e-01,2.39117e-01,-5.44861e-01,-4.37359e-01,-6.44501e-01,4.21191e-01,-7.22329e-01,2.29166e-01,
2.33385e-01,3.76291e-01,-1.20678e-02,1.34872e-01,-7.07759e-01,1.91717e-01,-1.06581e+00,-2.21067e-02,3.90395e-01,-4.52763e-02,-3.34783e-01,
-4.93748e+00,
-6.68036e-01,
3.71898e-01,
2.01885e+00,
2.08776e+00,
